<?xml version="1.0"?>
<MethodSetup Method="BDT::BDTG">
  <GeneralInfo>
    <Info name="TMVA Release" value="4.2.1 [262657]"/>
    <Info name="ROOT Release" value="6.24/06 [399366]"/>
    <Info name="Creator" value="pvaucell"/>
    <Info name="Date" value="Tue Apr 23 10:28:42 2024"/>
    <Info name="Host" value="Linux sbgat310.in2p3.fr 3.10.0-1160.36.2.el7.x86_64 #1 SMP Wed Jul 21 11:57:15 UTC 2021 x86_64 x86_64 x86_64 GNU/Linux"/>
    <Info name="Dir" value="/opt/sbg/cms/ui2_data1/pvaucell/LLTopAna/MVA/AnalysisCode"/>
    <Info name="Training events" value="400000"/>
    <Info name="TrainingTime" value="8.87695219e+02"/>
    <Info name="AnalysisType" value="Classification"/>
  </GeneralInfo>
  <Options>
    <Option name="V" modified="Yes">False</Option>
    <Option name="VerbosityLevel" modified="No">Default</Option>
    <Option name="VarTransform" modified="No">None</Option>
    <Option name="H" modified="Yes">False</Option>
    <Option name="CreateMVAPdfs" modified="No">False</Option>
    <Option name="IgnoreNegWeightsInTraining" modified="No">False</Option>
    <Option name="NTrees" modified="Yes">1000</Option>
    <Option name="MaxDepth" modified="Yes">4</Option>
    <Option name="MinNodeSize" modified="Yes">2.5%</Option>
    <Option name="nCuts" modified="Yes">20</Option>
    <Option name="BoostType" modified="Yes">Grad</Option>
    <Option name="AdaBoostR2Loss" modified="No">quadratic</Option>
    <Option name="UseBaggedBoost" modified="Yes">True</Option>
    <Option name="Shrinkage" modified="Yes">1.000000e-01</Option>
    <Option name="AdaBoostBeta" modified="No">5.000000e-01</Option>
    <Option name="UseRandomisedTrees" modified="Yes">False</Option>
    <Option name="UseNvars" modified="No">3</Option>
    <Option name="UsePoissonNvars" modified="No">True</Option>
    <Option name="BaggedSampleFraction" modified="No">6.000000e-01</Option>
    <Option name="UseYesNoLeaf" modified="Yes">False</Option>
    <Option name="NegWeightTreatment" modified="No">pray</Option>
    <Option name="Css" modified="No">1.000000e+00</Option>
    <Option name="Cts_sb" modified="No">1.000000e+00</Option>
    <Option name="Ctb_ss" modified="No">1.000000e+00</Option>
    <Option name="Cbb" modified="No">1.000000e+00</Option>
    <Option name="NodePurityLimit" modified="No">5.000000e-01</Option>
    <Option name="SeparationType" modified="Yes">giniindex</Option>
    <Option name="RegressionLossFunctionBDTG" modified="No">huber</Option>
    <Option name="HuberQuantile" modified="No">7.000000e-01</Option>
    <Option name="DoBoostMonitor" modified="Yes">True</Option>
    <Option name="UseFisherCuts" modified="No">False</Option>
    <Option name="MinLinCorrForFisher" modified="No">8.000000e-01</Option>
    <Option name="UseExclusiveVars" modified="No">False</Option>
    <Option name="DoPreselection" modified="No">False</Option>
    <Option name="SigToBkgFraction" modified="No">1.000000e+00</Option>
    <Option name="PruneMethod" modified="No">nopruning</Option>
    <Option name="PruneStrength" modified="No">0.000000e+00</Option>
    <Option name="PruningValFraction" modified="No">5.000000e-01</Option>
    <Option name="SkipNormalization" modified="No">False</Option>
    <Option name="nEventsMin" modified="No">0</Option>
    <Option name="UseBaggedGrad" modified="No">False</Option>
    <Option name="GradBaggingFraction" modified="Yes">6.000000e-01</Option>
    <Option name="UseNTrainEvents" modified="No">0</Option>
    <Option name="NNodesMax" modified="No">0</Option>
  </Options>
  <Variables NVar="8">
    <Variable VarIndex="0" Expression="mva_Vtx_nTrks" Label="mva_Vtx_nTrks" Title="mva_Vtx_nTrks" Unit="" Internal="mva_Vtx_nTrks" Type="F" Min="1.00000000e+00" Max="1.63000000e+02"/>
    <Variable VarIndex="1" Expression="mva_Vtx_NChi2" Label="mva_Vtx_NChi2" Title="mva_Vtx_NChi2" Unit="" Internal="mva_Vtx_NChi2" Type="F" Min="3.10680601e-17" Max="9.99612427e+00"/>
    <Variable VarIndex="2" Expression="mva_Vtx_step" Label="mva_Vtx_step" Title="mva_Vtx_step" Unit="" Internal="mva_Vtx_step" Type="F" Min="0.00000000e+00" Max="4.00000000e+00"/>
    <Variable VarIndex="3" Expression="mva_Vtx_MTW" Label="mva_Vtx_MTW" Title="mva_Vtx_MTW" Unit="" Internal="mva_Vtx_MTW" Type="F" Min="0.00000000e+00" Max="5.08722153e+01"/>
    <Variable VarIndex="4" Expression="mva_Vtx_Mass" Label="mva_Vtx_Mass" Title="mva_Vtx_Mass" Unit="" Internal="mva_Vtx_Mass" Type="F" Min="0.00000000e+00" Max="1.24526929e+03"/>
    <Variable VarIndex="5" Expression="mva_Vtx_ntrk10" Label="mva_Vtx_ntrk10" Title="mva_Vtx_ntrk10" Unit="" Internal="mva_Vtx_ntrk10" Type="F" Min="0.00000000e+00" Max="8.60000000e+01"/>
    <Variable VarIndex="6" Expression="mva_Vtx_ntrk20" Label="mva_Vtx_ntrk20" Title="mva_Vtx_ntrk20" Unit="" Internal="mva_Vtx_ntrk20" Type="F" Min="0.00000000e+00" Max="1.02000000e+02"/>
    <Variable VarIndex="7" Expression="mva_Vtx_MeanDCA" Label="mva_Vtx_MeanDCA" Title="mva_Vtx_MeanDCA" Unit="" Internal="mva_Vtx_MeanDCA" Type="F" Min="0.00000000e+00" Max="1.54392365e+02"/>
  </Variables>
  <Spectators NSpec="0"/>
  <Classes NClass="2">
    <Class Name="Signal" Index="0"/>
    <Class Name="Background" Index="1"/>
  </Classes>
  <Transformations NTransformations="0"/>
  <MVAPdfs/>
  <Weights NTrees="1000" AnalysisType="1">
    <BinaryTree type="DecisionTree" boostWeight="1.0000000000000000e+00" itree="0">
      <Node pos="s" depth="0" NCoef="0" IVar="2" Cut="2.0952382087707520e+00" cType="1" res="1.5749644953757524e-03" rms="4.9999752640724182e-01" purity="5.0157499313354492e-01" nType="0">
        <Node pos="l" depth="1" NCoef="0" IVar="3" Cut="2.4224865436553955e+00" cType="1" res="4.7742784023284912e-01" rms="1.4853499829769135e-01" purity="9.7742784023284912e-01" nType="0">
          <Node pos="l" depth="2" NCoef="0" IVar="6" Cut="2.7142856121063232e+00" cType="1" res="3.6863565444946289e-01" rms="3.3779838681221008e-01" purity="8.6863565444946289e-01" nType="0">
            <Node pos="l" depth="3" NCoef="0" IVar="-1" Cut="0.0000000000000000e+00" cType="1" res="5.8678470551967621e-02" rms="4.0487149357795715e-01" purity="7.9339236021041870e-01" nType="-99"/>
            <Node pos="r" depth="3" NCoef="0" IVar="-1" Cut="0.0000000000000000e+00" cType="1" res="8.5242532193660736e-02" rms="2.6142451167106628e-01" purity="9.2621266841888428e-01" nType="-99"/>
          </Node>
          <Node pos="r" depth="2" NCoef="0" IVar="3" Cut="4.7303862571716309e+00" cType="1" res="4.9445509910583496e-01" rms="7.4257284402847290e-02" purity="9.9445509910583496e-01" nType="0">
            <Node pos="l" depth="3" NCoef="0" IVar="3" Cut="3.7415709495544434e+00" cType="1" res="4.7591444849967957e-01" rms="1.5331482887268066e-01" purity="9.7591447830200195e-01" nType="0">
              <Node pos="l" depth="4" NCoef="0" IVar="-1" Cut="0.0000000000000000e+00" cType="1" res="9.3453980982303619e-02" rms="1.7792932689189911e-01" purity="9.6726989746093750e-01" nType="-99"/>
              <Node pos="r" depth="4" NCoef="0" IVar="-1" Cut="0.0000000000000000e+00" cType="1" res="9.7542241215705872e-02" rms="1.1017155647277832e-01" purity="9.8771119117736816e-01" nType="-99"/>
            </Node>
            <Node pos="r" depth="3" NCoef="0" IVar="4" Cut="2.9714094161987305e+01" cType="1" res="4.9952203035354614e-01" rms="2.1857203915715218e-02" purity="9.9952203035354614e-01" nType="0">
              <Node pos="l" depth="4" NCoef="0" IVar="-1" Cut="0.0000000000000000e+00" cType="1" res="9.9709570407867432e-02" rms="3.8079343736171722e-02" purity="9.9854785203933716e-01" nType="-99"/>
              <Node pos="r" depth="4" NCoef="0" IVar="-1" Cut="0.0000000000000000e+00" cType="1" res="9.9992081522941589e-02" rms="6.2929186969995499e-03" purity="9.9996042251586914e-01" nType="-99"/>
            </Node>
          </Node>
        </Node>
        <Node pos="r" depth="1" NCoef="0" IVar="3" Cut="3.0367159843444824e+00" cType="1" res="-3.8946127891540527e-01" rms="3.1356003880500793e-01" purity="1.1053870618343353e-01" nType="0">
          <Node pos="l" depth="2" NCoef="0" IVar="3" Cut="2.4580895900726318e+00" cType="1" res="-4.2161288857460022e-01" rms="2.6877981424331665e-01" purity="7.8387126326560974e-02" nType="0">
            <Node pos="l" depth="3" NCoef="0" IVar="0" Cut="4.4285712242126465e+00" cType="1" res="-4.4210210442543030e-01" rms="2.3355028033256531e-01" purity="5.7897899299860001e-02" nType="0">
              <Node pos="l" depth="4" NCoef="0" IVar="-1" Cut="0.0000000000000000e+00" cType="1" res="-9.0144798159599304e-02" rms="2.1644371747970581e-01" purity="4.9276005476713181e-02" nType="-99"/>
              <Node pos="r" depth="4" NCoef="0" IVar="-1" Cut="0.0000000000000000e+00" cType="1" res="-7.7572695910930634e-02" rms="3.1553432345390320e-01" purity="1.1213650554418564e-01" nType="-99"/>
            </Node>
            <Node pos="r" depth="3" NCoef="0" IVar="-1" Cut="0.0000000000000000e+00" cType="1" res="-4.5559480786323547e-02" rms="4.4509363174438477e-01" purity="2.7220261096954346e-01" nType="-99"/>
          </Node>
          <Node pos="r" depth="2" NCoef="0" IVar="-1" Cut="0.0000000000000000e+00" cType="1" res="1.7962849233299494e-03" rms="4.9991932511329651e-01" purity="5.0898140668869019e-01" nType="-99"/>
        </Node>
      </Node>
    </BinaryTree>
    <BinaryTree type="DecisionTree" boostWeight="1.0000000000000000e+00" itree="1">
      <Node pos="s" depth="0" NCoef="0" IVar="2" Cut="2.0952382087707520e+00" cType="1" res="-6.2787701608613133e-05" rms="4.6117663383483887e-01" purity="4.9997919797897339e-01" nType="0">
        <Node pos="l" depth="1" NCoef="0" IVar="3" Cut="2.1932284832000732e+00" cType="1" res="4.2928272485733032e-01" rms="1.4857703447341919e-01" purity="9.7689348459243774e-01" nType="0">
          <Node pos="l" depth="2" NCoef="0" IVar="6" Cut="2.7142856121063232e+00" cType="1" res="3.2444930076599121e-01" rms="3.4449926018714905e-01" purity="8.6117583513259888e-01" nType="0">
            <Node pos="l" depth="3" NCoef="0" IVar="-1" Cut="0.0000000000000000e+00" cType="1" res="5.0745338201522827e-02" rms="4.1277760267257690e-01" purity="7.8216069936752319e-01" nType="-99"/>
            <Node pos="r" depth="3" NCoef="0" IVar="-1" Cut="0.0000000000000000e+00" cType="1" res="7.6619379222393036e-02" rms="2.6683732867240906e-01" purity="9.2284494638442993e-01" nType="-99"/>
          </Node>
          <Node pos="r" depth="2" NCoef="0" IVar="3" Cut="4.2828097343444824e+00" cType="1" res="4.4507309794425964e-01" rms="7.4963428080081940e-02" purity="9.9432331323623657e-01" nType="0">
            <Node pos="l" depth="3" NCoef="0" IVar="6" Cut="4.8571429252624512e+00" cType="1" res="4.2710384726524353e-01" rms="1.5814986824989319e-01" purity="9.7430133819580078e-01" nType="0">
              <Node pos="l" depth="4" NCoef="0" IVar="-1" Cut="0.0000000000000000e+00" cType="1" res="8.3602346479892731e-02" rms="1.9276197254657745e-01" purity="9.6131259202957153e-01" nType="-99"/>
              <Node pos="r" depth="4" NCoef="0" IVar="-1" Cut="0.0000000000000000e+00" cType="1" res="8.8438384234905243e-02" rms="1.1912011355161667e-01" purity="9.8558992147445679e-01" nType="-99"/>
            </Node>
            <Node pos="r" depth="3" NCoef="0" IVar="3" Cut="6.2726306915283203e+00" cType="1" res="4.4952496886253357e-01" rms="2.6746891438961029e-02" purity="9.9928373098373413e-01" nType="0">
              <Node pos="l" depth="4" NCoef="0" IVar="-1" Cut="0.0000000000000000e+00" cType="1" res="9.0353108942508698e-02" rms="5.5498681962490082e-02" purity="9.9690943956375122e-01" nType="-99"/>
              <Node pos="r" depth="4" NCoef="0" IVar="-1" Cut="0.0000000000000000e+00" cType="1" res="9.0909361839294434e-02" rms="1.2786152772605419e-02" purity="9.9983650445938110e-01" nType="-99"/>
            </Node>
          </Node>
        </Node>
        <Node pos="r" depth="1" NCoef="0" IVar="3" Cut="3.0367159843444824e+00" cType="1" res="-3.5198631882667542e-01" rms="3.0655184388160706e-01" purity="1.0906475037336349e-01" nType="0">
          <Node pos="l" depth="2" NCoef="0" IVar="3" Cut="2.6027145385742188e+00" cType="1" res="-3.8047641515731812e-01" rms="2.6569503545761108e-01" purity="7.7456966042518616e-02" nType="0">
            <Node pos="l" depth="3" NCoef="0" IVar="0" Cut="3.1428570747375488e+00" cType="1" res="-3.9894744753837585e-01" rms="2.3180234432220459e-01" purity="5.7120598852634430e-02" nType="0">
              <Node pos="l" depth="4" NCoef="0" IVar="-1" Cut="0.0000000000000000e+00" cType="1" res="-8.3248883485794067e-02" rms="2.0105512440204620e-01" purity="4.2218301445245743e-02" nType="-99"/>
              <Node pos="r" depth="4" NCoef="0" IVar="-1" Cut="0.0000000000000000e+00" cType="1" res="-7.1125693619251251e-02" rms="3.0765253305435181e-01" purity="1.0598919540643692e-01" nType="-99"/>
            </Node>
            <Node pos="r" depth="3" NCoef="0" IVar="-1" Cut="0.0000000000000000e+00" cType="1" res="-3.7946168333292007e-02" rms="4.5278352499008179e-01" purity="2.8789845108985901e-01" nType="-99"/>
          </Node>
          <Node pos="r" depth="2" NCoef="0" IVar="-1" Cut="0.0000000000000000e+00" cType="1" res="2.4294389877468348e-03" rms="4.9982976913452148e-01" purity="5.1304531097412109e-01" nType="-99"/>
        </Node>
      </Node>
    </BinaryTree>
    <BinaryTree type="DecisionTree" boostWeight="1.0000000000000000e+00" itree="2">
      <Node pos="s" depth="0" NCoef="0" IVar="2" Cut="2.0952382087707520e+00" cType="1" res="1.3147961581125855e-03" rms="4.2758971452713013e-01" purity="5.0154358148574829e-01" nType="0">
        <Node pos="l" depth="1" NCoef="0" IVar="3" Cut="2.8936481475830078e+00" cType="1" res="3.8630995154380798e-01" rms="1.4885416626930237e-01" purity="9.7635287046432495e-01" nType="0">
          <Node pos="l" depth="2" NCoef="0" IVar="6" Cut="2.7142856121063232e+00" cType="1" res="3.0817082524299622e-01" rms="3.2077413797378540e-01" purity="8.8110882043838501e-01" nType="0">
            <Node pos="l" depth="3" NCoef="0" IVar="-1" Cut="0.0000000000000000e+00" cType="1" res="4.8001952469348907e-02" rms="4.0387842059135437e-01" purity="7.9370218515396118e-01" nType="-99"/>
            <Node pos="r" depth="3" NCoef="0" IVar="-1" Cut="0.0000000000000000e+00" cType="1" res="7.2178244590759277e-02" rms="2.4864920973777771e-01" purity="9.3361622095108032e-01" nType="-99"/>
          </Node>
          <Node pos="r" depth="2" NCoef="0" IVar="3" Cut="5.1783542633056641e+00" cType="1" res="4.0194034576416016e-01" rms="6.7390911281108856e-02" purity="9.9540483951568604e-01" nType="0">
            <Node pos="l" depth="3" NCoef="0" IVar="3" Cut="3.6551945209503174e+00" cType="1" res="3.9110094308853149e-01" rms="1.3219353556632996e-01" purity="9.8215013742446899e-01" nType="0">
              <Node pos="l" depth="4" NCoef="0" IVar="-1" Cut="0.0000000000000000e+00" cType="1" res="7.7822878956794739e-02" rms="1.8230396509170532e-01" purity="9.6555423736572266e-01" nType="-99"/>
              <Node pos="r" depth="4" NCoef="0" IVar="-1" Cut="0.0000000000000000e+00" cType="1" res="8.2482434809207916e-02" rms="9.6291102468967438e-02" purity="9.9062412977218628e-01" nType="-99"/>
            </Node>
            <Node pos="r" depth="3" NCoef="0" IVar="7" Cut="2.0081634521484375e+00" cType="1" res="4.0543538331985474e-01" rms="1.7921470105648041e-02" purity="9.9967861175537109e-01" nType="0">
              <Node pos="l" depth="4" NCoef="0" IVar="-1" Cut="0.0000000000000000e+00" cType="1" res="8.4099628031253815e-02" rms="1.4003462158143520e-02" purity="9.9980384111404419e-01" nType="-99"/>
              <Node pos="r" depth="4" NCoef="0" IVar="-1" Cut="0.0000000000000000e+00" cType="1" res="8.3858780562877655e-02" rms="3.7011019885540009e-02" purity="9.9862790107727051e-01" nType="-99"/>
            </Node>
          </Node>
        </Node>
        <Node pos="r" depth="1" NCoef="0" IVar="3" Cut="2.6564335823059082e+00" cType="1" res="-3.1545856595039368e-01" rms="3.0452397465705872e-01" purity="1.1087127774953842e-01" nType="0">
          <Node pos="l" depth="2" NCoef="0" IVar="0" Cut="3.0476191043853760e+00" cType="1" res="-3.5753995180130005e-01" rms="2.3535968363285065e-01" purity="5.9167150408029556e-02" nType="0">
            <Node pos="l" depth="3" NCoef="0" IVar="0" Cut="2.0476191043853760e+00" cType="1" res="-3.6998346447944641e-01" rms="2.0564305782318115e-01" purity="4.4277634471654892e-02" nType="0">
              <Node pos="l" depth="4" NCoef="0" IVar="-1" Cut="0.0000000000000000e+00" cType="1" res="-7.8221261501312256e-02" rms="1.8271957337856293e-01" purity="3.4582383930683136e-02" nType="-99"/>
              <Node pos="r" depth="4" NCoef="0" IVar="-1" Cut="0.0000000000000000e+00" cType="1" res="-7.2164192795753479e-02" rms="2.4499088525772095e-01" purity="6.4218215644359589e-02" nType="-99"/>
            </Node>
            <Node pos="r" depth="3" NCoef="0" IVar="2" Cut="3.0476191043853760e+00" cType="1" res="-3.1727817654609680e-01" rms="3.0931308865547180e-01" purity="1.0734313726425171e-01" nType="0">
              <Node pos="l" depth="4" NCoef="0" IVar="-1" Cut="0.0000000000000000e+00" cType="1" res="-5.1091801375150681e-02" rms="3.7814339995384216e-01" purity="1.7388848960399628e-01" nType="-99"/>
              <Node pos="r" depth="4" NCoef="0" IVar="-1" Cut="0.0000000000000000e+00" cType="1" res="-8.0966867506504059e-02" rms="1.7113545536994934e-01" purity="3.0191458761692047e-02" nType="-99"/>
            </Node>
          </Node>
          <Node pos="r" depth="2" NCoef="0" IVar="0" Cut="5.3809523582458496e+00" cType="1" res="-8.3170361816883087e-02" rms="4.8489335179328918e-01" purity="3.9627671241760254e-01" nType="0">
            <Node pos="l" depth="3" NCoef="0" IVar="-1" Cut="0.0000000000000000e+00" cType="1" res="-3.9402365684509277e-02" rms="4.4727811217308044e-01" purity="2.7612438797950745e-01" nType="-99"/>
            <Node pos="r" depth="3" NCoef="0" IVar="-1" Cut="0.0000000000000000e+00" cType="1" res="1.5984348952770233e-02" rms="4.9069151282310486e-01" purity="5.6967067718505859e-01" nType="-99"/>
          </Node>
        </Node>
      </Node>
    </BinaryTree>
    <BinaryTree type="DecisionTree" boostWeight="1.0000000000000000e+00" itree="3">
      <Node pos="s" depth="0" NCoef="0" IVar="2" Cut="2.0952382087707520e+00" cType="1" res="1.0945408139377832e-03" rms="3.9772209525108337e-01" purity="5.0113552808761597e-01" nType="0">
        <Node pos="l" depth="1" NCoef="0" IVar="3" Cut="2.4224865436553955e+00" cType="1" res="3.4971269965171814e-01" rms="1.4337219297885895e-01" purity="9.7775012254714966e-01" nType="0">
          <Node pos="l" depth="2" NCoef="0" IVar="6" Cut="2.7142856121063232e+00" cType="1" res="2.7031198143959045e-01" rms="3.3372843265533447e-01" purity="8.6932402849197388e-01" nType="0">
            <Node pos="l" depth="3" NCoef="0" IVar="-1" Cut="0.0000000000000000e+00" cType="1" res="4.3312024325132370e-02" rms="4.0772503614425659e-01" purity="7.8949844837188721e-01" nType="-99"/>
            <Node pos="r" depth="3" NCoef="0" IVar="-1" Cut="0.0000000000000000e+00" cType="1" res="6.6769130527973175e-02" rms="2.5295990705490112e-01" purity="9.3127357959747314e-01" nType="-99"/>
          </Node>
          <Node pos="r" depth="2" NCoef="0" IVar="3" Cut="4.7309255599975586e+00" cType="1" res="3.6205399036407471e-01" rms="7.2851203382015228e-02" purity="9.9460285902023315e-01" nType="0">
            <Node pos="l" depth="3" NCoef="0" IVar="4" Cut="1.0756858825683594e+01" cType="1" res="3.4946373105049133e-01" rms="1.5059374272823334e-01" purity="9.7670114040374756e-01" nType="0">
              <Node pos="l" depth="4" NCoef="0" IVar="-1" Cut="0.0000000000000000e+00" cType="1" res="7.1440637111663818e-02" rms="1.9342879951000214e-01" purity="9.6095758676528931e-01" nType="-99"/>
              <Node pos="r" depth="4" NCoef="0" IVar="-1" Cut="0.0000000000000000e+00" cType="1" res="7.9345665872097015e-02" rms="3.6445070058107376e-02" purity="9.9868214130401611e-01" nType="-99"/>
            </Node>
            <Node pos="r" depth="3" NCoef="0" IVar="4" Cut="2.9714094161987305e+01" cType="1" res="3.6545979976654053e-01" rms="2.3531546816229820e-02" purity="9.9944549798965454e-01" nType="0">
              <Node pos="l" depth="4" NCoef="0" IVar="-1" Cut="0.0000000000000000e+00" cType="1" res="7.8546203672885895e-02" rms="4.0203567594289780e-02" purity="9.9838012456893921e-01" nType="-99"/>
              <Node pos="r" depth="4" NCoef="0" IVar="-1" Cut="0.0000000000000000e+00" cType="1" res="7.8836329281330109e-02" rms="8.8483206927776337e-03" purity="9.9992173910140991e-01" nType="-99"/>
            </Node>
          </Node>
        </Node>
        <Node pos="r" depth="1" NCoef="0" IVar="3" Cut="2.5065867900848389e+00" cType="1" res="-2.8487357497215271e-01" rms="2.9934224486351013e-01" purity="1.1017314344644547e-01" nType="0">
          <Node pos="l" depth="2" NCoef="0" IVar="0" Cut="4.4285712242126465e+00" cType="1" res="-3.2312572002410889e-01" rms="2.3266591131687164e-01" purity="5.8039166033267975e-02" nType="0">
            <Node pos="l" depth="3" NCoef="0" IVar="0" Cut="2.1428570747375488e+00" cType="1" res="-3.2988995313644409e-01" rms="2.1630513668060303e-01" purity="4.9433734267950058e-02" nType="0">
              <Node pos="l" depth="4" NCoef="0" IVar="-1" Cut="0.0000000000000000e+00" cType="1" res="-7.2815440595149994e-02" rms="1.8331201374530792e-01" purity="3.4815408289432526e-02" nType="-99"/>
              <Node pos="r" depth="4" NCoef="0" IVar="-1" Cut="0.0000000000000000e+00" cType="1" res="-6.5989300608634949e-02" rms="2.5676637887954712e-01" purity="7.1258045732975006e-02" nType="-99"/>
            </Node>
            <Node pos="r" depth="3" NCoef="0" IVar="7" Cut="4.1108942031860352e+00" cType="1" res="-2.8023302555084229e-01" rms="3.1397822499275208e-01" purity="1.1260726302862167e-01" nType="0">
              <Node pos="l" depth="4" NCoef="0" IVar="-1" Cut="0.0000000000000000e+00" cType="1" res="-4.5578390359878540e-02" rms="3.7851163744926453e-01" purity="1.7613047361373901e-01" nType="-99"/>
              <Node pos="r" depth="4" NCoef="0" IVar="-1" Cut="0.0000000000000000e+00" cType="1" res="-6.9347441196441650e-02" rms="2.3881706595420837e-01" purity="6.1629980802536011e-02" nType="-99"/>
            </Node>
          </Node>
          <Node pos="r" depth="2" NCoef="0" IVar="3" Cut="3.6405832767486572e+00" cType="1" res="-8.3256207406520844e-02" rms="4.7771292924880981e-01" purity="3.8495805859565735e-01" nType="0">
            <Node pos="l" depth="3" NCoef="0" IVar="1" Cut="1.7352155447006226e+00" cType="1" res="-2.0278097689151764e-01" rms="4.3512687087059021e-01" purity="2.5059893727302551e-01" nType="0">
              <Node pos="l" depth="4" NCoef="0" IVar="-1" Cut="0.0000000000000000e+00" cType="1" res="-2.4304443970322609e-02" rms="4.6682092547416687e-01" purity="3.2617825269699097e-01" nType="-99"/>
              <Node pos="r" depth="4" NCoef="0" IVar="-1" Cut="0.0000000000000000e+00" cType="1" res="-6.4703390002250671e-02" rms="3.5384067893028259e-01" purity="1.4328308403491974e-01" nType="-99"/>
            </Node>
            <Node pos="r" depth="3" NCoef="0" IVar="-1" Cut="0.0000000000000000e+00" cType="1" res="3.7166900932788849e-02" rms="4.5956164598464966e-01" purity="6.8730747699737549e-01" nType="-99"/>
          </Node>
        </Node>
      </Node>
    </BinaryTree>
    <BinaryTree type="DecisionTree" boostWeight="1.0000000000000000e+00" itree="4">
      <Node pos="s" depth="0" NCoef="0" IVar="2" Cut="2.0952382087707520e+00" cType="1" res="3.2527896109968424e-04" rms="3.7186124920845032e-01" purity="5.0040119886398315e-01" nType="0">
        <Node pos="l" depth="1" NCoef="0" IVar="3" Cut="2.2105212211608887e+00" cType="1" res="3.1387895345687866e-01" rms="1.4761492609977722e-01" purity="9.7610056400299072e-01" nType="0">
          <Node pos="l" depth="2" NCoef="0" IVar="6" Cut="2.7142856121063232e+00" cType="1" res="2.3259079456329346e-01" rms="3.4539648890495300e-01" purity="8.5800647735595703e-01" nType="0">
            <Node pos="l" depth="3" NCoef="0" IVar="-1" Cut="0.0000000000000000e+00" cType="1" res="3.8397017866373062e-02" rms="4.1184657812118530e-01" purity="7.8350681066513062e-01" nType="-99"/>
            <Node pos="r" depth="3" NCoef="0" IVar="-1" Cut="0.0000000000000000e+00" cType="1" res="5.9093464165925980e-02" rms="2.7693426609039307e-01" purity="9.1630119085311890e-01" nType="-99"/>
          </Node>
          <Node pos="r" depth="2" NCoef="0" IVar="3" Cut="4.3163323402404785e+00" cType="1" res="3.2624468207359314e-01" rms="7.6150283217430115e-02" purity="9.9406522512435913e-01" nType="0">
            <Node pos="l" depth="3" NCoef="0" IVar="4" Cut="1.0906653404235840e+01" cType="1" res="3.1335842609405518e-01" rms="1.5868623554706573e-01" purity="9.7394639253616333e-01" nType="0">
              <Node pos="l" depth="4" NCoef="0" IVar="-1" Cut="0.0000000000000000e+00" cType="1" res="6.6579967737197876e-02" rms="1.9998644292354584e-01" purity="9.5806396007537842e-01" nType="-99"/>
              <Node pos="r" depth="4" NCoef="0" IVar="-1" Cut="0.0000000000000000e+00" cType="1" res="7.5095027685165405e-02" rms="3.5163197666406631e-02" purity="9.9877101182937622e-01" nType="-99"/>
            </Node>
            <Node pos="r" depth="3" NCoef="0" IVar="3" Cut="6.3238887786865234e+00" cType="1" res="3.2948037981987000e-01" rms="2.9661811888217926e-02" purity="9.9911701679229736e-01" nType="0">
              <Node pos="l" depth="4" NCoef="0" IVar="-1" Cut="0.0000000000000000e+00" cType="1" res="7.3943056166172028e-02" rms="5.9790812432765961e-02" purity="9.9640440940856934e-01" nType="-99"/>
              <Node pos="r" depth="4" NCoef="0" IVar="-1" Cut="0.0000000000000000e+00" cType="1" res="7.4591010808944702e-02" rms="1.5733739361166954e-02" purity="9.9975234270095825e-01" nType="-99"/>
            </Node>
          </Node>
        </Node>
        <Node pos="r" depth="1" NCoef="0" IVar="3" Cut="2.8966488838195801e+00" cType="1" res="-2.5650119781494141e-01" rms="2.9530924558639526e-01" purity="1.1076394468545914e-01" nType="0">
          <Node pos="l" depth="2" NCoef="0" IVar="3" Cut="2.2069582939147949e+00" cType="1" res="-2.8608521819114685e-01" rms="2.4456541240215302e-01" purity="6.5737433731555939e-02" nType="0">
            <Node pos="l" depth="3" NCoef="0" IVar="0" Cut="2.5714285373687744e+00" cType="1" res="-2.9243364930152893e-01" rms="2.2989113628864288e-01" purity="5.6720711290836334e-02" nType="0">
              <Node pos="l" depth="4" NCoef="0" IVar="-1" Cut="0.0000000000000000e+00" cType="1" res="-6.8645760416984558e-02" rms="1.8059119582176208e-01" purity="3.3752400428056717e-02" nType="-99"/>
              <Node pos="r" depth="4" NCoef="0" IVar="-1" Cut="0.0000000000000000e+00" cType="1" res="-5.9649918228387833e-02" rms="2.7352276444435120e-01" purity="8.2434125244617462e-02" nType="-99"/>
            </Node>
            <Node pos="r" depth="3" NCoef="0" IVar="-1" Cut="0.0000000000000000e+00" cType="1" res="-3.7299979478120804e-02" rms="4.0748795866966248e-01" purity="2.1935889124870300e-01" nType="-99"/>
          </Node>
          <Node pos="r" depth="2" NCoef="0" IVar="0" Cut="5.2857141494750977e+00" cType="1" res="-5.3770117461681366e-02" rms="4.7732856869697571e-01" purity="4.1931825876235962e-01" nType="0">
            <Node pos="l" depth="3" NCoef="0" IVar="-1" Cut="0.0000000000000000e+00" cType="1" res="-3.3105783164501190e-02" rms="4.4729492068290710e-01" purity="2.8449288010597229e-01" nType="-99"/>
            <Node pos="r" depth="3" NCoef="0" IVar="-1" Cut="0.0000000000000000e+00" cType="1" res="1.6987089067697525e-02" rms="4.7824433445930481e-01" purity="5.8993780612945557e-01" nType="-99"/>
          </Node>
        </Node>
      </Node>
    </BinaryTree>
    <BinaryTree type="DecisionTree" boostWeight="1.0000000000000000e+00" itree="5">
      <Node pos="s" depth="0" NCoef="0" IVar="2" Cut="2.0952382087707520e+00" cType="1" res="-1.7115274386014789e-04" rms="3.4902575612068176e-01" purity="4.9979409575462341e-01" nType="0">
        <Node pos="l" depth="1" NCoef="0" IVar="3" Cut="2.2105212211608887e+00" cType="1" res="2.8434589505195618e-01" rms="1.4294543862342834e-01" purity="9.7738277912139893e-01" nType="0">
          <Node pos="l" depth="2" NCoef="0" IVar="6" Cut="2.7142856121063232e+00" cType="1" res="2.1510320901870728e-01" rms="3.3910766243934631e-01" purity="8.6348563432693481e-01" nType="0">
            <Node pos="l" depth="3" NCoef="0" IVar="-1" Cut="0.0000000000000000e+00" cType="1" res="3.6214120686054230e-02" rms="4.0839710831642151e-01" purity="7.8845202922821045e-01" nType="-99"/>
            <Node pos="r" depth="3" NCoef="0" IVar="-1" Cut="0.0000000000000000e+00" cType="1" res="5.6631315499544144e-02" rms="2.6816716790199280e-01" purity="9.2200130224227905e-01" nType="-99"/>
          </Node>
          <Node pos="r" depth="2" NCoef="0" IVar="3" Cut="4.3161592483520508e+00" cType="1" res="2.9453137516975403e-01" rms="7.5595639646053314e-02" purity="9.9413686990737915e-01" nType="0">
            <Node pos="l" depth="3" NCoef="0" IVar="4" Cut="1.0743299484252930e+01" cType="1" res="2.8267711400985718e-01" rms="1.5891636908054352e-01" purity="9.7383892536163330e-01" nType="0">
              <Node pos="l" depth="4" NCoef="0" IVar="-1" Cut="0.0000000000000000e+00" cType="1" res="6.2852025032043457e-02" rms="2.0068530738353729e-01" purity="9.5780771970748901e-01" nType="-99"/>
              <Node pos="r" depth="4" NCoef="0" IVar="-1" Cut="0.0000000000000000e+00" cType="1" res="7.1550056338310242e-02" rms="3.4995719790458679e-02" purity="9.9878180027008057e-01" nType="-99"/>
            </Node>
            <Node pos="r" depth="3" NCoef="0" IVar="3" Cut="6.3215112686157227e+00" cType="1" res="2.9749876260757446e-01" rms="2.7919696643948555e-02" purity="9.9921786785125732e-01" nType="0">
              <Node pos="l" depth="4" NCoef="0" IVar="-1" Cut="0.0000000000000000e+00" cType="1" res="7.0541732013225555e-02" rms="5.8118809014558792e-02" purity="9.9660515785217285e-01" nType="-99"/>
              <Node pos="r" depth="4" NCoef="0" IVar="-1" Cut="0.0000000000000000e+00" cType="1" res="7.1188285946846008e-02" rms="1.3393686152994633e-02" purity="9.9982053041458130e-01" nType="-99"/>
            </Node>
          </Node>
        </Node>
        <Node pos="r" depth="1" NCoef="0" IVar="0" Cut="7.8571429252624512e+00" cType="1" res="-2.3300655186176300e-01" rms="2.9039666056632996e-01" purity="1.0895792394876480e-01" nType="0">
          <Node pos="l" depth="2" NCoef="0" IVar="3" Cut="2.6264703273773193e+00" cType="1" res="-2.4859958887100220e-01" rms="2.7044951915740967e-01" purity="8.7885245680809021e-02" nType="0">
            <Node pos="l" depth="3" NCoef="0" IVar="6" Cut="1.0000000000000000e+00" cType="1" res="-2.6651135087013245e-01" rms="2.2538602352142334e-01" purity="5.4416671395301819e-02" nType="0">
              <Node pos="l" depth="4" NCoef="0" IVar="-1" Cut="0.0000000000000000e+00" cType="1" res="-6.5476685762405396e-02" rms="1.8396380543708801e-01" purity="3.5343427211046219e-02" nType="-99"/>
              <Node pos="r" depth="4" NCoef="0" IVar="-1" Cut="0.0000000000000000e+00" cType="1" res="-1.3625030405819416e-02" rms="4.4065126776695251e-01" purity="2.6794472336769104e-01" nType="-99"/>
            </Node>
            <Node pos="r" depth="3" NCoef="0" IVar="1" Cut="1.3014116287231445e+00" cType="1" res="-1.2823994457721710e-01" rms="4.5458075404167175e-01" purity="3.1278020143508911e-01" nType="0">
              <Node pos="l" depth="4" NCoef="0" IVar="-1" Cut="0.0000000000000000e+00" cType="1" res="-9.0933591127395630e-03" rms="4.7778350114822388e-01" purity="3.9915227890014648e-01" nType="-99"/>
              <Node pos="r" depth="4" NCoef="0" IVar="-1" Cut="0.0000000000000000e+00" cType="1" res="-5.1375687122344971e-02" rms="3.8692432641983032e-01" purity="1.8638426065444946e-01" nType="-99"/>
            </Node>
          </Node>
          <Node pos="r" depth="2" NCoef="0" IVar="-1" Cut="0.0000000000000000e+00" cType="1" res="1.4244517311453819e-02" rms="4.5277088880538940e-01" purity="5.1590108871459961e-01" nType="-99"/>
        </Node>
      </Node>
    </BinaryTree>
    <BinaryTree type="DecisionTree" boostWeight="1.0000000000000000e+00" itree="6">
      <Node pos="s" depth="0" NCoef="0" IVar="2" Cut="2.0952382087707520e+00" cType="1" res="-2.3174150555860251e-04" rms="3.2906559109687805e-01" purity="4.9959588050842285e-01" nType="0">
        <Node pos="l" depth="1" NCoef="0" IVar="3" Cut="2.1347775459289551e+00" cType="1" res="2.5689497590065002e-01" rms="1.4214353263378143e-01" purity="9.7746956348419189e-01" nType="0">
          <Node pos="l" depth="2" NCoef="0" IVar="6" Cut="2.4285714626312256e+00" cType="1" res="1.9574555754661560e-01" rms="3.3693575859069824e-01" purity="8.6539697647094727e-01" nType="0">
            <Node pos="l" depth="3" NCoef="0" IVar="-1" Cut="0.0000000000000000e+00" cType="1" res="3.4342531114816666e-02" rms="4.0470480918884277e-01" purity="7.9362225532531738e-01" nType="-99"/>
            <Node pos="r" depth="3" NCoef="0" IVar="-1" Cut="0.0000000000000000e+00" cType="1" res="5.3014617413282394e-02" rms="2.6985406875610352e-01" purity="9.2092609405517578e-01" nType="-99"/>
          </Node>
          <Node pos="r" depth="2" NCoef="0" IVar="3" Cut="4.1682925224304199e+00" cType="1" res="2.6602208614349365e-01" rms="7.5062468647956848e-02" purity="9.9419742822647095e-01" nType="0">
            <Node pos="l" depth="3" NCoef="0" IVar="4" Cut="1.0906653404235840e+01" cType="1" res="2.5503870844841003e-01" rms="1.5956974029541016e-01" purity="9.7355175018310547e-01" nType="0">
              <Node pos="l" depth="4" NCoef="0" IVar="-1" Cut="0.0000000000000000e+00" cType="1" res="5.9584714472293854e-02" rms="2.0148700475692749e-01" purity="9.5742833614349365e-01" nType="-99"/>
              <Node pos="r" depth="4" NCoef="0" IVar="-1" Cut="0.0000000000000000e+00" cType="1" res="6.8793438374996185e-02" rms="2.3963043466210365e-02" purity="9.9944198131561279e-01" nType="-99"/>
            </Node>
            <Node pos="r" depth="3" NCoef="0" IVar="7" Cut="1.6747832298278809e+00" cType="1" res="2.6874843239784241e-01" rms="2.5983536615967751e-02" purity="9.9932223558425903e-01" nType="0">
              <Node pos="l" depth="4" NCoef="0" IVar="-1" Cut="0.0000000000000000e+00" cType="1" res="6.8321473896503448e-02" rms="2.1299516782164574e-02" purity="9.9954479932785034e-01" nType="-99"/>
              <Node pos="r" depth="4" NCoef="0" IVar="-1" Cut="0.0000000000000000e+00" cType="1" res="6.7968994379043579e-02" rms="4.3554831296205521e-02" purity="9.9809277057647705e-01" nType="-99"/>
            </Node>
          </Node>
        </Node>
        <Node pos="r" depth="1" NCoef="0" IVar="3" Cut="3.0367159843444824e+00" cType="1" res="-2.1037453413009644e-01" rms="2.8648868203163147e-01" purity="1.0904245078563690e-01" nType="0">
          <Node pos="l" depth="2" NCoef="0" IVar="3" Cut="2.1688005924224854e+00" cType="1" res="-2.2864457964897156e-01" rms="2.5741583108901978e-01" purity="7.6928734779357910e-02" nType="0">
            <Node pos="l" depth="3" NCoef="0" IVar="0" Cut="2.8571429252624512e+00" cType="1" res="-2.4059629440307617e-01" rms="2.2390276193618774e-01" purity="5.4597411304712296e-02" nType="0">
              <Node pos="l" depth="4" NCoef="0" IVar="-1" Cut="0.0000000000000000e+00" cType="1" res="-6.2036670744419098e-02" rms="1.7745119333267212e-01" purity="3.2875325530767441e-02" nType="-99"/>
              <Node pos="r" depth="4" NCoef="0" IVar="-1" Cut="0.0000000000000000e+00" cType="1" res="-5.3380090743303299e-02" rms="2.6568019390106201e-01" purity="7.8893922269344330e-02" nType="-99"/>
            </Node>
            <Node pos="r" depth="3" NCoef="0" IVar="1" Cut="1.3069126605987549e+00" cType="1" res="-1.3510966300964355e-01" rms="4.2735746502876282e-01" purity="2.5169527530670166e-01" nType="0">
              <Node pos="l" depth="4" NCoef="0" IVar="-1" Cut="0.0000000000000000e+00" cType="1" res="-2.1226987242698669e-02" rms="4.6262314915657043e-01" purity="3.1340038776397705e-01" nType="-99"/>
              <Node pos="r" depth="4" NCoef="0" IVar="-1" Cut="0.0000000000000000e+00" cType="1" res="-3.7715751677751541e-02" rms="3.8030982017517090e-01" purity="1.8188807368278503e-01" nType="-99"/>
            </Node>
          </Node>
          <Node pos="r" depth="2" NCoef="0" IVar="-1" Cut="0.0000000000000000e+00" cType="1" res="3.9093447849154472e-03" rms="4.7321879863739014e-01" purity="5.1284688711166382e-01" nType="-99"/>
        </Node>
      </Node>
    </BinaryTree>
    <BinaryTree type="DecisionTree" boostWeight="1.0000000000000000e+00" itree="7">
      <Node pos="s" depth="0" NCoef="0" IVar="2" Cut="2.0952382087707520e+00" cType="1" res="-3.3889329642988741e-05" rms="3.1320336461067200e-01" purity="4.9932339787483215e-01" nType="0">
        <Node pos="l" depth="1" NCoef="0" IVar="3" Cut="2.4224865436553955e+00" cType="1" res="2.3136276006698608e-01" rms="1.4315779507160187e-01" purity="9.7689431905746460e-01" nType="0">
          <Node pos="l" depth="2" NCoef="0" IVar="6" Cut="2.3333332538604736e+00" cType="1" res="1.7384201288223267e-01" rms="3.3724707365036011e-01" purity="8.6399501562118530e-01" nType="0">
            <Node pos="l" depth="3" NCoef="0" IVar="-1" Cut="0.0000000000000000e+00" cType="1" res="2.8581764549016953e-02" rms="4.1383478045463562e-01" purity="7.8062218427658081e-01" nType="-99"/>
            <Node pos="r" depth="3" NCoef="0" IVar="-1" Cut="0.0000000000000000e+00" cType="1" res="5.1195673644542694e-02" rms="2.6138648390769958e-01" purity="9.2617207765579224e-01" nType="-99"/>
          </Node>
          <Node pos="r" depth="2" NCoef="0" IVar="0" Cut="7.4285712242126465e+00" cType="1" res="2.4026432633399963e-01" rms="7.3982402682304382e-02" purity="9.9436593055725098e-01" nType="0">
            <Node pos="l" depth="3" NCoef="0" IVar="6" Cut="3.3333332538604736e+00" cType="1" res="2.2996330261230469e-01" rms="1.4852452278137207e-01" purity="9.7707426548004150e-01" nType="0">
              <Node pos="l" depth="4" NCoef="0" IVar="-1" Cut="0.0000000000000000e+00" cType="1" res="5.7257432490587234e-02" rms="1.8930362164974213e-01" purity="9.6222907304763794e-01" nType="-99"/>
              <Node pos="r" depth="4" NCoef="0" IVar="-1" Cut="0.0000000000000000e+00" cType="1" res="6.2680818140506744e-02" rms="1.2316410988569260e-01" purity="9.8438096046447754e-01" nType="-99"/>
            </Node>
            <Node pos="r" depth="3" NCoef="0" IVar="5" Cut="1.0142857551574707e+01" cType="1" res="2.4299889802932739e-01" rms="3.2166723161935806e-02" purity="9.9895632266998291e-01" nType="0">
              <Node pos="l" depth="4" NCoef="0" IVar="-1" Cut="0.0000000000000000e+00" cType="1" res="6.5847560763359070e-02" rms="3.6700181663036346e-02" purity="9.9864554405212402e-01" nType="-99"/>
              <Node pos="r" depth="4" NCoef="0" IVar="-1" Cut="0.0000000000000000e+00" cType="1" res="6.5872609615325928e-02" rms="2.8741832822561264e-02" purity="9.9916374683380127e-01" nType="-99"/>
            </Node>
          </Node>
        </Node>
        <Node pos="r" depth="1" NCoef="0" IVar="3" Cut="2.8966488838195801e+00" cType="1" res="-1.8851241469383240e-01" rms="2.8664937615394592e-01" purity="1.1032956093549728e-01" nType="0">
          <Node pos="l" depth="2" NCoef="0" IVar="3" Cut="2.2069582939147949e+00" cType="1" res="-2.1089041233062744e-01" rms="2.4065327644348145e-01" purity="6.4800299704074860e-02" nType="0">
            <Node pos="l" depth="3" NCoef="0" IVar="0" Cut="4.4285712242126465e+00" cType="1" res="-2.1599520742893219e-01" rms="2.2632656991481781e-01" purity="5.5787853896617889e-02" nType="0">
              <Node pos="l" depth="4" NCoef="0" IVar="-1" Cut="0.0000000000000000e+00" cType="1" res="-5.6337933987379074e-02" rms="2.1028374135494232e-01" purity="4.7198694199323654e-02" nType="-99"/>
              <Node pos="r" depth="4" NCoef="0" IVar="-1" Cut="0.0000000000000000e+00" cType="1" res="-4.3669801205396652e-02" rms="3.1206935644149780e-01" purity="1.1405324190855026e-01" nType="-99"/>
            </Node>
            <Node pos="r" depth="3" NCoef="0" IVar="-1" Cut="0.0000000000000000e+00" cType="1" res="-2.7645999565720558e-02" rms="4.0502405166625977e-01" purity="2.1858863532543182e-01" nType="-99"/>
          </Node>
          <Node pos="r" depth="2" NCoef="0" IVar="0" Cut="5.3809523582458496e+00" cType="1" res="-3.5743664950132370e-02" rms="4.7009125351905823e-01" purity="4.2114600539207458e-01" nType="0">
            <Node pos="l" depth="3" NCoef="0" IVar="-1" Cut="0.0000000000000000e+00" cType="1" res="-2.6097957044839859e-02" rms="4.4807064533233643e-01" purity="2.8932201862335205e-01" nType="-99"/>
            <Node pos="r" depth="3" NCoef="0" IVar="-1" Cut="0.0000000000000000e+00" cType="1" res="1.6384987160563469e-02" rms="4.7210040688514709e-01" purity="5.9188383817672729e-01" nType="-99"/>
          </Node>
        </Node>
      </Node>
    </BinaryTree>
    <BinaryTree type="DecisionTree" boostWeight="1.0000000000000000e+00" itree="8">
      <Node pos="s" depth="0" NCoef="0" IVar="2" Cut="2.0952382087707520e+00" cType="1" res="-8.0633477773517370e-04" rms="2.9911759495735168e-01" purity="4.9790692329406738e-01" nType="0">
        <Node pos="l" depth="1" NCoef="0" IVar="3" Cut="2.2105212211608887e+00" cType="1" res="2.0882980525493622e-01" rms="1.4315056800842285e-01" purity="9.7667276859283447e-01" nType="0">
          <Node pos="l" depth="2" NCoef="0" IVar="6" Cut="2.0952382087707520e+00" cType="1" res="1.5135021507740021e-01" rms="3.4391283988952637e-01" purity="8.5743653774261475e-01" nType="0">
            <Node pos="l" depth="3" NCoef="0" IVar="-1" Cut="0.0000000000000000e+00" cType="1" res="2.5314508005976677e-02" rms="4.1683948040008545e-01" purity="7.7610963582992554e-01" nType="-99"/>
            <Node pos="r" depth="3" NCoef="0" IVar="-1" Cut="0.0000000000000000e+00" cType="1" res="4.6868566423654556e-02" rms="2.7143543958663940e-01" purity="9.1990470886230469e-01" nType="-99"/>
          </Node>
          <Node pos="r" depth="2" NCoef="0" IVar="3" Cut="4.3162503242492676e+00" cType="1" res="2.1751807630062103e-01" rms="7.1671195328235626e-02" purity="9.9469578266143799e-01" nType="0">
            <Node pos="l" depth="3" NCoef="0" IVar="3" Cut="3.7134025096893311e+00" cType="1" res="2.1004146337509155e-01" rms="1.5077951550483704e-01" purity="9.7637504339218140e-01" nType="0">
              <Node pos="l" depth="4" NCoef="0" IVar="-1" Cut="0.0000000000000000e+00" cType="1" res="5.7066202163696289e-02" rms="1.7060263454914093e-01" purity="9.6957916021347046e-01" nType="-99"/>
              <Node pos="r" depth="4" NCoef="0" IVar="-1" Cut="0.0000000000000000e+00" cType="1" res="6.1440750956535339e-02" rms="1.0904092341661453e-01" purity="9.8786062002182007e-01" nType="-99"/>
            </Node>
            <Node pos="r" depth="3" NCoef="0" IVar="3" Cut="6.3216729164123535e+00" cType="1" res="2.1940876543521881e-01" rms="2.5864010676741600e-02" purity="9.9932873249053955e-01" nType="0">
              <Node pos="l" depth="4" NCoef="0" IVar="-1" Cut="0.0000000000000000e+00" cType="1" res="6.3373833894729614e-02" rms="5.4140165448188782e-02" purity="9.9705564975738525e-01" nType="-99"/>
              <Node pos="r" depth="4" NCoef="0" IVar="-1" Cut="0.0000000000000000e+00" cType="1" res="6.4038790762424469e-02" rms="1.2189692817628384e-02" purity="9.9985140562057495e-01" nType="-99"/>
            </Node>
          </Node>
        </Node>
        <Node pos="r" depth="1" NCoef="0" IVar="3" Cut="3.5563032627105713e+00" cType="1" res="-1.7089009284973145e-01" rms="2.8434479236602783e-01" purity="1.0947058349847794e-01" nType="0">
          <Node pos="l" depth="2" NCoef="0" IVar="2" Cut="3.0476191043853760e+00" cType="1" res="-1.8685805797576904e-01" rms="2.6102593541145325e-01" purity="7.9712003469467163e-02" nType="0">
            <Node pos="l" depth="3" NCoef="0" IVar="0" Cut="3.0476191043853760e+00" cType="1" res="-1.7449435591697693e-01" rms="2.6815494894981384e-01" purity="8.6496971547603607e-02" nType="0">
              <Node pos="l" depth="4" NCoef="0" IVar="-1" Cut="0.0000000000000000e+00" cType="1" res="-5.3103096783161163e-02" rms="2.1715319156646729e-01" purity="5.1850590854883194e-02" nType="-99"/>
              <Node pos="r" depth="4" NCoef="0" IVar="-1" Cut="0.0000000000000000e+00" cType="1" res="-1.5731072053313255e-02" rms="4.1141581535339355e-01" purity="2.4286298453807831e-01" nType="-99"/>
            </Node>
            <Node pos="r" depth="3" NCoef="0" IVar="3" Cut="2.0320992469787598e+00" cType="1" res="-2.6414364576339722e-01" rms="1.9396853446960449e-01" purity="3.7299148738384247e-02" nType="0">
              <Node pos="l" depth="4" NCoef="0" IVar="-1" Cut="0.0000000000000000e+00" cType="1" res="-6.0421768575906754e-02" rms="1.6961248219013214e-01" purity="3.0267411842942238e-02" nType="-99"/>
              <Node pos="r" depth="4" NCoef="0" IVar="-1" Cut="0.0000000000000000e+00" cType="1" res="-6.8524315953254700e-02" rms="2.1811659634113312e-01" purity="4.7510668635368347e-02" nType="-99"/>
            </Node>
          </Node>
          <Node pos="r" depth="2" NCoef="0" IVar="-1" Cut="0.0000000000000000e+00" cType="1" res="1.9894702360033989e-02" rms="4.6746641397476196e-01" purity="6.1147099733352661e-01" nType="-99"/>
        </Node>
      </Node>
    </BinaryTree>
    <BinaryTree type="DecisionTree" boostWeight="1.0000000000000000e+00" itree="9">
      <Node pos="s" depth="0" NCoef="0" IVar="2" Cut="2.0952382087707520e+00" cType="1" res="-5.9219626564299688e-05" rms="2.8608703613281250e-01" purity="4.9902620911598206e-01" nType="0">
        <Node pos="l" depth="1" NCoef="0" IVar="0" Cut="5.4761905670166016e+00" cType="1" res="1.8918223679065704e-01" rms="1.4154931902885437e-01" purity="9.7714394330978394e-01" nType="0">
          <Node pos="l" depth="2" NCoef="0" IVar="4" Cut="1.0654860496520996e+01" cType="1" res="1.5137749910354614e-01" rms="2.9023689031600952e-01" purity="9.0039604902267456e-01" nType="0">
            <Node pos="l" depth="3" NCoef="0" IVar="4" Cut="2.5363755226135254e+00" cType="1" res="1.2124861776828766e-01" rms="3.3702310919761658e-01" purity="8.6112719774246216e-01" nType="0">
              <Node pos="l" depth="4" NCoef="0" IVar="-1" Cut="0.0000000000000000e+00" cType="1" res="1.5048731118440628e-02" rms="4.0080454945564270e-01" purity="7.8812462091445923e-01" nType="-99"/>
              <Node pos="r" depth="4" NCoef="0" IVar="-1" Cut="0.0000000000000000e+00" cType="1" res="5.8109082281589508e-02" rms="1.7490385472774506e-01" purity="9.6801269054412842e-01" nType="-99"/>
            </Node>
            <Node pos="r" depth="3" NCoef="0" IVar="-1" Cut="0.0000000000000000e+00" cType="1" res="6.5278813242912292e-02" rms="4.4106200337409973e-02" purity="9.9967503547668457e-01" nType="-99"/>
          </Node>
          <Node pos="r" depth="2" NCoef="0" IVar="7" Cut="1.5516952276229858e+00" cType="1" res="1.9873793423175812e-01" rms="5.7929772883653641e-02" purity="9.9654304981231689e-01" nType="0">
            <Node pos="l" depth="3" NCoef="0" IVar="3" Cut="5.8285136222839355e+00" cType="1" res="1.9937203824520111e-01" rms="4.6009063720703125e-02" purity="9.9788141250610352e-01" nType="0">
              <Node pos="l" depth="4" NCoef="0" IVar="-1" Cut="0.0000000000000000e+00" cType="1" res="6.0895480215549469e-02" rms="9.3813315033912659e-02" purity="9.9117952585220337e-01" nType="-99"/>
              <Node pos="r" depth="4" NCoef="0" IVar="-1" Cut="0.0000000000000000e+00" cType="1" res="6.2339819967746735e-02" rms="1.2973279692232609e-02" purity="9.9983137845993042e-01" nType="-99"/>
            </Node>
            <Node pos="r" depth="3" NCoef="0" IVar="4" Cut="2.8251678466796875e+01" cType="1" res="1.9616740942001343e-01" rms="9.1489538550376892e-02" purity="9.9111765623092651e-01" nType="0">
              <Node pos="l" depth="4" NCoef="0" IVar="-1" Cut="0.0000000000000000e+00" cType="1" res="5.8154266327619553e-02" rms="1.2999325990676880e-01" purity="9.8201483488082886e-01" nType="-99"/>
              <Node pos="r" depth="4" NCoef="0" IVar="-1" Cut="0.0000000000000000e+00" cType="1" res="6.2328360974788666e-02" rms="1.8853314220905304e-02" purity="9.9965798854827881e-01" nType="-99"/>
            </Node>
          </Node>
        </Node>
        <Node pos="r" depth="1" NCoef="0" IVar="0" Cut="7.8571429252624512e+00" cType="1" res="-1.5417937934398651e-01" rms="2.8154078125953674e-01" purity="1.0964231938123703e-01" nType="0">
          <Node pos="l" depth="2" NCoef="0" IVar="2" Cut="3.0476191043853760e+00" cType="1" res="-1.6628092527389526e-01" rms="2.6567396521568298e-01" purity="8.8493317365646362e-02" nType="0">
            <Node pos="l" depth="3" NCoef="0" IVar="0" Cut="4.1428570747375488e+00" cType="1" res="-1.5335223078727722e-01" rms="2.7356693148612976e-01" purity="9.7097069025039673e-02" nType="0">
              <Node pos="l" depth="4" NCoef="0" IVar="-1" Cut="0.0000000000000000e+00" cType="1" res="-4.7713950276374817e-02" rms="2.4138037860393524e-01" purity="6.7007146775722504e-02" nType="-99"/>
              <Node pos="r" depth="4" NCoef="0" IVar="-1" Cut="0.0000000000000000e+00" cType="1" res="8.5237976163625717e-03" rms="4.5181256532669067e-01" purity="4.0460288524627686e-01" nType="-99"/>
            </Node>
            <Node pos="r" depth="3" NCoef="0" IVar="1" Cut="1.4118940830230713e+00" cType="1" res="-2.5229364633560181e-01" rms="1.8372932076454163e-01" purity="3.1253807246685028e-02" nType="0">
              <Node pos="l" depth="4" NCoef="0" IVar="-1" Cut="0.0000000000000000e+00" cType="1" res="-5.9631586074829102e-02" rms="1.6813081502914429e-01" purity="2.9805041849613190e-02" nType="-99"/>
              <Node pos="r" depth="4" NCoef="0" IVar="-1" Cut="0.0000000000000000e+00" cType="1" res="-6.9331414997577667e-02" rms="1.9619852304458618e-01" purity="3.3398821949958801e-02" nType="-99"/>
            </Node>
          </Node>
          <Node pos="r" depth="2" NCoef="0" IVar="-1" Cut="0.0000000000000000e+00" cType="1" res="1.7010487616062164e-02" rms="4.3493324518203735e-01" purity="5.1566559076309204e-01" nType="-99"/>
        </Node>
      </Node>
    </BinaryTree>
    <BinaryTree type="DecisionTree" boostWeight="1.0000000000000000e+00" itree="10">
      <Node pos="s" depth="0" NCoef="0" IVar="2" Cut="2.0952382087707520e+00" cType="1" res="2.3003276146482676e-04" rms="2.7514508366584778e-01" purity="4.9980229139328003e-01" nType="0">
        <Node pos="l" depth="1" NCoef="0" IVar="3" Cut="2.4224865436553955e+00" cType="1" res="1.7077177762985229e-01" rms="1.4126789569854736e-01" purity="9.7693169116973877e-01" nType="0">
          <Node pos="l" depth="2" NCoef="0" IVar="6" Cut="2.7142856121063232e+00" cType="1" res="1.2900389730930328e-01" rms="3.3270990848541260e-01" purity="8.6589831113815308e-01" nType="0">
            <Node pos="l" depth="3" NCoef="0" IVar="-1" Cut="0.0000000000000000e+00" cType="1" res="2.3262644186615944e-02" rms="4.0571650862693787e-01" purity="7.8847360610961914e-01" nType="-99"/>
            <Node pos="r" depth="3" NCoef="0" IVar="-1" Cut="0.0000000000000000e+00" cType="1" res="4.3185766786336899e-02" rms="2.6189419627189636e-01" purity="9.2471963167190552e-01" nType="-99"/>
          </Node>
          <Node pos="r" depth="2" NCoef="0" IVar="3" Cut="4.7298736572265625e+00" cType="1" res="1.7736738920211792e-01" rms="7.2862155735492706e-02" purity="9.9446511268615723e-01" nType="0">
            <Node pos="l" depth="3" NCoef="0" IVar="6" Cut="4.8571429252624512e+00" cType="1" res="1.7032743990421295e-01" rms="1.5085668861865997e-01" purity="9.7612583637237549e-01" nType="0">
              <Node pos="l" depth="4" NCoef="0" IVar="-1" Cut="0.0000000000000000e+00" cType="1" res="5.0884328782558441e-02" rms="1.8564364314079285e-01" purity="9.6337670087814331e-01" nType="-99"/>
              <Node pos="r" depth="4" NCoef="0" IVar="-1" Cut="0.0000000000000000e+00" cType="1" res="5.7304564863443375e-02" rms="1.1657088249921799e-01" purity="9.8599839210510254e-01" nType="-99"/>
            </Node>
            <Node pos="r" depth="3" NCoef="0" IVar="4" Cut="2.9714094161987305e+01" cType="1" res="1.7927278578281403e-01" rms="2.3859191685914993e-02" purity="9.9942862987518311e-01" nType="0">
              <Node pos="l" depth="4" NCoef="0" IVar="-1" Cut="0.0000000000000000e+00" cType="1" res="6.0448314994573593e-02" rms="4.0883217006921768e-02" purity="9.9832111597061157e-01" nType="-99"/>
              <Node pos="r" depth="4" NCoef="0" IVar="-1" Cut="0.0000000000000000e+00" cType="1" res="6.0914721339941025e-02" rms="8.8777458295226097e-03" purity="9.9992138147354126e-01" nType="-99"/>
            </Node>
          </Node>
        </Node>
        <Node pos="r" depth="1" NCoef="0" IVar="3" Cut="2.6564335823059082e+00" cType="1" res="-1.3940753042697906e-01" rms="2.7935299277305603e-01" purity="1.0913440585136414e-01" nType="0">
          <Node pos="l" depth="2" NCoef="0" IVar="2" Cut="3.0476191043853760e+00" cType="1" res="-1.6016806662082672e-01" rms="2.2932708263397217e-01" purity="5.8264989405870438e-02" nType="0">
            <Node pos="l" depth="3" NCoef="0" IVar="0" Cut="2.8095238208770752e+00" cType="1" res="-1.5502351522445679e-01" rms="2.3597455024719238e-01" purity="6.2177639454603195e-02" nType="0">
              <Node pos="l" depth="4" NCoef="0" IVar="-1" Cut="0.0000000000000000e+00" cType="1" res="-5.2773088216781616e-02" rms="1.7867638170719147e-01" purity="3.3247813582420349e-02" nType="-99"/>
              <Node pos="r" depth="4" NCoef="0" IVar="-1" Cut="0.0000000000000000e+00" cType="1" res="-3.6861810833215714e-02" rms="2.9532238841056824e-01" purity="1.0176501423120499e-01" nType="-99"/>
            </Node>
            <Node pos="r" depth="3" NCoef="0" IVar="-1" Cut="0.0000000000000000e+00" cType="1" res="-5.6382652372121811e-02" rms="1.6895394027233124e-01" purity="2.9856247827410698e-02" nType="-99"/>
          </Node>
          <Node pos="r" depth="2" NCoef="0" IVar="7" Cut="3.0968961715698242e+00" cType="1" res="-2.3304171860218048e-02" rms="4.5217382907867432e-01" purity="3.9362180233001709e-01" nType="0">
            <Node pos="l" depth="3" NCoef="0" IVar="7" Cut="7.3726522922515869e-01" cType="1" res="3.4737378358840942e-02" rms="4.6022963523864746e-01" purity="4.5482620596885681e-01" nType="0">
              <Node pos="l" depth="4" NCoef="0" IVar="-1" Cut="0.0000000000000000e+00" cType="1" res="1.6272677108645439e-02" rms="4.6481886506080627e-01" purity="4.8909738659858704e-01" nType="-99"/>
              <Node pos="r" depth="4" NCoef="0" IVar="-1" Cut="0.0000000000000000e+00" cType="1" res="-3.0586065258830786e-03" rms="4.4980001449584961e-01" purity="4.1403177380561829e-01" nType="-99"/>
            </Node>
            <Node pos="r" depth="3" NCoef="0" IVar="-1" Cut="0.0000000000000000e+00" cType="1" res="-3.3260863274335861e-02" rms="4.0319672226905823e-01" purity="2.5421231985092163e-01" nType="-99"/>
          </Node>
        </Node>
      </Node>
    </BinaryTree>
    <BinaryTree type="DecisionTree" boostWeight="1.0000000000000000e+00" itree="11">
      <Node pos="s" depth="0" NCoef="0" IVar="2" Cut="2.0952382087707520e+00" cType="1" res="6.4009788911789656e-04" rms="2.6570165157318115e-01" purity="5.0032132863998413e-01" nType="0">
        <Node pos="l" depth="1" NCoef="0" IVar="3" Cut="2.2105212211608887e+00" cType="1" res="1.5446065366268158e-01" rms="1.3923619687557220e-01" purity="9.7747296094894409e-01" nType="0">
          <Node pos="l" depth="2" NCoef="0" IVar="1" Cut="4.7591736912727356e-01" cType="1" res="1.1494391411542892e-01" rms="3.3395656943321228e-01" purity="8.6407208442687988e-01" nType="0">
            <Node pos="l" depth="3" NCoef="0" IVar="-1" Cut="0.0000000000000000e+00" cType="1" res="2.8515396639704704e-02" rms="3.4696879982948303e-01" purity="8.5171973705291748e-01" nType="-99"/>
            <Node pos="r" depth="3" NCoef="0" IVar="-1" Cut="0.0000000000000000e+00" cType="1" res="3.3384565263986588e-02" rms="3.2016390562057495e-01" purity="8.7648832798004150e-01" nType="-99"/>
          </Node>
          <Node pos="r" depth="2" NCoef="0" IVar="6" Cut="4.8571429252624512e+00" cType="1" res="1.6034638881683350e-01" rms="7.3456414043903351e-02" purity="9.9436324834823608e-01" nType="0">
            <Node pos="l" depth="3" NCoef="0" IVar="4" Cut="1.7660371780395508e+01" cType="1" res="1.5294821560382843e-01" rms="1.4261996746063232e-01" purity="9.7843766212463379e-01" nType="0">
              <Node pos="l" depth="4" NCoef="0" IVar="-1" Cut="0.0000000000000000e+00" cType="1" res="4.7479644417762756e-02" rms="1.9613049924373627e-01" purity="9.5891398191452026e-01" nType="-99"/>
              <Node pos="r" depth="4" NCoef="0" IVar="-1" Cut="0.0000000000000000e+00" cType="1" res="5.9922188520431519e-02" rms="4.8503736034035683e-03" purity="1.0000000000000000e+00" nType="-99"/>
            </Node>
            <Node pos="r" depth="3" NCoef="0" IVar="0" Cut="1.0619047164916992e+01" cType="1" res="1.6185103356838226e-01" rms="4.8404686152935028e-02" purity="9.9760216474533081e-01" nType="0">
              <Node pos="l" depth="4" NCoef="0" IVar="-1" Cut="0.0000000000000000e+00" cType="1" res="5.7414207607507706e-02" rms="8.6246021091938019e-02" purity="9.9235600233078003e-01" nType="-99"/>
              <Node pos="r" depth="4" NCoef="0" IVar="-1" Cut="0.0000000000000000e+00" cType="1" res="5.9533424675464630e-02" rms="2.2817611694335938e-02" purity="9.9947780370712280e-01" nType="-99"/>
            </Node>
          </Node>
        </Node>
        <Node pos="r" depth="1" NCoef="0" IVar="3" Cut="2.8966488838195801e+00" cType="1" res="-1.2520670890808105e-01" rms="2.7802810072898865e-01" purity="1.0994430631399155e-01" nType="0">
          <Node pos="l" depth="2" NCoef="0" IVar="3" Cut="2.2069258689880371e+00" cType="1" res="-1.4174103736877441e-01" rms="2.3809736967086792e-01" purity="6.4604133367538452e-02" nType="0">
            <Node pos="l" depth="3" NCoef="0" IVar="0" Cut="5.0952382087707520e+00" cType="1" res="-1.4648449420928955e-01" rms="2.2404997050762177e-01" purity="5.5172793567180634e-02" nType="0">
              <Node pos="l" depth="4" NCoef="0" IVar="-1" Cut="0.0000000000000000e+00" cType="1" res="-4.6915818005800247e-02" rms="2.1462516486644745e-01" purity="4.9712248146533966e-02" nType="-99"/>
              <Node pos="r" depth="4" NCoef="0" IVar="-1" Cut="0.0000000000000000e+00" cType="1" res="-2.9707621783018112e-02" rms="3.2587185502052307e-01" purity="1.3131451606750488e-01" nType="-99"/>
            </Node>
            <Node pos="r" depth="3" NCoef="0" IVar="-1" Cut="0.0000000000000000e+00" cType="1" res="-1.5679968520998955e-02" rms="3.9747783541679382e-01" purity="2.2133782505989075e-01" nType="-99"/>
          </Node>
          <Node pos="r" depth="2" NCoef="0" IVar="0" Cut="5.2857141494750977e+00" cType="1" res="-1.1199780739843845e-02" rms="4.5224037766456604e-01" purity="4.2257234454154968e-01" nType="0">
            <Node pos="l" depth="3" NCoef="0" IVar="-1" Cut="0.0000000000000000e+00" cType="1" res="-1.9168075174093246e-02" rms="4.3717104196548462e-01" purity="2.8320935368537903e-01" nType="-99"/>
            <Node pos="r" depth="3" NCoef="0" IVar="-1" Cut="0.0000000000000000e+00" cType="1" res="1.8076699227094650e-02" rms="4.5186439156532288e-01" purity="6.0263627767562866e-01" nType="-99"/>
          </Node>
        </Node>
      </Node>
    </BinaryTree>
    <BinaryTree type="DecisionTree" boostWeight="1.0000000000000000e+00" itree="12">
      <Node pos="s" depth="0" NCoef="0" IVar="2" Cut="2.0952382087707520e+00" cType="1" res="-3.1125009991228580e-04" rms="2.5901320576667786e-01" purity="4.9833184480667114e-01" nType="0">
        <Node pos="l" depth="1" NCoef="0" IVar="0" Cut="5.4761905670166016e+00" cType="1" res="1.3923297822475433e-01" rms="1.4150668680667877e-01" purity="9.7679990530014038e-01" nType="0">
          <Node pos="l" depth="2" NCoef="0" IVar="4" Cut="8.4413928985595703e+00" cType="1" res="1.1115950345993042e-01" rms="2.8482758998870850e-01" purity="9.0286207199096680e-01" nType="0">
            <Node pos="l" depth="3" NCoef="0" IVar="4" Cut="2.0095849037170410e+00" cType="1" res="7.8124254941940308e-02" rms="3.4204089641571045e-01" purity="8.5489064455032349e-01" nType="0">
              <Node pos="l" depth="4" NCoef="0" IVar="-1" Cut="0.0000000000000000e+00" cType="1" res="6.3929264433681965e-03" rms="4.0496096014976501e-01" purity="7.8166419267654419e-01" nType="-99"/>
              <Node pos="r" depth="4" NCoef="0" IVar="-1" Cut="0.0000000000000000e+00" cType="1" res="4.6696767210960388e-02" rms="2.2104868292808533e-01" purity="9.4752365350723267e-01" nType="-99"/>
            </Node>
            <Node pos="r" depth="3" NCoef="0" IVar="-1" Cut="0.0000000000000000e+00" cType="1" res="6.1057332903146744e-02" rms="5.5800516158342361e-02" purity="9.9849683046340942e-01" nType="-99"/>
          </Node>
          <Node pos="r" depth="2" NCoef="0" IVar="7" Cut="1.5516952276229858e+00" cType="1" res="1.4640380442142487e-01" rms="6.4528577029705048e-02" purity="9.9568587541580200e-01" nType="0">
            <Node pos="l" depth="3" NCoef="0" IVar="3" Cut="4.0740337371826172e+00" cType="1" res="1.4728684723377228e-01" rms="5.0294842571020126e-02" purity="9.9743735790252686e-01" nType="0">
              <Node pos="l" depth="4" NCoef="0" IVar="-1" Cut="0.0000000000000000e+00" cType="1" res="5.4242357611656189e-02" rms="1.3288801908493042e-01" purity="9.8203045129776001e-01" nType="-99"/>
              <Node pos="r" depth="4" NCoef="0" IVar="-1" Cut="0.0000000000000000e+00" cType="1" res="5.8374688029289246e-02" rms="2.5203060358762741e-02" purity="9.9936121702194214e-01" nType="-99"/>
            </Node>
            <Node pos="r" depth="3" NCoef="0" IVar="4" Cut="2.6159551620483398e+01" cType="1" res="1.4285434782505035e-01" rms="1.0352639108896255e-01" purity="9.8864567279815674e-01" nType="0">
              <Node pos="l" depth="4" NCoef="0" IVar="-1" Cut="0.0000000000000000e+00" cType="1" res="5.1141567528247833e-02" rms="1.4942421019077301e-01" purity="9.7624790668487549e-01" nType="-99"/>
              <Node pos="r" depth="4" NCoef="0" IVar="-1" Cut="0.0000000000000000e+00" cType="1" res="5.8337170630693436e-02" rms="2.7698177844285965e-02" purity="9.9924021959304810e-01" nType="-99"/>
            </Node>
          </Node>
        </Node>
        <Node pos="r" depth="1" NCoef="0" IVar="0" Cut="7.8571429252624512e+00" cType="1" res="-1.1378031969070435e-01" rms="2.7685382962226868e-01" purity="1.0927009582519531e-01" nType="0">
          <Node pos="l" depth="2" NCoef="0" IVar="2" Cut="3.0476191043853760e+00" cType="1" res="-1.2425556033849716e-01" rms="2.6219892501831055e-01" purity="8.7776012718677521e-02" nType="0">
            <Node pos="l" depth="3" NCoef="0" IVar="0" Cut="4.1428570747375488e+00" cType="1" res="-1.1267539858818054e-01" rms="2.6982682943344116e-01" purity="9.6109546720981598e-02" nType="0">
              <Node pos="l" depth="4" NCoef="0" IVar="-1" Cut="0.0000000000000000e+00" cType="1" res="-4.1492924094200134e-02" rms="2.3915146291255951e-01" purity="6.6202752292156219e-02" nType="-99"/>
              <Node pos="r" depth="4" NCoef="0" IVar="-1" Cut="0.0000000000000000e+00" cType="1" res="1.1041456833481789e-02" rms="4.5081609487533569e-01" purity="3.9977568387985229e-01" nType="-99"/>
            </Node>
            <Node pos="r" depth="3" NCoef="0" IVar="3" Cut="2.0544874668121338e+00" cType="1" res="-2.0101411640644073e-01" rms="1.8726362287998199e-01" purity="3.2537568360567093e-02" nType="0">
              <Node pos="l" depth="4" NCoef="0" IVar="-1" Cut="0.0000000000000000e+00" cType="1" res="-5.3265273571014404e-02" rms="1.5514485538005829e-01" purity="2.4914821609854698e-02" nType="-99"/>
              <Node pos="r" depth="4" NCoef="0" IVar="-1" Cut="0.0000000000000000e+00" cType="1" res="-6.3181623816490173e-02" rms="2.1162936091423035e-01" purity="4.2604047805070877e-02" nType="-99"/>
            </Node>
          </Node>
          <Node pos="r" depth="2" NCoef="0" IVar="-1" Cut="0.0000000000000000e+00" cType="1" res="1.9721828401088715e-02" rms="4.3152022361755371e-01" purity="5.2463543415069580e-01" nType="-99"/>
        </Node>
      </Node>
    </BinaryTree>
    <BinaryTree type="DecisionTree" boostWeight="1.0000000000000000e+00" itree="13">
      <Node pos="s" depth="0" NCoef="0" IVar="2" Cut="2.0952382087707520e+00" cType="1" res="-2.7980623417533934e-04" rms="2.5216159224510193e-01" purity="4.9847352504730225e-01" nType="0">
        <Node pos="l" depth="1" NCoef="0" IVar="3" Cut="2.1347775459289551e+00" cType="1" res="1.2513014674186707e-01" rms="1.4296995103359222e-01" purity="9.7595071792602539e-01" nType="0">
          <Node pos="l" depth="2" NCoef="0" IVar="6" Cut="2.2380952835083008e+00" cType="1" res="8.7657123804092407e-02" rms="3.3946427702903748e-01" purity="8.5764795541763306e-01" nType="0">
            <Node pos="l" depth="3" NCoef="0" IVar="-1" Cut="0.0000000000000000e+00" cType="1" res="1.5279377810657024e-02" rms="4.0708795189857483e-01" purity="7.8274607658386230e-01" nType="-99"/>
            <Node pos="r" depth="3" NCoef="0" IVar="-1" Cut="0.0000000000000000e+00" cType="1" res="3.5359986126422882e-02" rms="2.7077218890190125e-01" purity="9.1833078861236572e-01" nType="-99"/>
          </Node>
          <Node pos="r" depth="2" NCoef="0" IVar="4" Cut="2.2186836242675781e+01" cType="1" res="1.3079178333282471e-01" rms="7.6641716063022614e-02" purity="9.9382454156875610e-01" nType="0">
            <Node pos="l" depth="3" NCoef="0" IVar="4" Cut="3.3960504531860352e+00" cType="1" res="1.2640161812305450e-01" rms="1.2992917001247406e-01" purity="9.8219668865203857e-01" nType="0">
              <Node pos="l" depth="4" NCoef="0" IVar="-1" Cut="0.0000000000000000e+00" cType="1" res="3.1561776995658875e-02" rms="2.6344853639602661e-01" purity="9.2386955022811890e-01" nType="-99"/>
              <Node pos="r" depth="4" NCoef="0" IVar="-1" Cut="0.0000000000000000e+00" cType="1" res="5.6977674365043640e-02" rms="5.3485408425331116e-02" purity="9.9715930223464966e-01" nType="-99"/>
            </Node>
            <Node pos="r" depth="3" NCoef="0" IVar="3" Cut="6.2033166885375977e+00" cType="1" res="1.3305610418319702e-01" rms="1.3469719327986240e-02" purity="9.9982184171676636e-01" nType="0">
              <Node pos="l" depth="4" NCoef="0" IVar="-1" Cut="0.0000000000000000e+00" cType="1" res="5.7844851166009903e-02" rms="1.1079674586653709e-02" purity="9.9988842010498047e-01" nType="-99"/>
              <Node pos="r" depth="4" NCoef="0" IVar="-1" Cut="0.0000000000000000e+00" cType="1" res="5.7569440454244614e-02" rms="1.3766297139227390e-02" purity="9.9981057643890381e-01" nType="-99"/>
            </Node>
          </Node>
        </Node>
        <Node pos="r" depth="1" NCoef="0" IVar="0" Cut="5.9523811340332031e+00" cType="1" res="-1.0261404514312744e-01" rms="2.7474665641784668e-01" purity="1.0885322093963623e-01" nType="0">
          <Node pos="l" depth="2" NCoef="0" IVar="2" Cut="3.0476191043853760e+00" cType="1" res="-1.1632704734802246e-01" rms="2.4811048805713654e-01" purity="7.3529668152332306e-02" nType="0">
            <Node pos="l" depth="3" NCoef="0" IVar="3" Cut="2.1161582469940186e+00" cType="1" res="-1.0981030017137527e-01" rms="2.5464454293251038e-01" purity="7.8705824911594391e-02" nType="0">
              <Node pos="l" depth="4" NCoef="0" IVar="-1" Cut="0.0000000000000000e+00" cType="1" res="-4.2624838650226593e-02" rms="2.1797603368759155e-01" purity="5.1310021430253983e-02" nType="-99"/>
              <Node pos="r" depth="4" NCoef="0" IVar="-1" Cut="0.0000000000000000e+00" cType="1" res="1.2634009181056172e-04" rms="4.6078661084175110e-01" purity="3.3316940069198608e-01" nType="-99"/>
            </Node>
            <Node pos="r" depth="3" NCoef="0" IVar="-1" Cut="0.0000000000000000e+00" cType="1" res="-5.6509852409362793e-02" rms="1.6066659986972809e-01" purity="2.3979498073458672e-02" nType="-99"/>
          </Node>
          <Node pos="r" depth="2" NCoef="0" IVar="2" Cut="3.0476191043853760e+00" cType="1" res="-6.6836713813245296e-03" rms="4.0298184752464294e-01" purity="3.5596197843551636e-01" nType="0">
            <Node pos="l" depth="3" NCoef="0" IVar="-1" Cut="0.0000000000000000e+00" cType="1" res="3.7463214248418808e-02" rms="4.3074268102645874e-01" purity="6.2065702676773071e-01" nType="-99"/>
            <Node pos="r" depth="3" NCoef="0" IVar="-1" Cut="0.0000000000000000e+00" cType="1" res="-5.2514683455228806e-02" rms="2.6501369476318359e-01" purity="7.7754318714141846e-02" nType="-99"/>
          </Node>
        </Node>
      </Node>
    </BinaryTree>
    <BinaryTree type="DecisionTree" boostWeight="1.0000000000000000e+00" itree="14">
      <Node pos="s" depth="0" NCoef="0" IVar="2" Cut="2.0952382087707520e+00" cType="1" res="5.1611586241051555e-04" rms="2.4538591504096985e-01" purity="5.0027704238891602e-01" nType="0">
        <Node pos="l" depth="1" NCoef="0" IVar="6" Cut="3.9523808956146240e+00" cType="1" res="1.1385402083396912e-01" rms="1.3931047916412354e-01" purity="9.7704726457595825e-01" nType="0">
          <Node pos="l" depth="2" NCoef="0" IVar="4" Cut="1.5402076721191406e+01" cType="1" res="8.7376303970813751e-02" rms="2.7805805206298828e-01" purity="9.0414285659790039e-01" nType="0">
            <Node pos="l" depth="3" NCoef="0" IVar="4" Cut="2.2002677917480469e+00" cType="1" res="6.3689649105072021e-02" rms="3.3936282992362976e-01" purity="8.5447126626968384e-01" nType="0">
              <Node pos="l" depth="4" NCoef="0" IVar="-1" Cut="0.0000000000000000e+00" cType="1" res="-7.3315738700330257e-04" rms="4.2311403155326843e-01" purity="7.5485730171203613e-01" nType="-99"/>
              <Node pos="r" depth="4" NCoef="0" IVar="-1" Cut="0.0000000000000000e+00" cType="1" res="4.6539194881916046e-02" rms="2.0078092813491821e-01" purity="9.5691537857055664e-01" nType="-99"/>
            </Node>
            <Node pos="r" depth="3" NCoef="0" IVar="-1" Cut="0.0000000000000000e+00" cType="1" res="5.7988878339529037e-02" rms="3.9761330932378769e-02" purity="9.9940961599349976e-01" nType="-99"/>
          </Node>
          <Node pos="r" depth="2" NCoef="0" IVar="0" Cut="8.7142858505249023e+00" cType="1" res="1.1978337913751602e-01" rms="7.9039700329303741e-02" purity="9.9337327480316162e-01" nType="0">
            <Node pos="l" depth="3" NCoef="0" IVar="4" Cut="1.0787631034851074e+01" cType="1" res="1.1739118397235870e-01" rms="1.4693932235240936e-01" purity="9.7684139013290405e-01" nType="0">
              <Node pos="l" depth="4" NCoef="0" IVar="-1" Cut="0.0000000000000000e+00" cType="1" res="4.2501084506511688e-02" rms="2.0059391856193542e-01" purity="9.5659250020980835e-01" nType="-99"/>
              <Node pos="r" depth="4" NCoef="0" IVar="-1" Cut="0.0000000000000000e+00" cType="1" res="5.7192821055650711e-02" rms="1.7655285075306892e-02" purity="9.9979496002197266e-01" nType="-99"/>
            </Node>
            <Node pos="r" depth="3" NCoef="0" IVar="3" Cut="6.4227080345153809e+00" cType="1" res="1.2052135914564133e-01" rms="3.8877159357070923e-02" purity="9.9847328662872314e-01" nType="0">
              <Node pos="l" depth="4" NCoef="0" IVar="-1" Cut="0.0000000000000000e+00" cType="1" res="5.4359748959541321e-02" rms="8.6571767926216125e-02" purity="9.9240332841873169e-01" nType="-99"/>
              <Node pos="r" depth="4" NCoef="0" IVar="-1" Cut="0.0000000000000000e+00" cType="1" res="5.6698523461818695e-02" rms="1.6384791582822800e-02" purity="9.9973160028457642e-01" nType="-99"/>
            </Node>
          </Node>
        </Node>
        <Node pos="r" depth="1" NCoef="0" IVar="0" Cut="7.8571429252624512e+00" cType="1" res="-9.2253997921943665e-02" rms="2.7293786406517029e-01" purity="1.1002780497074127e-01" nType="0">
          <Node pos="l" depth="2" NCoef="0" IVar="2" Cut="3.0476191043853760e+00" cType="1" res="-1.0114107280969620e-01" rms="2.6012736558914185e-01" purity="8.8248185813426971e-02" nType="0">
            <Node pos="l" depth="3" NCoef="0" IVar="3" Cut="2.3035366535186768e+00" cType="1" res="-9.1549605131149292e-02" rms="2.6871722936630249e-01" purity="9.6839539706707001e-02" nType="0">
              <Node pos="l" depth="4" NCoef="0" IVar="-1" Cut="0.0000000000000000e+00" cType="1" res="-3.9602674543857574e-02" rms="2.2526621818542480e-01" purity="5.5642575025558472e-02" nType="-99"/>
              <Node pos="r" depth="4" NCoef="0" IVar="-1" Cut="0.0000000000000000e+00" cType="1" res="7.3358826339244843e-03" rms="4.6651920676231384e-01" purity="4.0962430834770203e-01" nType="-99"/>
            </Node>
            <Node pos="r" depth="3" NCoef="0" IVar="3" Cut="2.1007184982299805e+00" cType="1" res="-1.6512215137481689e-01" rms="1.8071079254150391e-01" purity="3.0938550829887390e-02" nType="0">
              <Node pos="l" depth="4" NCoef="0" IVar="-1" Cut="0.0000000000000000e+00" cType="1" res="-4.9848485738039017e-02" rms="1.5424962341785431e-01" purity="2.4632051587104797e-02" nType="-99"/>
              <Node pos="r" depth="4" NCoef="0" IVar="-1" Cut="0.0000000000000000e+00" cType="1" res="-5.8601189404726028e-02" rms="2.0369322597980499e-01" purity="4.0328718721866608e-02" nType="-99"/>
            </Node>
          </Node>
          <Node pos="r" depth="2" NCoef="0" IVar="-1" Cut="0.0000000000000000e+00" cType="1" res="1.7502084374427795e-02" rms="4.1809397935867310e-01" purity="5.2717554569244385e-01" nType="-99"/>
        </Node>
      </Node>
    </BinaryTree>
    <BinaryTree type="DecisionTree" boostWeight="1.0000000000000000e+00" itree="15">
      <Node pos="s" depth="0" NCoef="0" IVar="2" Cut="2.0952382087707520e+00" cType="1" res="5.9195823268964887e-05" rms="2.4079188704490662e-01" purity="4.9853953719139099e-01" nType="0">
        <Node pos="l" depth="1" NCoef="0" IVar="3" Cut="2.2105212211608887e+00" cType="1" res="1.0299477726221085e-01" rms="1.3906420767307281e-01" purity="9.7696757316589355e-01" nType="0">
          <Node pos="l" depth="2" NCoef="0" IVar="6" Cut="2.0952382087707520e+00" cType="1" res="7.3401741683483124e-02" rms="3.3286201953887939e-01" purity="8.6227083206176758e-01" nType="0">
            <Node pos="l" depth="3" NCoef="0" IVar="-1" Cut="0.0000000000000000e+00" cType="1" res="1.3133664615452290e-02" rms="4.0314474701881409e-01" purity="7.8550773859024048e-01" nType="-99"/>
            <Node pos="r" depth="3" NCoef="0" IVar="-1" Cut="0.0000000000000000e+00" cType="1" res="3.2487906515598297e-02" rms="2.6388114690780640e-01" purity="9.2232275009155273e-01" nType="-99"/>
          </Node>
          <Node pos="r" depth="2" NCoef="0" IVar="3" Cut="4.3161592483520508e+00" cType="1" res="1.0747890174388885e-01" rms="7.2991073131561279e-02" purity="9.9434715509414673e-01" nType="0">
            <Node pos="l" depth="3" NCoef="0" IVar="3" Cut="3.6137177944183350e+00" cType="1" res="1.0347635298967361e-01" rms="1.5373921394348145e-01" purity="9.7475481033325195e-01" nType="0">
              <Node pos="l" depth="4" NCoef="0" IVar="-1" Cut="0.0000000000000000e+00" cType="1" res="4.3336175382137299e-02" rms="1.7661294341087341e-01" purity="9.6639263629913330e-01" nType="-99"/>
              <Node pos="r" depth="4" NCoef="0" IVar="-1" Cut="0.0000000000000000e+00" cType="1" res="5.0857413560152054e-02" rms="1.1212337017059326e-01" purity="9.8695307970046997e-01" nType="-99"/>
            </Node>
            <Node pos="r" depth="3" NCoef="0" IVar="7" Cut="2.0078129768371582e+00" cType="1" res="1.0847558826208115e-01" rms="2.7636647224426270e-02" purity="9.9922585487365723e-01" nType="0">
              <Node pos="l" depth="4" NCoef="0" IVar="-1" Cut="0.0000000000000000e+00" cType="1" res="5.5734418332576752e-02" rms="2.7487061917781830e-02" purity="9.9923390150070190e-01" nType="-99"/>
              <Node pos="r" depth="4" NCoef="0" IVar="-1" Cut="0.0000000000000000e+00" cType="1" res="5.5755220353603363e-02" rms="2.8791802003979683e-02" purity="9.9916189908981323e-01" nType="-99"/>
            </Node>
          </Node>
        </Node>
        <Node pos="r" depth="1" NCoef="0" IVar="3" Cut="2.6564335823059082e+00" cType="1" res="-8.3828277885913849e-02" rms="2.7166131138801575e-01" purity="1.0864403098821640e-01" nType="0">
          <Node pos="l" depth="2" NCoef="0" IVar="7" Cut="4.1004323959350586e+00" cType="1" res="-9.6874020993709564e-02" rms="2.2935067117214203e-01" purity="5.8872733265161514e-02" nType="0">
            <Node pos="l" depth="3" NCoef="0" IVar="0" Cut="2.6190476417541504e+00" cType="1" res="-8.8768914341926575e-02" rms="2.3757447302341461e-01" purity="6.3499078154563904e-02" nType="0">
              <Node pos="l" depth="4" NCoef="0" IVar="-1" Cut="0.0000000000000000e+00" cType="1" res="-4.3961055576801300e-02" rms="1.8296913802623749e-01" purity="3.4878425300121307e-02" nType="-99"/>
              <Node pos="r" depth="4" NCoef="0" IVar="-1" Cut="0.0000000000000000e+00" cType="1" res="-2.0124766975641251e-02" rms="3.0887663364410400e-01" purity="1.1410995572805405e-01" nType="-99"/>
            </Node>
            <Node pos="r" depth="3" NCoef="0" IVar="2" Cut="3.0476191043853760e+00" cType="1" res="-1.2323892116546631e-01" rms="1.9799542427062988e-01" purity="4.3823797255754471e-02" nType="0">
              <Node pos="l" depth="4" NCoef="0" IVar="-1" Cut="0.0000000000000000e+00" cType="1" res="-4.0929719805717468e-02" rms="2.2139365971088409e-01" purity="5.5864457041025162e-02" nType="-99"/>
              <Node pos="r" depth="4" NCoef="0" IVar="-1" Cut="0.0000000000000000e+00" cType="1" res="-5.5106803774833679e-02" rms="1.1453720927238464e-01" purity="1.2635869905352592e-02" nType="-99"/>
            </Node>
          </Node>
          <Node pos="r" depth="2" NCoef="0" IVar="1" Cut="1.3014116287231445e+00" cType="1" res="-9.9790748208761215e-03" rms="4.3287518620491028e-01" purity="3.9038887619972229e-01" nType="0">
            <Node pos="l" depth="3" NCoef="0" IVar="-1" Cut="0.0000000000000000e+00" cType="1" res="9.9313035607337952e-03" rms="4.5359733700752258e-01" purity="4.8010829091072083e-01" nType="-99"/>
            <Node pos="r" depth="3" NCoef="0" IVar="-1" Cut="0.0000000000000000e+00" cType="1" res="-2.3385465145111084e-02" rms="3.8116925954818726e-01" purity="2.4761781096458435e-01" nType="-99"/>
          </Node>
        </Node>
      </Node>
    </BinaryTree>
    <BinaryTree type="DecisionTree" boostWeight="1.0000000000000000e+00" itree="16">
      <Node pos="s" depth="0" NCoef="0" IVar="2" Cut="2.0952382087707520e+00" cType="1" res="4.4099954538978636e-04" rms="2.3667445778846741e-01" purity="5.0050872564315796e-01" nType="0">
        <Node pos="l" depth="1" NCoef="0" IVar="3" Cut="2.4224865436553955e+00" cType="1" res="9.3298055231571198e-02" rms="1.3811638951301575e-01" purity="9.7725534439086914e-01" nType="0">
          <Node pos="l" depth="2" NCoef="0" IVar="6" Cut="2.7142856121063232e+00" cType="1" res="6.6647969186306000e-02" rms="3.3050179481506348e-01" purity="8.6451435089111328e-01" nType="0">
            <Node pos="l" depth="3" NCoef="0" IVar="-1" Cut="0.0000000000000000e+00" cType="1" res="1.2272694148123264e-02" rms="4.0215256810188293e-01" purity="7.8726780414581299e-01" nType="-99"/>
            <Node pos="r" depth="3" NCoef="0" IVar="-1" Cut="0.0000000000000000e+00" cType="1" res="3.0569653958082199e-02" rms="2.6292634010314941e-01" purity="9.2277300357818604e-01" nType="-99"/>
          </Node>
          <Node pos="r" depth="2" NCoef="0" IVar="6" Cut="3.5238094329833984e+00" cType="1" res="9.7456112504005432e-02" rms="6.9868519902229309e-02" purity="9.9484568834304810e-01" nType="0">
            <Node pos="l" depth="3" NCoef="0" IVar="-1" Cut="0.0000000000000000e+00" cType="1" res="4.6512559056282043e-02" rms="1.3629798591136932e-01" purity="9.7992074489593506e-01" nType="-99"/>
            <Node pos="r" depth="3" NCoef="0" IVar="5" Cut="5.7142858505249023e+00" cType="1" res="9.8080873489379883e-02" rms="5.5147383362054825e-02" purity="9.9684768915176392e-01" nType="0">
              <Node pos="l" depth="4" NCoef="0" IVar="-1" Cut="0.0000000000000000e+00" cType="1" res="5.1770206540822983e-02" rms="8.9420013129711151e-02" purity="9.9165427684783936e-01" nType="-99"/>
              <Node pos="r" depth="4" NCoef="0" IVar="-1" Cut="0.0000000000000000e+00" cType="1" res="5.4462313652038574e-02" rms="4.3629277497529984e-02" purity="9.9803978204727173e-01" nType="-99"/>
            </Node>
          </Node>
        </Node>
        <Node pos="r" depth="1" NCoef="0" IVar="3" Cut="3.1999986171722412e+00" cType="1" res="-7.5784534215927124e-02" rms="2.7101477980613708e-01" purity="1.0915168374776840e-01" nType="0">
          <Node pos="l" depth="2" NCoef="0" IVar="2" Cut="3.0476191043853760e+00" cType="1" res="-8.4401711821556091e-02" rms="2.5371134281158447e-01" purity="7.8137062489986420e-02" nType="0">
            <Node pos="l" depth="3" NCoef="0" IVar="0" Cut="3.1428570747375488e+00" cType="1" res="-7.8229829668998718e-02" rms="2.6111790537834167e-01" purity="8.4104299545288086e-02" nType="0">
              <Node pos="l" depth="4" NCoef="0" IVar="-1" Cut="0.0000000000000000e+00" cType="1" res="-3.7966713309288025e-02" rms="2.1690177917480469e-01" purity="5.1728259772062302e-02" nType="-99"/>
              <Node pos="r" depth="4" NCoef="0" IVar="-1" Cut="0.0000000000000000e+00" cType="1" res="-3.2724891789257526e-03" rms="3.9855587482452393e-01" purity="2.3130695521831512e-01" nType="-99"/>
            </Node>
            <Node pos="r" depth="3" NCoef="0" IVar="3" Cut="1.9808702468872070e+00" cType="1" res="-1.2588727474212646e-01" rms="1.9173356890678406e-01" purity="3.8027107715606689e-02" nType="0">
              <Node pos="l" depth="4" NCoef="0" IVar="-1" Cut="0.0000000000000000e+00" cType="1" res="-4.5556310564279556e-02" rms="1.7753018438816071e-01" purity="3.2701596617698669e-02" nType="-99"/>
              <Node pos="r" depth="4" NCoef="0" IVar="-1" Cut="0.0000000000000000e+00" cType="1" res="-4.8547759652137756e-02" rms="2.0424708724021912e-01" purity="4.3494850397109985e-02" nType="-99"/>
            </Node>
          </Node>
          <Node pos="r" depth="2" NCoef="0" IVar="-1" Cut="0.0000000000000000e+00" cType="1" res="8.5636731237173080e-03" rms="4.2516696453094482e-01" purity="5.2465975284576416e-01" nType="-99"/>
        </Node>
      </Node>
    </BinaryTree>
    <BinaryTree type="DecisionTree" boostWeight="1.0000000000000000e+00" itree="17">
      <Node pos="s" depth="0" NCoef="0" IVar="2" Cut="2.0952382087707520e+00" cType="1" res="8.2206027582287788e-04" rms="2.3403203487396240e-01" purity="5.0034946203231812e-01" nType="0">
        <Node pos="l" depth="1" NCoef="0" IVar="6" Cut="3.5238094329833984e+00" cType="1" res="8.3905436098575592e-02" rms="1.3940331339836121e-01" purity="9.7690260410308838e-01" nType="0">
          <Node pos="l" depth="2" NCoef="0" IVar="5" Cut="1.4285714924335480e-01" cType="1" res="6.2747851014137268e-02" rms="2.7726700901985168e-01" purity="9.0426558256149292e-01" nType="0">
            <Node pos="l" depth="3" NCoef="0" IVar="-1" Cut="0.0000000000000000e+00" cType="1" res="9.9419197067618370e-03" rms="3.2019725441932678e-01" purity="8.6279296875000000e-01" nType="-99"/>
            <Node pos="r" depth="3" NCoef="0" IVar="0" Cut="3.8095238208770752e+00" cType="1" res="7.9447239637374878e-02" rms="2.5363859534263611e-01" purity="9.2310535907745361e-01" nType="0">
              <Node pos="l" depth="4" NCoef="0" IVar="-1" Cut="0.0000000000000000e+00" cType="1" res="2.1017298102378845e-02" rms="3.3067521452903748e-01" purity="8.6627221107482910e-01" nType="-99"/>
              <Node pos="r" depth="4" NCoef="0" IVar="-1" Cut="0.0000000000000000e+00" cType="1" res="4.7257922589778900e-02" rms="1.3768416643142700e-01" purity="9.7989654541015625e-01" nType="-99"/>
            </Node>
          </Node>
          <Node pos="r" depth="2" NCoef="0" IVar="0" Cut="8.7142858505249023e+00" cType="1" res="8.8606357574462891e-02" rms="8.0923095345497131e-02" purity="9.9304151535034180e-01" nType="0">
            <Node pos="l" depth="3" NCoef="0" IVar="4" Cut="1.0437263488769531e+01" cType="1" res="8.5161760449409485e-02" rms="1.5223784744739532e-01" purity="9.7512722015380859e-01" nType="0">
              <Node pos="l" depth="4" NCoef="0" IVar="-1" Cut="0.0000000000000000e+00" cType="1" res="3.5217016935348511e-02" rms="2.0986452698707581e-01" purity="9.5241117477416992e-01" nType="-99"/>
              <Node pos="r" depth="4" NCoef="0" IVar="-1" Cut="0.0000000000000000e+00" cType="1" res="5.5200312286615372e-02" rms="1.9971966743469238e-02" purity="9.9970579147338867e-01" nType="-99"/>
            </Node>
            <Node pos="r" depth="3" NCoef="0" IVar="3" Cut="6.4121727943420410e+00" cType="1" res="8.9692912995815277e-02" rms="3.6035917699337006e-02" purity="9.9869239330291748e-01" nType="0">
              <Node pos="l" depth="4" NCoef="0" IVar="-1" Cut="0.0000000000000000e+00" cType="1" res="5.1912166178226471e-02" rms="8.2476042211055756e-02" purity="9.9312865734100342e-01" nType="-99"/>
              <Node pos="r" depth="4" NCoef="0" IVar="-1" Cut="0.0000000000000000e+00" cType="1" res="5.4791398346424103e-02" rms="1.2698593549430370e-02" purity="9.9983870983123779e-01" nType="-99"/>
            </Node>
          </Node>
        </Node>
        <Node pos="r" depth="1" NCoef="0" IVar="2" Cut="3.0476191043853760e+00" cType="1" res="-6.7183591425418854e-02" rms="2.7096274495124817e-01" purity="1.1027976870536804e-01" nType="0">
          <Node pos="l" depth="2" NCoef="0" IVar="0" Cut="5.9523811340332031e+00" cType="1" res="-5.5343933403491974e-02" rms="2.7861759066581726e-01" purity="1.2149367481470108e-01" nType="0">
            <Node pos="l" depth="3" NCoef="0" IVar="6" Cut="1.0000000000000000e+00" cType="1" res="-7.2642326354980469e-02" rms="2.5534775853157043e-01" purity="8.0281086266040802e-02" nType="0">
              <Node pos="l" depth="4" NCoef="0" IVar="-1" Cut="0.0000000000000000e+00" cType="1" res="-3.8279455155134201e-02" rms="2.1531637012958527e-01" purity="5.4094806313514709e-02" nType="-99"/>
              <Node pos="r" depth="4" NCoef="0" IVar="-1" Cut="0.0000000000000000e+00" cType="1" res="4.8197947442531586e-02" rms="4.5739224553108215e-01" purity="3.5521107912063599e-01" nType="-99"/>
            </Node>
            <Node pos="r" depth="3" NCoef="0" IVar="-1" Cut="0.0000000000000000e+00" cType="1" res="3.4927763044834137e-02" rms="4.2588794231414795e-01" purity="6.2731754779815674e-01" nType="-99"/>
          </Node>
          <Node pos="r" depth="2" NCoef="0" IVar="3" Cut="2.4195613861083984e+00" cType="1" res="-1.3743099570274353e-01" rms="2.0662452280521393e-01" purity="4.3745081871747971e-02" nType="0">
            <Node pos="l" depth="3" NCoef="0" IVar="-1" Cut="0.0000000000000000e+00" cType="1" res="-4.4474683701992035e-02" rms="1.7416138947010040e-01" purity="3.1749691814184189e-02" nType="-99"/>
            <Node pos="r" depth="3" NCoef="0" IVar="-1" Cut="0.0000000000000000e+00" cType="1" res="-5.5682476609945297e-02" rms="2.4720399081707001e-01" purity="6.9506354629993439e-02" nType="-99"/>
          </Node>
        </Node>
      </Node>
    </BinaryTree>
    <BinaryTree type="DecisionTree" boostWeight="1.0000000000000000e+00" itree="18">
      <Node pos="s" depth="0" NCoef="0" IVar="2" Cut="1.1428571939468384e+00" cType="1" res="1.9224511925131083e-04" rms="2.2954371571540833e-01" purity="4.9980583786964417e-01" nType="0">
        <Node pos="l" depth="1" NCoef="0" IVar="3" Cut="2.4273436069488525e+00" cType="1" res="7.7128626406192780e-02" rms="1.3417217135429382e-01" purity="9.7858285903930664e-01" nType="0">
          <Node pos="l" depth="2" NCoef="0" IVar="3" Cut="1.9658613204956055e+00" cType="1" res="5.7593401521444321e-02" rms="3.2366910576820374e-01" purity="8.7049794197082520e-01" nType="0">
            <Node pos="l" depth="3" NCoef="0" IVar="-1" Cut="0.0000000000000000e+00" cType="1" res="1.6736024990677834e-02" rms="3.2937687635421753e-01" purity="8.6532509326934814e-01" nType="-99"/>
            <Node pos="r" depth="3" NCoef="0" IVar="-1" Cut="0.0000000000000000e+00" cType="1" res="2.1546073257923126e-02" rms="3.1847783923149109e-01" purity="8.7496656179428101e-01" nType="-99"/>
          </Node>
          <Node pos="r" depth="2" NCoef="0" IVar="1" Cut="3.8185575604438782e-01" cType="1" res="8.0082051455974579e-02" rms="6.9419428706169128e-02" purity="9.9492365121841431e-01" nType="0">
            <Node pos="l" depth="3" NCoef="0" IVar="-1" Cut="0.0000000000000000e+00" cType="1" res="4.4753562659025192e-02" rms="1.2709285318851471e-01" purity="9.8264640569686890e-01" nType="-99"/>
            <Node pos="r" depth="3" NCoef="0" IVar="5" Cut="3.3809523582458496e+00" cType="1" res="8.0862626433372498e-02" rms="5.7169441133737564e-02" purity="9.9659794569015503e-01" nType="0">
              <Node pos="l" depth="4" NCoef="0" IVar="-1" Cut="0.0000000000000000e+00" cType="1" res="5.0537727773189545e-02" rms="8.8246047496795654e-02" purity="9.9178010225296021e-01" nType="-99"/>
              <Node pos="r" depth="4" NCoef="0" IVar="-1" Cut="0.0000000000000000e+00" cType="1" res="5.2802350372076035e-02" rms="5.0310794264078140e-02" purity="9.9737876653671265e-01" nType="-99"/>
            </Node>
          </Node>
        </Node>
        <Node pos="r" depth="1" NCoef="0" IVar="3" Cut="3.5672960281372070e+00" cType="1" res="-6.1028979718685150e-02" rms="2.6802021265029907e-01" purity="1.1882465332746506e-01" nType="0">
          <Node pos="l" depth="2" NCoef="0" IVar="2" Cut="3.0476191043853760e+00" cType="1" res="-7.1014717221260071e-02" rms="2.5382250547409058e-01" purity="8.4527686238288879e-02" nType="0">
            <Node pos="l" depth="3" NCoef="0" IVar="3" Cut="2.0382778644561768e+00" cType="1" res="-6.4003348350524902e-02" rms="2.6122912764549255e-01" purity="9.2010110616683960e-02" nType="0">
              <Node pos="l" depth="4" NCoef="0" IVar="-1" Cut="0.0000000000000000e+00" cType="1" res="-3.2389037311077118e-02" rms="2.2774904966354370e-01" purity="6.1241757124662399e-02" nType="-99"/>
              <Node pos="r" depth="4" NCoef="0" IVar="-1" Cut="0.0000000000000000e+00" cType="1" res="3.8438844494521618e-03" rms="4.5191118121147156e-01" purity="3.6093074083328247e-01" nType="-99"/>
            </Node>
            <Node pos="r" depth="3" NCoef="0" IVar="3" Cut="2.0384051799774170e+00" cType="1" res="-1.1423014849424362e-01" rms="1.9683095812797546e-01" purity="3.8408856838941574e-02" nType="0">
              <Node pos="l" depth="4" NCoef="0" IVar="-1" Cut="0.0000000000000000e+00" cType="1" res="-4.1146241128444672e-02" rms="1.8298877775669098e-01" purity="3.5272516310214996e-02" nType="-99"/>
              <Node pos="r" depth="4" NCoef="0" IVar="-1" Cut="0.0000000000000000e+00" cType="1" res="-5.0458896905183792e-02" rms="2.0986576378345490e-01" purity="4.2932812124490738e-02" nType="-99"/>
            </Node>
          </Node>
          <Node pos="r" depth="2" NCoef="0" IVar="-1" Cut="0.0000000000000000e+00" cType="1" res="2.2339062765240669e-02" rms="4.0397706627845764e-01" purity="6.6709119081497192e-01" nType="-99"/>
        </Node>
      </Node>
    </BinaryTree>
    <BinaryTree type="DecisionTree" boostWeight="1.0000000000000000e+00" itree="19">
      <Node pos="s" depth="0" NCoef="0" IVar="2" Cut="1.1428571939468384e+00" cType="1" res="3.4496202715672553e-04" rms="2.2698901593685150e-01" purity="5.0011438131332397e-01" nType="0">
        <Node pos="l" depth="1" NCoef="0" IVar="3" Cut="2.4224865436553955e+00" cType="1" res="6.9582283496856689e-02" rms="1.3428989052772522e-01" purity="9.7848159074783325e-01" nType="0">
          <Node pos="l" depth="2" NCoef="0" IVar="1" Cut="4.7571703791618347e-01" cType="1" res="4.8854146152734756e-02" rms="3.2733777165412903e-01" purity="8.6714041233062744e-01" nType="0">
            <Node pos="l" depth="3" NCoef="0" IVar="-1" Cut="0.0000000000000000e+00" cType="1" res="1.5471196733415127e-02" rms="3.4009504318237305e-01" purity="8.5535442829132080e-01" nType="-99"/>
            <Node pos="r" depth="3" NCoef="0" IVar="-1" Cut="0.0000000000000000e+00" cType="1" res="1.8059756606817245e-02" rms="3.1529816985130310e-01" purity="8.7784171104431152e-01" nType="-99"/>
          </Node>
          <Node pos="r" depth="2" NCoef="0" IVar="4" Cut="2.1762729644775391e+01" cType="1" res="7.2696842253208160e-02" rms="6.7595534026622772e-02" purity="9.9521142244338989e-01" nType="0">
            <Node pos="l" depth="3" NCoef="0" IVar="4" Cut="4.3708095550537109e+00" cType="1" res="7.0812568068504333e-02" rms="1.1617689579725266e-01" purity="9.8581701517105103e-01" nType="0">
              <Node pos="l" depth="4" NCoef="0" IVar="-1" Cut="0.0000000000000000e+00" cType="1" res="2.7628038078546524e-02" rms="2.1776856482028961e-01" purity="9.4916379451751709e-01" nType="-99"/>
              <Node pos="r" depth="4" NCoef="0" IVar="-1" Cut="0.0000000000000000e+00" cType="1" res="5.2970446646213531e-02" rms="4.5675814151763916e-02" purity="9.9793714284896851e-01" nType="-99"/>
            </Node>
            <Node pos="r" depth="3" NCoef="0" IVar="5" Cut="3.3809523582458496e+00" cType="1" res="7.3612295091152191e-02" rms="1.5133966691792011e-02" purity="9.9977564811706543e-01" nType="0">
              <Node pos="l" depth="4" NCoef="0" IVar="-1" Cut="0.0000000000000000e+00" cType="1" res="5.4208271205425262e-02" rms="3.8316347636282444e-03" purity="1.0000000000000000e+00" nType="-99"/>
              <Node pos="r" depth="4" NCoef="0" IVar="-1" Cut="0.0000000000000000e+00" cType="1" res="5.3773175925016403e-02" rms="1.5962846577167511e-02" purity="9.9974644184112549e-01" nType="-99"/>
            </Node>
          </Node>
        </Node>
        <Node pos="r" depth="1" NCoef="0" IVar="3" Cut="3.5672960281372070e+00" cType="1" res="-5.4867744445800781e-02" rms="2.6713159680366516e-01" purity="1.1864457279443741e-01" nType="0">
          <Node pos="l" depth="2" NCoef="0" IVar="2" Cut="3.0476191043853760e+00" cType="1" res="-6.3844583928585052e-02" rms="2.5327089428901672e-01" purity="8.4544628858566284e-02" nType="0">
            <Node pos="l" depth="3" NCoef="0" IVar="0" Cut="4.4285712242126465e+00" cType="1" res="-5.6918650865554810e-02" rms="2.6177525520324707e-01" purity="9.2514708638191223e-02" nType="0">
              <Node pos="l" depth="4" NCoef="0" IVar="-1" Cut="0.0000000000000000e+00" cType="1" res="-2.9562501236796379e-02" rms="2.3579283058643341e-01" purity="6.5048880875110626e-02" nType="-99"/>
              <Node pos="r" depth="4" NCoef="0" IVar="-1" Cut="0.0000000000000000e+00" cType="1" res="7.9002436250448227e-03" rms="4.3951433897018433e-01" purity="3.7500000000000000e-01" nType="-99"/>
            </Node>
            <Node pos="r" depth="3" NCoef="0" IVar="3" Cut="2.0384051799774170e+00" cType="1" res="-1.0682482272386551e-01" rms="1.8659934401512146e-01" purity="3.5084705799818039e-02" nType="0">
              <Node pos="l" depth="4" NCoef="0" IVar="-1" Cut="0.0000000000000000e+00" cType="1" res="-4.3880082666873932e-02" rms="1.6023357212543488e-01" purity="2.6589034125208855e-02" nType="-99"/>
              <Node pos="r" depth="4" NCoef="0" IVar="-1" Cut="0.0000000000000000e+00" cType="1" res="-4.6751987189054489e-02" rms="2.1652686595916748e-01" purity="4.7300126403570175e-02" nType="-99"/>
            </Node>
          </Node>
          <Node pos="r" depth="2" NCoef="0" IVar="-1" Cut="0.0000000000000000e+00" cType="1" res="2.0199865102767944e-02" rms="4.0627676248550415e-01" purity="6.6581696271896362e-01" nType="-99"/>
        </Node>
      </Node>
    </BinaryTree>
    <BinaryTree type="DecisionTree" boostWeight="1.0000000000000000e+00" itree="20">
      <Node pos="s" depth="0" NCoef="0" IVar="2" Cut="2.0952382087707520e+00" cType="1" res="1.7982584540732205e-04" rms="2.2571186721324921e-01" purity="4.9913784861564636e-01" nType="0">
        <Node pos="l" depth="1" NCoef="0" IVar="3" Cut="2.4224865436553955e+00" cType="1" res="6.1557948589324951e-02" rms="1.4055822789669037e-01" purity="9.7630214691162109e-01" nType="0">
          <Node pos="l" depth="2" NCoef="0" IVar="6" Cut="2.4285714626312256e+00" cType="1" res="3.9397817105054855e-02" rms="3.3269289135932922e-01" purity="8.6181247234344482e-01" nType="0">
            <Node pos="l" depth="3" NCoef="0" IVar="-1" Cut="0.0000000000000000e+00" cType="1" res="5.0888289697468281e-03" rms="4.0434366464614868e-01" purity="7.8284901380538940e-01" nType="-99"/>
            <Node pos="r" depth="3" NCoef="0" IVar="-1" Cut="0.0000000000000000e+00" cType="1" res="2.4025991559028625e-02" rms="2.6439371705055237e-01" purity="9.2189377546310425e-01" nType="-99"/>
          </Node>
          <Node pos="r" depth="2" NCoef="0" IVar="3" Cut="4.7298736572265625e+00" cType="1" res="6.5057925879955292e-02" rms="7.2839803993701935e-02" purity="9.9438470602035522e-01" nType="0">
            <Node pos="l" depth="3" NCoef="0" IVar="3" Cut="3.7410993576049805e+00" cType="1" res="5.9715133160352707e-02" rms="1.5094201266765594e-01" purity="9.7573822736740112e-01" nType="0">
              <Node pos="l" depth="4" NCoef="0" IVar="-1" Cut="0.0000000000000000e+00" cType="1" res="3.4302219748497009e-02" rms="1.7702466249465942e-01" purity="9.6634274721145630e-01" nType="-99"/>
              <Node pos="r" depth="4" NCoef="0" IVar="-1" Cut="0.0000000000000000e+00" cType="1" res="4.6030864119529724e-02" rms="1.0598678141832352e-01" purity="9.8836517333984375e-01" nType="-99"/>
            </Node>
            <Node pos="r" depth="3" NCoef="0" IVar="5" Cut="3.3809523582458496e+00" cType="1" res="6.6502116620540619e-02" rms="2.3904751986265182e-02" purity="9.9942499399185181e-01" nType="0">
              <Node pos="l" depth="4" NCoef="0" IVar="-1" Cut="0.0000000000000000e+00" cType="1" res="5.3244519978761673e-02" rms="2.6802403852343559e-02" purity="9.9928218126296997e-01" nType="-99"/>
              <Node pos="r" depth="4" NCoef="0" IVar="-1" Cut="0.0000000000000000e+00" cType="1" res="5.3126148879528046e-02" rms="2.3474603891372681e-02" purity="9.9944341182708740e-01" nType="-99"/>
            </Node>
          </Node>
        </Node>
        <Node pos="r" depth="1" NCoef="0" IVar="0" Cut="7.8571429252624512e+00" cType="1" res="-4.9965571612119675e-02" rms="2.6614806056022644e-01" purity="1.0929872095584869e-01" nType="0">
          <Node pos="l" depth="2" NCoef="0" IVar="2" Cut="3.0476191043853760e+00" cType="1" res="-5.5920343846082687e-02" rms="2.5622382760047913e-01" purity="8.8567771017551422e-02" nType="0">
            <Node pos="l" depth="3" NCoef="0" IVar="3" Cut="2.2981615066528320e+00" cType="1" res="-4.9376156181097031e-02" rms="2.6452085375785828e-01" purity="9.6915937960147858e-02" nType="0">
              <Node pos="l" depth="4" NCoef="0" IVar="-1" Cut="0.0000000000000000e+00" cType="1" res="-2.9680158942937851e-02" rms="2.2450965642929077e-01" purity="5.5997416377067566e-02" nType="-99"/>
              <Node pos="r" depth="4" NCoef="0" IVar="-1" Cut="0.0000000000000000e+00" cType="1" res="8.5499817505478859e-03" rms="4.5846229791641235e-01" purity="4.0784159302711487e-01" nType="-99"/>
            </Node>
            <Node pos="r" depth="3" NCoef="0" IVar="1" Cut="1.4162509441375732e+00" cType="1" res="-9.9366046488285065e-02" rms="1.8653406202793121e-01" purity="3.3145792782306671e-02" nType="0">
              <Node pos="l" depth="4" NCoef="0" IVar="-1" Cut="0.0000000000000000e+00" cType="1" res="-4.0550317615270615e-02" rms="1.7312528192996979e-01" purity="3.1545415520668030e-02" nType="-99"/>
              <Node pos="r" depth="4" NCoef="0" IVar="-1" Cut="0.0000000000000000e+00" cType="1" res="-4.9766503274440765e-02" rms="2.0007419586181641e-01" purity="3.5498488694429398e-02" nType="-99"/>
            </Node>
          </Node>
