<?xml version="1.0"?>
<MethodSetup Method="BDT::BDTG">
  <GeneralInfo>
    <Info name="TMVA Release" value="4.2.1 [262657]"/>
    <Info name="ROOT Release" value="6.24/06 [399366]"/>
    <Info name="Creator" value="pvaucell"/>
    <Info name="Date" value="Fri Oct  6 07:38:48 2023"/>
    <Info name="Host" value="Linux sbgat310.in2p3.fr 3.10.0-1160.36.2.el7.x86_64 #1 SMP Wed Jul 21 11:57:15 UTC 2021 x86_64 x86_64 x86_64 GNU/Linux"/>
    <Info name="Dir" value="/opt/sbg/cms/ui2_data1/pvaucell/LLTopAna/MVA/AnalysisCode"/>
    <Info name="Training events" value="415617"/>
    <Info name="TrainingTime" value="3.29283231e+02"/>
    <Info name="AnalysisType" value="Classification"/>
  </GeneralInfo>
  <Options>
    <Option name="V" modified="Yes">False</Option>
    <Option name="VerbosityLevel" modified="No">Default</Option>
    <Option name="VarTransform" modified="No">None</Option>
    <Option name="H" modified="Yes">False</Option>
    <Option name="CreateMVAPdfs" modified="No">False</Option>
    <Option name="IgnoreNegWeightsInTraining" modified="No">False</Option>
    <Option name="NTrees" modified="Yes">500</Option>
    <Option name="MaxDepth" modified="Yes">4</Option>
    <Option name="MinNodeSize" modified="Yes">2.5%</Option>
    <Option name="nCuts" modified="Yes">20</Option>
    <Option name="BoostType" modified="Yes">Grad</Option>
    <Option name="AdaBoostR2Loss" modified="No">quadratic</Option>
    <Option name="UseBaggedBoost" modified="Yes">True</Option>
    <Option name="Shrinkage" modified="Yes">1.000000e-01</Option>
    <Option name="AdaBoostBeta" modified="No">5.000000e-01</Option>
    <Option name="UseRandomisedTrees" modified="Yes">False</Option>
    <Option name="UseNvars" modified="No">4</Option>
    <Option name="UsePoissonNvars" modified="No">True</Option>
    <Option name="BaggedSampleFraction" modified="No">6.000000e-01</Option>
    <Option name="UseYesNoLeaf" modified="Yes">False</Option>
    <Option name="NegWeightTreatment" modified="No">pray</Option>
    <Option name="Css" modified="No">1.000000e+00</Option>
    <Option name="Cts_sb" modified="No">1.000000e+00</Option>
    <Option name="Ctb_ss" modified="No">1.000000e+00</Option>
    <Option name="Cbb" modified="No">1.000000e+00</Option>
    <Option name="NodePurityLimit" modified="No">5.000000e-01</Option>
    <Option name="SeparationType" modified="Yes">giniindex</Option>
    <Option name="RegressionLossFunctionBDTG" modified="No">huber</Option>
    <Option name="HuberQuantile" modified="No">7.000000e-01</Option>
    <Option name="DoBoostMonitor" modified="Yes">True</Option>
    <Option name="UseFisherCuts" modified="No">False</Option>
    <Option name="MinLinCorrForFisher" modified="No">8.000000e-01</Option>
    <Option name="UseExclusiveVars" modified="No">False</Option>
    <Option name="DoPreselection" modified="No">False</Option>
    <Option name="SigToBkgFraction" modified="No">1.000000e+00</Option>
    <Option name="PruneMethod" modified="No">nopruning</Option>
    <Option name="PruneStrength" modified="No">0.000000e+00</Option>
    <Option name="PruningValFraction" modified="No">5.000000e-01</Option>
    <Option name="SkipNormalization" modified="No">False</Option>
    <Option name="nEventsMin" modified="No">0</Option>
    <Option name="UseBaggedGrad" modified="No">False</Option>
    <Option name="GradBaggingFraction" modified="Yes">6.000000e-01</Option>
    <Option name="UseNTrainEvents" modified="No">0</Option>
    <Option name="NNodesMax" modified="No">0</Option>
  </Options>
  <Variables NVar="19">
    <Variable VarIndex="0" Expression="mva_Evts_MET_et" Label="mva_Evts_MET_et" Title="mva_Evts_MET_et" Unit="" Internal="mva_Evts_MET_et" Type="F" Min="2.55777240e-02" Max="1.29450574e+03"/>
    <Variable VarIndex="1" Expression="mva_Evts_nTrks" Label="mva_Evts_nTrks" Title="mva_Evts_nTrks" Unit="" Internal="mva_Evts_nTrks" Type="F" Min="1.49000000e+02" Max="4.19200000e+03"/>
    <Variable VarIndex="2" Expression="mva_Evts_muon1_pt" Label="mva_Evts_muon1_pt" Title="mva_Evts_muon1_pt" Unit="" Internal="mva_Evts_muon1_pt" Type="F" Min="2.50005436e+01" Max="1.82339620e+07"/>
    <Variable VarIndex="3" Expression="mva_Evts_muon2_pt" Label="mva_Evts_muon2_pt" Title="mva_Evts_muon2_pt" Unit="" Internal="mva_Evts_muon2_pt" Type="F" Min="1.00001097e+01" Max="1.74740879e+04"/>
    <Variable VarIndex="4" Expression="mva_Evts_jet1_pt" Label="mva_Evts_jet1_pt" Title="mva_Evts_jet1_pt" Unit="" Internal="mva_Evts_jet1_pt" Type="F" Min="0.00000000e+00" Max="1.77109558e+03"/>
    <Variable VarIndex="5" Expression="mva_Evts_jet2_pt" Label="mva_Evts_jet2_pt" Title="mva_Evts_jet2_pt" Unit="" Internal="mva_Evts_jet2_pt" Type="F" Min="0.00000000e+00" Max="1.29592358e+03"/>
    <Variable VarIndex="6" Expression="mva_Evts_muon12_dR" Label="mva_Evts_muon12_dR" Title="mva_Evts_muon12_dR" Unit="" Internal="mva_Evts_muon12_dR" Type="F" Min="1.68779472e-04" Max="5.64027262e+00"/>
    <Variable VarIndex="7" Expression="mva_Evts_muon12_dPhi" Label="mva_Evts_muon12_dPhi" Title="mva_Evts_muon12_dPhi" Unit="" Internal="mva_Evts_muon12_dPhi" Type="F" Min="8.58306885e-06" Max="3.14159203e+00"/>
    <Variable VarIndex="8" Expression="mva_Evts_muon12_dEta" Label="mva_Evts_muon12_dEta" Title="mva_Evts_muon12_dEta" Unit="" Internal="mva_Evts_muon12_dEta" Type="F" Min="8.34465027e-07" Max="4.83697462e+00"/>
    <Variable VarIndex="9" Expression="mva_Evts_jet12_dR" Label="mva_Evts_jet12_dR" Title="mva_Evts_jet12_dR" Unit="" Internal="mva_Evts_jet12_dR" Type="F" Min="0.00000000e+00" Max="8.23145485e+00"/>
    <Variable VarIndex="10" Expression="mva_Evts_jet12_dPhi" Label="mva_Evts_jet12_dPhi" Title="mva_Evts_jet12_dPhi" Unit="" Internal="mva_Evts_jet12_dPhi" Type="F" Min="0.00000000e+00" Max="3.14158821e+00"/>
    <Variable VarIndex="11" Expression="mva_Evts_jet12_dEta" Label="mva_Evts_jet12_dEta" Title="mva_Evts_jet12_dEta" Unit="" Internal="mva_Evts_jet12_dEta" Type="F" Min="0.00000000e+00" Max="7.86653996e+00"/>
    <Variable VarIndex="12" Expression="mva_Evts_muon_jet_dRmin" Label="mva_Evts_muon_jet_dRmin" Title="mva_Evts_muon_jet_dRmin" Unit="" Internal="mva_Evts_muon_jet_dRmin" Type="F" Min="0.00000000e+00" Max="4.58384895e+00"/>
    <Variable VarIndex="13" Expression="mva_Evts_muon_jet_dRmax" Label="mva_Evts_muon_jet_dRmax" Title="mva_Evts_muon_jet_dRmax" Unit="" Internal="mva_Evts_muon_jet_dRmax" Type="F" Min="0.00000000e+00" Max="7.63436317e+00"/>
    <Variable VarIndex="14" Expression="mva_HT" Label="mva_HT" Title="mva_HT" Unit="" Internal="mva_HT" Type="F" Min="0.00000000e+00" Max="4.09845410e+03"/>
    <Variable VarIndex="15" Expression="mva_Evts_ST" Label="mva_Evts_ST" Title="mva_Evts_ST" Unit="" Internal="mva_Evts_ST" Type="F" Min="3.50616150e+01" Max="1.82340240e+07"/>
    <Variable VarIndex="16" Expression="mva_Evts_njets" Label="mva_Evts_njets" Title="mva_Evts_njets" Unit="" Internal="mva_Evts_njets" Type="F" Min="0.00000000e+00" Max="1.60000000e+01"/>
    <Variable VarIndex="17" Expression="mva_Evts_nmuon" Label="mva_Evts_nmuon" Title="mva_Evts_nmuon" Unit="" Internal="mva_Evts_nmuon" Type="F" Min="2.00000000e+00" Max="1.50000000e+01"/>
    <Variable VarIndex="18" Expression="mva_Evts_Mmumu" Label="mva_Evts_Mmumu" Title="mva_Evts_Mmumu" Unit="" Internal="mva_Evts_Mmumu" Type="F" Min="1.00015001e+01" Max="1.93058801e+03"/>
  </Variables>
  <Spectators NSpec="0"/>
  <Classes NClass="2">
    <Class Name="Signal" Index="0"/>
    <Class Name="Background" Index="1"/>
  </Classes>
  <Transformations NTransformations="0"/>
  <MVAPdfs/>
  <Weights NTrees="500" AnalysisType="1">
    <BinaryTree type="DecisionTree" boostWeight="1.0000000000000000e+00" itree="0">
      <Node pos="s" depth="0" NCoef="0" IVar="14" Cut="3.2591638183593750e+02" cType="1" res="-5.1280674524605274e-03" rms="4.9997371435165405e-01" purity="4.9487197399139404e-01" nType="0">
        <Node pos="l" depth="1" NCoef="0" IVar="16" Cut="4.6666665077209473e+00" cType="1" res="-4.1466230154037476e-01" rms="2.7938354015350342e-01" purity="8.5337676107883453e-02" nType="0">
          <Node pos="l" depth="2" NCoef="0" IVar="14" Cut="2.3278834533691406e+02" cType="1" res="-4.5544704794883728e-01" rms="2.0632009208202362e-01" purity="4.4552940875291824e-02" nType="0">
            <Node pos="l" depth="3" NCoef="0" IVar="4" Cut="7.5853164672851562e+01" cType="1" res="-4.8414996266365051e-01" rms="1.2489525973796844e-01" purity="1.5850048512220383e-02" nType="0">
              <Node pos="l" depth="4" NCoef="0" IVar="-1" Cut="0.0000000000000000e+00" cType="1" res="-9.9692247807979584e-02" rms="3.9196953177452087e-02" purity="1.5387689927592874e-03" nType="-99"/>
              <Node pos="r" depth="4" NCoef="0" IVar="-1" Cut="0.0000000000000000e+00" cType="1" res="-8.8860698044300079e-02" rms="2.2933468222618103e-01" purity="5.5696498602628708e-02" nType="-99"/>
            </Node>
            <Node pos="r" depth="3" NCoef="0" IVar="16" Cut="2.0952382087707520e+00" cType="1" res="-3.7833186984062195e-01" rms="3.2690212130546570e-01" purity="1.2166814506053925e-01" nType="0">
              <Node pos="l" depth="4" NCoef="0" IVar="-1" Cut="0.0000000000000000e+00" cType="1" res="-9.3970783054828644e-02" rms="1.7098914086818695e-01" purity="3.0146069824695587e-02" nType="-99"/>
              <Node pos="r" depth="4" NCoef="0" IVar="-1" Cut="0.0000000000000000e+00" cType="1" res="-6.3279516994953156e-02" rms="3.8715961575508118e-01" purity="1.8360240757465363e-01" nType="-99"/>
            </Node>
          </Node>
          <Node pos="r" depth="2" NCoef="0" IVar="-1" Cut="0.0000000000000000e+00" cType="1" res="-2.0746089518070221e-02" rms="4.8912164568901062e-01" purity="3.9626955986022949e-01" nType="-99"/>
        </Node>
        <Node pos="r" depth="1" NCoef="0" IVar="7" Cut="1.4959957599639893e+00" cType="1" res="1.9776166975498199e-01" rms="4.5922797918319702e-01" purity="6.9776165485382080e-01" nType="0">
          <Node pos="l" depth="2" NCoef="0" IVar="18" Cut="7.1796211242675781e+01" cType="1" res="3.9397366344928741e-03" rms="4.9998447299003601e-01" purity="5.0393974781036377e-01" nType="0">
            <Node pos="l" depth="3" NCoef="0" IVar="-1" Cut="0.0000000000000000e+00" cType="1" res="5.9290464967489243e-02" rms="4.0263634920120239e-01" purity="7.9645228385925293e-01" nType="-99"/>
            <Node pos="r" depth="3" NCoef="0" IVar="12" Cut="1.7182964086532593e-01" cType="1" res="-1.7140527069568634e-01" rms="4.6970227360725403e-01" purity="3.2859474420547485e-01" nType="0">
              <Node pos="l" depth="4" NCoef="0" IVar="-1" Cut="0.0000000000000000e+00" cType="1" res="-5.5035587400197983e-02" rms="4.1746509075164795e-01" purity="2.2482205927371979e-01" nType="-99"/>
              <Node pos="r" depth="4" NCoef="0" IVar="-1" Cut="0.0000000000000000e+00" cType="1" res="3.3971639350056648e-03" rms="4.9971139430999756e-01" purity="5.1698577404022217e-01" nType="-99"/>
            </Node>
          </Node>
          <Node pos="r" depth="2" NCoef="0" IVar="14" Cut="4.7336187744140625e+02" cType="1" res="2.8043621778488159e-01" rms="4.1395109891891479e-01" purity="7.8043621778488159e-01" nType="0">
            <Node pos="l" depth="3" NCoef="0" IVar="16" Cut="3.0952382087707520e+00" cType="1" res="9.1870024800300598e-02" rms="4.9148744344711304e-01" purity="5.9187006950378418e-01" nType="0">
              <Node pos="l" depth="4" NCoef="0" IVar="-1" Cut="0.0000000000000000e+00" cType="1" res="-1.6933700069785118e-02" rms="4.9277910590171814e-01" purity="4.1533148288726807e-01" nType="-99"/>
              <Node pos="r" depth="4" NCoef="0" IVar="-1" Cut="0.0000000000000000e+00" cType="1" res="3.3895727246999741e-02" rms="4.7040089964866638e-01" purity="6.6947859525680542e-01" nType="-99"/>
            </Node>
            <Node pos="r" depth="3" NCoef="0" IVar="11" Cut="1.3561755418777466e+00" cType="1" res="3.4956130385398865e-01" rms="3.5750091075897217e-01" purity="8.4956127405166626e-01" nType="0">
              <Node pos="l" depth="4" NCoef="0" IVar="-1" Cut="0.0000000000000000e+00" cType="1" res="7.5540281832218170e-02" rms="3.2763037085533142e-01" purity="8.7770140171051025e-01" nType="-99"/>
              <Node pos="r" depth="4" NCoef="0" IVar="-1" Cut="0.0000000000000000e+00" cType="1" res="3.7000313401222229e-02" rms="4.6451523900032043e-01" purity="6.8500155210494995e-01" nType="-99"/>
            </Node>
          </Node>
        </Node>
      </Node>
    </BinaryTree>
    <BinaryTree type="DecisionTree" boostWeight="1.0000000000000000e+00" itree="1">
      <Node pos="s" depth="0" NCoef="0" IVar="14" Cut="3.2591638183593750e+02" cType="1" res="2.2440780885517597e-03" rms="4.7666302323341370e-01" purity="5.0193905830383301e-01" nType="0">
        <Node pos="l" depth="1" NCoef="0" IVar="16" Cut="4.1904764175415039e+00" cType="1" res="-3.7355127930641174e-01" rms="2.7370053529739380e-01" purity="8.4952592849731445e-02" nType="0">
          <Node pos="l" depth="2" NCoef="0" IVar="17" Cut="3.1428570747375488e+00" cType="1" res="-4.0709540247917175e-01" rms="2.1098703145980835e-01" purity="4.7458175569772720e-02" nType="0">
            <Node pos="l" depth="3" NCoef="0" IVar="16" Cut="2.0952382087707520e+00" cType="1" res="-4.3112874031066895e-01" rms="1.4889341592788696e-01" purity="2.3122824728488922e-02" nType="0">
              <Node pos="l" depth="4" NCoef="0" IVar="-1" Cut="0.0000000000000000e+00" cType="1" res="-9.0617470443248749e-02" rms="5.3347144275903702e-02" purity="2.8497665189206600e-03" nType="-99"/>
              <Node pos="r" depth="4" NCoef="0" IVar="-1" Cut="0.0000000000000000e+00" cType="1" res="-7.9365022480487823e-02" rms="2.4594798684120178e-01" purity="6.5452106297016144e-02" nType="-99"/>
            </Node>
            <Node pos="r" depth="3" NCoef="0" IVar="-1" Cut="0.0000000000000000e+00" cType="1" res="-5.4763477295637131e-02" rms="3.8580036163330078e-01" purity="1.8458881974220276e-01" nType="-99"/>
          </Node>
          <Node pos="r" depth="2" NCoef="0" IVar="-1" Cut="0.0000000000000000e+00" cType="1" res="-2.1860072389245033e-02" rms="4.8547902703285217e-01" purity="3.8037508726119995e-01" nType="-99"/>
        </Node>
        <Node pos="r" depth="1" NCoef="0" IVar="7" Cut="1.4959992170333862e+00" cType="1" res="1.8420226871967316e-01" rms="4.4661009311676025e-01" purity="7.0384174585342407e-01" nType="0">
          <Node pos="l" depth="2" NCoef="0" IVar="12" Cut="1.8619287014007568e-01" cType="1" res="3.2775681465864182e-02" rms="4.8767042160034180e-01" purity="5.3302049636840820e-01" nType="0">
            <Node pos="l" depth="3" NCoef="0" IVar="12" Cut="8.8417315855622292e-03" cType="1" res="-7.5587950646877289e-02" rms="4.8142382502555847e-01" purity="4.1198161244392395e-01" nType="0">
              <Node pos="l" depth="4" NCoef="0" IVar="-1" Cut="0.0000000000000000e+00" cType="1" res="-6.1468876898288727e-02" rms="3.7117344141006470e-01" purity="1.7462831735610962e-01" nType="-99"/>
              <Node pos="r" depth="4" NCoef="0" IVar="-1" Cut="0.0000000000000000e+00" cType="1" res="3.6133430898189545e-02" rms="4.5990800857543945e-01" purity="6.7491179704666138e-01" nType="-99"/>
            </Node>
            <Node pos="r" depth="3" NCoef="0" IVar="13" Cut="3.1994080543518066e+00" cType="1" res="1.6721716523170471e-01" rms="4.6118295192718506e-01" purity="6.8318754434585571e-01" nType="0">
              <Node pos="l" depth="4" NCoef="0" IVar="-1" Cut="0.0000000000000000e+00" cType="1" res="4.5777436345815659e-02" rms="4.3285042047500610e-01" purity="7.4487358331680298e-01" nType="-99"/>
              <Node pos="r" depth="4" NCoef="0" IVar="-1" Cut="0.0000000000000000e+00" cType="1" res="3.9541083388030529e-03" rms="4.9285107851028442e-01" purity="5.3464746475219727e-01" nType="-99"/>
            </Node>
          </Node>
          <Node pos="r" depth="2" NCoef="0" IVar="14" Cut="4.7335903930664062e+02" cType="1" res="2.5265559554100037e-01" rms="4.0873870253562927e-01" purity="7.8106260299682617e-01" nType="0">
            <Node pos="l" depth="3" NCoef="0" IVar="16" Cut="4.5714287757873535e+00" cType="1" res="8.7970025837421417e-02" rms="4.8702195286750793e-01" purity="5.9815746545791626e-01" nType="0">
              <Node pos="l" depth="4" NCoef="0" IVar="-1" Cut="0.0000000000000000e+00" cType="1" res="-1.4884104952216148e-02" rms="4.9259021878242493e-01" purity="4.2737454175949097e-01" nType="-99"/>
              <Node pos="r" depth="4" NCoef="0" IVar="-1" Cut="0.0000000000000000e+00" cType="1" res="4.3628051877021790e-02" rms="4.4142305850982666e-01" purity="7.3483121395111084e-01" nType="-99"/>
            </Node>
            <Node pos="r" depth="3" NCoef="0" IVar="11" Cut="1.3832106590270996e+00" cType="1" res="3.1399944424629211e-01" rms="3.5648512840270996e-01" purity="8.4919309616088867e-01" nType="0">
              <Node pos="l" depth="4" NCoef="0" IVar="-1" Cut="0.0000000000000000e+00" cType="1" res="6.8741977214813232e-02" rms="3.2573378086090088e-01" purity="8.7931460142135620e-01" nType="-99"/>
              <Node pos="r" depth="4" NCoef="0" IVar="-1" Cut="0.0000000000000000e+00" cType="1" res="2.3416522890329361e-02" rms="4.8131382465362549e-01" purity="6.3541418313980103e-01" nType="-99"/>
            </Node>
          </Node>
        </Node>
      </Node>
    </BinaryTree>
    <BinaryTree type="DecisionTree" boostWeight="1.0000000000000000e+00" itree="2">
      <Node pos="s" depth="0" NCoef="0" IVar="14" Cut="3.9032894897460938e+02" cType="1" res="-4.1763909393921494e-04" rms="4.5708540081977844e-01" purity="4.9853286147117615e-01" nType="0">
        <Node pos="l" depth="1" NCoef="0" IVar="14" Cut="2.6021423339843750e+02" cType="1" res="-2.7246639132499695e-01" rms="3.5005027055740356e-01" purity="1.6629171371459961e-01" nType="0">
          <Node pos="l" depth="2" NCoef="0" IVar="4" Cut="7.5853164672851562e+01" cType="1" res="-3.8025176525115967e-01" rms="1.8051686882972717e-01" purity="3.5639766603708267e-02" nType="0">
            <Node pos="l" depth="3" NCoef="0" IVar="7" Cut="1.7951998710632324e+00" cType="1" res="-4.0516412258148193e-01" rms="8.1584170460700989e-02" purity="7.0616812445223331e-03" nType="0">
              <Node pos="l" depth="4" NCoef="0" IVar="-1" Cut="0.0000000000000000e+00" cType="1" res="-7.8996576368808746e-02" rms="1.7351044714450836e-01" purity="3.3305697143077850e-02" nType="-99"/>
              <Node pos="r" depth="4" NCoef="0" IVar="-1" Cut="0.0000000000000000e+00" cType="1" res="-8.4956288337707520e-02" rms="1.3594887219369411e-02" purity="0.0000000000000000e+00" nType="-99"/>
            </Node>
            <Node pos="r" depth="3" NCoef="0" IVar="7" Cut="2.5431776046752930e+00" cType="1" res="-3.3100497722625732e-01" rms="2.8318443894386292e-01" purity="9.2132963240146637e-02" nType="0">
              <Node pos="l" depth="4" NCoef="0" IVar="-1" Cut="0.0000000000000000e+00" cType="1" res="-6.1757188290357590e-02" rms="3.2175976037979126e-01" purity="1.2390048056840897e-01" nType="-99"/>
              <Node pos="r" depth="4" NCoef="0" IVar="-1" Cut="0.0000000000000000e+00" cType="1" res="-8.0803759396076202e-02" rms="1.6070038080215454e-01" purity="2.5851337239146233e-02" nType="-99"/>
            </Node>
          </Node>
          <Node pos="r" depth="2" NCoef="0" IVar="16" Cut="3.3333332538604736e+00" cType="1" res="-9.8249718546867371e-02" rms="4.6775281429290771e-01" purity="3.7746819853782654e-01" nType="0">
            <Node pos="l" depth="3" NCoef="0" IVar="17" Cut="2.4285714626312256e+00" cType="1" res="-2.3341643810272217e-01" rms="4.0005987882614136e-01" purity="2.1635986864566803e-01" nType="0">
              <Node pos="l" depth="4" NCoef="0" IVar="-1" Cut="0.0000000000000000e+00" cType="1" res="-8.2027442753314972e-02" rms="1.8865367770195007e-01" purity="3.7334326654672623e-02" nType="-99"/>
              <Node pos="r" depth="4" NCoef="0" IVar="-1" Cut="0.0000000000000000e+00" cType="1" res="-2.6885859668254852e-02" rms="4.5518320798873901e-01" purity="3.2326459884643555e-01" nType="-99"/>
            </Node>
            <Node pos="r" depth="3" NCoef="0" IVar="11" Cut="9.6381473541259766e-01" cType="1" res="5.5655171163380146e-03" rms="4.8898041248321533e-01" purity="5.0120800733566284e-01" nType="0">
              <Node pos="l" depth="4" NCoef="0" IVar="-1" Cut="0.0000000000000000e+00" cType="1" res="1.8000161275267601e-02" rms="4.8062732815742493e-01" purity="5.8797603845596313e-01" nType="-99"/>
              <Node pos="r" depth="4" NCoef="0" IVar="-1" Cut="0.0000000000000000e+00" cType="1" res="-2.2091379389166832e-02" rms="4.7672390937805176e-01" purity="3.8191404938697815e-01" nType="-99"/>
            </Node>
          </Node>
        </Node>
        <Node pos="r" depth="1" NCoef="0" IVar="7" Cut="1.9447761774063110e+00" cType="1" res="1.8979449570178986e-01" rms="4.2591461539268494e-01" purity="7.3083060979843140e-01" nType="0">
          <Node pos="l" depth="2" NCoef="0" IVar="18" Cut="7.1789726257324219e+01" cType="1" res="6.3268296420574188e-02" rms="4.7248789668083191e-01" purity="5.8045637607574463e-01" nType="0">
            <Node pos="l" depth="3" NCoef="0" IVar="-1" Cut="0.0000000000000000e+00" cType="1" res="5.9197477996349335e-02" rms="3.6564120650291443e-01" purity="8.3727484941482544e-01" nType="-99"/>
            <Node pos="r" depth="3" NCoef="0" IVar="10" Cut="2.8423893451690674e+00" cType="1" res="-4.1313033550977707e-02" rms="4.7850638628005981e-01" purity="4.6368893980979919e-01" nType="0">
              <Node pos="l" depth="4" NCoef="0" IVar="-1" Cut="0.0000000000000000e+00" cType="1" res="-2.8002703562378883e-02" rms="4.6291035413742065e-01" purity="3.6114341020584106e-01" nType="-99"/>
              <Node pos="r" depth="4" NCoef="0" IVar="-1" Cut="0.0000000000000000e+00" cType="1" res="1.9114939495921135e-02" rms="4.6659308671951294e-01" purity="6.0677993297576904e-01" nType="-99"/>
            </Node>
          </Node>
          <Node pos="r" depth="2" NCoef="0" IVar="14" Cut="5.2301184082031250e+02" cType="1" res="2.7836751937866211e-01" rms="3.6477479338645935e-01" purity="8.3609807491302490e-01" nType="0">
            <Node pos="l" depth="3" NCoef="0" IVar="14" Cut="4.4719812011718750e+02" cType="1" res="1.6127371788024902e-01" rms="4.5605906844139099e-01" purity="6.9500142335891724e-01" nType="0">
              <Node pos="l" depth="4" NCoef="0" IVar="-1" Cut="0.0000000000000000e+00" cType="1" res="2.1970057860016823e-02" rms="4.8041483759880066e-01" purity="6.2503200769424438e-01" nType="-99"/>
              <Node pos="r" depth="4" NCoef="0" IVar="-1" Cut="0.0000000000000000e+00" cType="1" res="3.9779432117938995e-02" rms="4.3522062897682190e-01" purity="7.4257791042327881e-01" nType="-99"/>
            </Node>
            <Node pos="r" depth="3" NCoef="0" IVar="10" Cut="2.6927897930145264e+00" cType="1" res="3.1692934036254883e-01" rms="3.1997227668762207e-01" purity="8.8256466388702393e-01" nType="0">
              <Node pos="l" depth="4" NCoef="0" IVar="-1" Cut="0.0000000000000000e+00" cType="1" res="4.8857629299163818e-02" rms="3.9406597614288330e-01" purity="8.0469292402267456e-01" nType="-99"/>
              <Node pos="r" depth="4" NCoef="0" IVar="-1" Cut="0.0000000000000000e+00" cType="1" res="7.2206057608127594e-02" rms="2.6889461278915405e-01" purity="9.2051601409912109e-01" nType="-99"/>
            </Node>
          </Node>
        </Node>
      </Node>
    </BinaryTree>
    <BinaryTree type="DecisionTree" boostWeight="1.0000000000000000e+00" itree="3">
      <Node pos="s" depth="0" NCoef="0" IVar="14" Cut="3.9032894897460938e+02" cType="1" res="1.7095403745770454e-04" rms="4.3938222527503967e-01" purity="5.0009161233901978e-01" nType="0">
        <Node pos="l" depth="1" NCoef="0" IVar="14" Cut="2.6020547485351562e+02" cType="1" res="-2.5131046772003174e-01" rms="3.3609765768051147e-01" purity="1.6044324636459351e-01" nType="0">
          <Node pos="l" depth="2" NCoef="0" IVar="4" Cut="9.4816452026367188e+01" cType="1" res="-3.4721523523330688e-01" rms="1.6878710687160492e-01" purity="3.0975952744483948e-02" nType="0">
            <Node pos="l" depth="3" NCoef="0" IVar="6" Cut="1.8682266473770142e+00" cType="1" res="-3.6136358976364136e-01" rms="1.1703562736511230e-01" purity="1.4510192908346653e-02" nType="0">
              <Node pos="l" depth="4" NCoef="0" IVar="-1" Cut="0.0000000000000000e+00" cType="1" res="-7.0243149995803833e-02" rms="2.1824613213539124e-01" purity="5.2286077290773392e-02" nType="-99"/>
              <Node pos="r" depth="4" NCoef="0" IVar="-1" Cut="0.0000000000000000e+00" cType="1" res="-7.8336127102375031e-02" rms="8.6916022002696991e-02" purity="7.8735714778304100e-03" nType="-99"/>
            </Node>
            <Node pos="r" depth="3" NCoef="0" IVar="-1" Cut="0.0000000000000000e+00" cType="1" res="-5.7336088269948959e-02" rms="3.1631270051002502e-01" purity="1.1804943531751633e-01" nType="-99"/>
          </Node>
          <Node pos="r" depth="2" NCoef="0" IVar="16" Cut="4.5714287757873535e+00" cType="1" res="-9.3798816204071045e-02" rms="4.6019700169563293e-01" purity="3.7307721376419067e-01" nType="0">
            <Node pos="l" depth="3" NCoef="0" IVar="17" Cut="3.2857143878936768e+00" cType="1" res="-1.7606186866760254e-01" rms="4.2373448610305786e-01" purity="2.6513835787773132e-01" nType="0">
              <Node pos="l" depth="4" NCoef="0" IVar="-1" Cut="0.0000000000000000e+00" cType="1" res="-5.2544284611940384e-02" rms="3.6463174223899841e-01" purity="1.7775014042854309e-01" nType="-99"/>
              <Node pos="r" depth="4" NCoef="0" IVar="-1" Cut="0.0000000000000000e+00" cType="1" res="4.6244336408562958e-04" rms="4.8789095878601074e-01" purity="4.6108838915824890e-01" nType="-99"/>
            </Node>
            <Node pos="r" depth="3" NCoef="0" IVar="-1" Cut="0.0000000000000000e+00" cType="1" res="1.0494080372154713e-02" rms="4.8544511198997498e-01" purity="5.6462967395782471e-01" nType="-99"/>
          </Node>
        </Node>
        <Node pos="r" depth="1" NCoef="0" IVar="7" Cut="1.4959992170333862e+00" cType="1" res="1.7264018952846527e-01" rms="4.1817286610603333e-01" purity="7.3302686214447021e-01" nType="0">
          <Node pos="l" depth="2" NCoef="0" IVar="3" Cut="4.0424289703369141e+01" cType="1" res="1.3826997019350529e-03" rms="4.7171929478645325e-01" purity="5.0857228040695190e-01" nType="0">
            <Node pos="l" depth="3" NCoef="0" IVar="11" Cut="8.4181988239288330e-01" cType="1" res="1.4346040785312653e-01" rms="4.4164508581161499e-01" purity="6.7765569686889648e-01" nType="0">
              <Node pos="l" depth="4" NCoef="0" IVar="-1" Cut="0.0000000000000000e+00" cType="1" res="4.0929250419139862e-02" rms="4.1306191682815552e-01" purity="7.4036329984664917e-01" nType="-99"/>
              <Node pos="r" depth="4" NCoef="0" IVar="-1" Cut="0.0000000000000000e+00" cType="1" res="1.1858283542096615e-02" rms="4.6788132190704346e-01" purity="5.8524811267852783e-01" nType="-99"/>
            </Node>
            <Node pos="r" depth="3" NCoef="0" IVar="12" Cut="1.7748801410198212e-01" cType="1" res="-1.3169607520103455e-01" rms="4.6003314852714539e-01" purity="3.5019823908805847e-01" nType="0">
              <Node pos="l" depth="4" NCoef="0" IVar="-1" Cut="0.0000000000000000e+00" cType="1" res="-4.4734701514244080e-02" rms="4.1264384984970093e-01" purity="2.3863527178764343e-01" nType="-99"/>
              <Node pos="r" depth="4" NCoef="0" IVar="-1" Cut="0.0000000000000000e+00" cType="1" res="4.1926228441298008e-03" rms="4.9527764320373535e-01" purity="5.4062044620513916e-01" nType="-99"/>
            </Node>
          </Node>
          <Node pos="r" depth="2" NCoef="0" IVar="11" Cut="1.6646512746810913e+00" cType="1" res="2.4031327664852142e-01" rms="3.7399205565452576e-01" purity="8.2172107696533203e-01" nType="0">
            <Node pos="l" depth="3" NCoef="0" IVar="10" Cut="2.3935909271240234e+00" cType="1" res="2.6452550292015076e-01" rms="3.5119923949241638e-01" purity="8.4904927015304565e-01" nType="0">
              <Node pos="l" depth="4" NCoef="0" IVar="-1" Cut="0.0000000000000000e+00" cType="1" res="3.3213321119546890e-02" rms="4.3568745255470276e-01" purity="7.3359346389770508e-01" nType="-99"/>
              <Node pos="r" depth="4" NCoef="0" IVar="-1" Cut="0.0000000000000000e+00" cType="1" res="6.1443213373422623e-02" rms="3.1333464384078979e-01" purity="8.8524025678634644e-01" nType="-99"/>
            </Node>
            <Node pos="r" depth="3" NCoef="0" IVar="-1" Cut="0.0000000000000000e+00" cType="1" res="-2.1008155308663845e-03" rms="4.9203348159790039e-01" purity="5.3875809907913208e-01" nType="-99"/>
          </Node>
        </Node>
      </Node>
    </BinaryTree>
    <BinaryTree type="DecisionTree" boostWeight="1.0000000000000000e+00" itree="4">
      <Node pos="s" depth="0" NCoef="0" IVar="14" Cut="3.1776193237304688e+02" cType="1" res="2.0040713716298342e-03" rms="4.2728486657142639e-01" purity="4.9952277541160583e-01" nType="0">
        <Node pos="l" depth="1" NCoef="0" IVar="16" Cut="4.6666665077209473e+00" cType="1" res="-2.7281901240348816e-01" rms="2.6218181848526001e-01" purity="8.6890041828155518e-02" nType="0">
          <Node pos="l" depth="2" NCoef="0" IVar="14" Cut="1.9670765686035156e+02" cType="1" res="-3.0308532714843750e-01" rms="1.9982221722602844e-01" purity="4.5146223157644272e-02" nType="0">
            <Node pos="l" depth="3" NCoef="0" IVar="4" Cut="7.3813217163085938e+01" cType="1" res="-3.3459514379501343e-01" rms="3.8574330508708954e-02" purity="1.4102922286838293e-03" nType="0">
              <Node pos="l" depth="4" NCoef="0" IVar="-1" Cut="0.0000000000000000e+00" cType="1" res="-7.4615180492401123e-02" rms="4.2123090475797653e-02" purity="1.7461606767028570e-03" nType="-99"/>
              <Node pos="r" depth="4" NCoef="0" IVar="-1" Cut="0.0000000000000000e+00" cType="1" res="-7.6633326709270477e-02" rms="9.2626288533210754e-03" purity="0.0000000000000000e+00" nType="-99"/>
            </Node>
            <Node pos="r" depth="3" NCoef="0" IVar="17" Cut="2.3809523582458496e+00" cType="1" res="-2.5721082091331482e-01" rms="3.0388221144676208e-01" purity="1.0882053524255753e-01" nType="0">
              <Node pos="l" depth="4" NCoef="0" IVar="-1" Cut="0.0000000000000000e+00" cType="1" res="-6.9433942437171936e-02" rms="1.9017980992794037e-01" purity="3.7591177970170975e-02" nType="-99"/>
              <Node pos="r" depth="4" NCoef="0" IVar="-1" Cut="0.0000000000000000e+00" cType="1" res="-4.2542334645986557e-02" rms="3.7382167577743530e-01" purity="1.7768979072570801e-01" nType="-99"/>
            </Node>
          </Node>
          <Node pos="r" depth="2" NCoef="0" IVar="-1" Cut="0.0000000000000000e+00" cType="1" res="-6.5298494882881641e-03" rms="4.8231709003448486e-01" purity="4.1883844137191772e-01" nType="-99"/>
        </Node>
        <Node pos="r" depth="1" NCoef="0" IVar="13" Cut="3.6096577644348145e+00" cType="1" res="1.3242241740226746e-01" rms="4.2865058779716492e-01" purity="6.9533926248550415e-01" nType="0">
          <Node pos="l" depth="2" NCoef="0" IVar="7" Cut="1.4959957599639893e+00" cType="1" res="1.5351659059524536e-01" rms="4.1842421889305115e-01" purity="7.1939015388488770e-01" nType="0">
            <Node pos="l" depth="3" NCoef="0" IVar="3" Cut="4.6829673767089844e+01" cType="1" res="4.8555839806795120e-02" rms="4.6467068791389465e-01" purity="5.5518865585327148e-01" nType="0">
              <Node pos="l" depth="4" NCoef="0" IVar="-1" Cut="0.0000000000000000e+00" cType="1" res="2.7499319985508919e-02" rms="4.4257748126983643e-01" purity="6.6942828893661499e-01" nType="-99"/>
              <Node pos="r" depth="4" NCoef="0" IVar="-1" Cut="0.0000000000000000e+00" cType="1" res="-1.4611417427659035e-02" rms="4.6792870759963989e-01" purity="3.9577454328536987e-01" nType="-99"/>
            </Node>
            <Node pos="r" depth="3" NCoef="0" IVar="14" Cut="6.0526098632812500e+02" cType="1" res="2.0039537549018860e-01" rms="3.8693711161613464e-01" purity="7.9272776842117310e-01" nType="0">
              <Node pos="l" depth="4" NCoef="0" IVar="-1" Cut="0.0000000000000000e+00" cType="1" res="2.5584803894162178e-02" rms="4.4448316097259521e-01" purity="6.8824297189712524e-01" nType="-99"/>
              <Node pos="r" depth="4" NCoef="0" IVar="-1" Cut="0.0000000000000000e+00" cType="1" res="5.8072149753570557e-02" rms="3.0537679791450500e-01" purity="8.9231616258621216e-01" nType="-99"/>
            </Node>
          </Node>
          <Node pos="r" depth="2" NCoef="0" IVar="-1" Cut="0.0000000000000000e+00" cType="1" res="-3.9791803807020187e-02" rms="4.5150798559188843e-01" purity="3.2104238867759705e-01" nType="-99"/>
        </Node>
      </Node>
    </BinaryTree>
    <BinaryTree type="DecisionTree" boostWeight="1.0000000000000000e+00" itree="5">
      <Node pos="s" depth="0" NCoef="0" IVar="14" Cut="3.2591638183593750e+02" cType="1" res="2.3481785319745541e-03" rms="4.1425523161888123e-01" purity="5.0253432989120483e-01" nType="0">
        <Node pos="l" depth="1" NCoef="0" IVar="16" Cut="4.5714287757873535e+00" cType="1" res="-2.4509452283382416e-01" rms="2.6345160603523254e-01" purity="9.0834468603134155e-02" nType="0">
          <Node pos="l" depth="2" NCoef="0" IVar="14" Cut="2.0175152587890625e+02" cType="1" res="-2.7505007386207581e-01" rms="1.9805547595024109e-01" purity="4.5125190168619156e-02" nType="0">
            <Node pos="l" depth="3" NCoef="0" IVar="16" Cut="2.0952382087707520e+00" cType="1" res="-2.9993963241577148e-01" rms="6.2443513423204422e-02" purity="4.0881577879190445e-03" nType="0">
              <Node pos="l" depth="4" NCoef="0" IVar="-1" Cut="0.0000000000000000e+00" cType="1" res="-7.1711406111717224e-02" rms="7.7642593532800674e-03" purity="0.0000000000000000e+00" nType="-99"/>
              <Node pos="r" depth="4" NCoef="0" IVar="-1" Cut="0.0000000000000000e+00" cType="1" res="-6.7555941641330719e-02" rms="1.4074857532978058e-01" purity="2.1190933883190155e-02" nType="-99"/>
            </Node>
            <Node pos="r" depth="3" NCoef="0" IVar="17" Cut="2.3809523582458496e+00" cType="1" res="-2.3739139735698700e-01" rms="3.0053451657295227e-01" purity="1.0721547901630402e-01" nType="0">
              <Node pos="l" depth="4" NCoef="0" IVar="-1" Cut="0.0000000000000000e+00" cType="1" res="-6.6802740097045898e-02" rms="1.7581693828105927e-01" purity="3.4255966544151306e-02" nType="-99"/>
              <Node pos="r" depth="4" NCoef="0" IVar="-1" Cut="0.0000000000000000e+00" cType="1" res="-4.0335875004529953e-02" rms="3.7388920783996582e-01" purity="1.7497210204601288e-01" nType="-99"/>
            </Node>
          </Node>
          <Node pos="r" depth="2" NCoef="0" IVar="-1" Cut="0.0000000000000000e+00" cType="1" res="-5.7245707139372826e-03" rms="4.8415967822074890e-01" purity="4.2184770107269287e-01" nType="-99"/>
        </Node>
        <Node pos="r" depth="1" NCoef="0" IVar="18" Cut="1.0149198150634766e+02" cType="1" res="1.2323030084371567e-01" rms="4.2072692513465881e-01" purity="7.0366024971008301e-01" nType="0">
          <Node pos="l" depth="2" NCoef="0" IVar="18" Cut="8.4059837341308594e+01" cType="1" res="4.3068002909421921e-02" rms="4.5286825299263000e-01" purity="6.0237890481948853e-01" nType="0">
            <Node pos="l" depth="3" NCoef="0" IVar="11" Cut="1.1237914562225342e+00" cType="1" res="2.3067814111709595e-01" rms="3.7672346830368042e-01" purity="8.1153655052185059e-01" nType="0">
              <Node pos="l" depth="4" NCoef="0" IVar="-1" Cut="0.0000000000000000e+00" cType="1" res="5.5396806448698044e-02" rms="3.4260055422782898e-01" purity="8.5270661115646362e-01" nType="-99"/>
              <Node pos="r" depth="4" NCoef="0" IVar="-1" Cut="0.0000000000000000e+00" cType="1" res="2.4002270773053169e-02" rms="4.5514115691184998e-01" purity="6.7403954267501831e-01" nType="-99"/>
            </Node>
            <Node pos="r" depth="3" NCoef="0" IVar="7" Cut="1.7951614856719971e+00" cType="1" res="-1.8396005034446716e-01" rms="4.3289303779602051e-01" purity="3.4927591681480408e-01" nType="0">
              <Node pos="l" depth="4" NCoef="0" IVar="-1" Cut="0.0000000000000000e+00" cType="1" res="-6.5022386610507965e-02" rms="3.3804848790168762e-01" purity="1.5968625247478485e-01" nType="-99"/>
              <Node pos="r" depth="4" NCoef="0" IVar="-1" Cut="0.0000000000000000e+00" cType="1" res="-5.5483155883848667e-03" rms="4.7642979025840759e-01" purity="5.7135415077209473e-01" nType="-99"/>
            </Node>
          </Node>
          <Node pos="r" depth="2" NCoef="0" IVar="16" Cut="2.2857143878936768e+00" cType="1" res="2.0242202281951904e-01" rms="3.6966615915298462e-01" purity="8.0371540784835815e-01" nType="0">
            <Node pos="l" depth="3" NCoef="0" IVar="-1" Cut="0.0000000000000000e+00" cType="1" res="3.4391928929835558e-03" rms="4.4611001014709473e-01" purity="5.9712183475494385e-01" nType="-99"/>
            <Node pos="r" depth="3" NCoef="0" IVar="11" Cut="1.5338530540466309e+00" cType="1" res="2.2913287580013275e-01" rms="3.4931403398513794e-01" purity="8.3335113525390625e-01" nType="0">
              <Node pos="l" depth="4" NCoef="0" IVar="-1" Cut="0.0000000000000000e+00" cType="1" res="5.4225705564022064e-02" rms="3.2072326540946960e-01" purity="8.6696052551269531e-01" nType="-99"/>
              <Node pos="r" depth="4" NCoef="0" IVar="-1" Cut="0.0000000000000000e+00" cType="1" res="1.0291562415659428e-02" rms="4.8116523027420044e-01" purity="5.7804721593856812e-01" nType="-99"/>
            </Node>
          </Node>
        </Node>
      </Node>
    </BinaryTree>
    <BinaryTree type="DecisionTree" boostWeight="1.0000000000000000e+00" itree="6">
      <Node pos="s" depth="0" NCoef="0" IVar="14" Cut="3.9032894897460938e+02" cType="1" res="4.3416908010840416e-03" rms="4.0270212292671204e-01" purity="5.0349676609039307e-01" nType="0">
        <Node pos="l" depth="1" NCoef="0" IVar="14" Cut="2.7880490112304688e+02" cType="1" res="-1.7297224700450897e-01" rms="3.2963803410530090e-01" purity="1.8171545863151550e-01" nType="0">
          <Node pos="l" depth="2" NCoef="0" IVar="14" Cut="1.9914564514160156e+02" cType="1" res="-2.5181618332862854e-01" rms="1.9220796227455139e-01" purity="4.3540887534618378e-02" nType="0">
            <Node pos="l" depth="3" NCoef="0" IVar="7" Cut="1.3464025259017944e+00" cType="1" res="-2.7112606167793274e-01" rms="8.1454172730445862e-02" purity="6.7392447963356972e-03" nType="0">
              <Node pos="l" depth="4" NCoef="0" IVar="-1" Cut="0.0000000000000000e+00" cType="1" res="-6.1531852930784225e-02" rms="1.8280239403247833e-01" purity="3.6473020911216736e-02" nType="-99"/>
              <Node pos="r" depth="4" NCoef="0" IVar="-1" Cut="0.0000000000000000e+00" cType="1" res="-6.8808048963546753e-02" rms="4.3678335845470428e-02" purity="1.5816459199413657e-03" nType="-99"/>
            </Node>
            <Node pos="r" depth="3" NCoef="0" IVar="0" Cut="7.4147369384765625e+01" cType="1" res="-2.1656611561775208e-01" rms="3.0058240890502930e-01" purity="1.1072207242250443e-01" nType="0">
              <Node pos="l" depth="4" NCoef="0" IVar="-1" Cut="0.0000000000000000e+00" cType="1" res="-5.6344270706176758e-02" rms="2.5804081559181213e-01" purity="8.0636106431484222e-02" nType="-99"/>
              <Node pos="r" depth="4" NCoef="0" IVar="-1" Cut="0.0000000000000000e+00" cType="1" res="-3.2023396342992783e-02" rms="3.8408121466636658e-01" purity="1.9303321838378906e-01" nType="-99"/>
            </Node>
          </Node>
          <Node pos="r" depth="2" NCoef="0" IVar="16" Cut="4.3333334922790527e+00" cType="1" res="-2.2484110668301582e-02" rms="4.5938566327095032e-01" purity="4.4544702768325806e-01" nType="0">
            <Node pos="l" depth="3" NCoef="0" IVar="17" Cut="3.2857143878936768e+00" cType="1" res="-1.0208155214786530e-01" rms="4.3573305010795593e-01" purity="3.2269194722175598e-01" nType="0">
              <Node pos="l" depth="4" NCoef="0" IVar="-1" Cut="0.0000000000000000e+00" cType="1" res="-3.5165887326002121e-02" rms="4.0139827132225037e-01" purity="2.3779086768627167e-01" nType="-99"/>
              <Node pos="r" depth="4" NCoef="0" IVar="-1" Cut="0.0000000000000000e+00" cType="1" res="5.9917252510786057e-03" rms="4.7442078590393066e-01" purity="5.0188577175140381e-01" nType="-99"/>
            </Node>
            <Node pos="r" depth="3" NCoef="0" IVar="-1" Cut="0.0000000000000000e+00" cType="1" res="1.9435256719589233e-02" rms="4.6807846426963806e-01" purity="6.2766647338867188e-01" nType="-99"/>
          </Node>
        </Node>
        <Node pos="r" depth="1" NCoef="0" IVar="13" Cut="3.5897994041442871e+00" cType="1" res="1.2964078783988953e-01" rms="4.0257072448730469e-01" purity="7.3088389635086060e-01" nType="0">
          <Node pos="l" depth="2" NCoef="0" IVar="7" Cut="2.2439913749694824e+00" cType="1" res="1.4737041294574738e-01" rms="3.9231380820274353e-01" purity="7.5376749038696289e-01" nType="0">
            <Node pos="l" depth="3" NCoef="0" IVar="12" Cut="1.5016452968120575e-01" cType="1" res="7.8401699662208557e-02" rms="4.3687820434570312e-01" purity="6.3799881935119629e-01" nType="0">
              <Node pos="l" depth="4" NCoef="0" IVar="-1" Cut="0.0000000000000000e+00" cType="1" res="-2.4751231539994478e-03" rms="4.4989934563636780e-01" purity="5.0877398252487183e-01" nType="-99"/>
              <Node pos="r" depth="4" NCoef="0" IVar="-1" Cut="0.0000000000000000e+00" cType="1" res="3.4953311085700989e-02" rms="4.0521708130836487e-01" purity="7.6294976472854614e-01" nType="-99"/>
            </Node>
            <Node pos="r" depth="3" NCoef="0" IVar="10" Cut="2.6927897930145264e+00" cType="1" res="2.1282140910625458e-01" rms="3.3172956109046936e-01" purity="8.6363148689270020e-01" nType="0">
              <Node pos="l" depth="4" NCoef="0" IVar="-1" Cut="0.0000000000000000e+00" cType="1" res="3.1210390850901604e-02" rms="4.0739968419075012e-01" purity="7.7433514595031738e-01" nType="-99"/>
              <Node pos="r" depth="4" NCoef="0" IVar="-1" Cut="0.0000000000000000e+00" cType="1" res="5.6099399924278259e-02" rms="2.7563127875328064e-01" purity="9.1184550523757935e-01" nType="-99"/>
            </Node>
          </Node>
          <Node pos="r" depth="2" NCoef="0" IVar="-1" Cut="0.0000000000000000e+00" cType="1" res="-3.5739880055189133e-02" rms="4.5160946249961853e-01" purity="3.3771556615829468e-01" nType="-99"/>
        </Node>
      </Node>
    </BinaryTree>
    <BinaryTree type="DecisionTree" boostWeight="1.0000000000000000e+00" itree="7">
      <Node pos="s" depth="0" NCoef="0" IVar="14" Cut="3.1776193237304688e+02" cType="1" res="-4.7641098499298096e-03" rms="3.9125385880470276e-01" purity="4.9512317776679993e-01" nType="0">
        <Node pos="l" depth="1" NCoef="0" IVar="16" Cut="4.6666665077209473e+00" cType="1" res="-2.1347086131572723e-01" rms="2.3518680036067963e-01" purity="7.1561664342880249e-02" nType="0">
          <Node pos="l" depth="2" NCoef="0" IVar="14" Cut="2.4210173034667969e+02" cType="1" res="-2.2961287200450897e-01" rms="1.8337167799472809e-01" purity="3.8699146360158920e-02" nType="0">
            <Node pos="l" depth="3" NCoef="0" IVar="3" Cut="3.3468292236328125e+01" cType="1" res="-2.4388112127780914e-01" rms="1.0210275650024414e-01" purity="1.0888788849115372e-02" nType="0">
              <Node pos="l" depth="4" NCoef="0" IVar="-1" Cut="0.0000000000000000e+00" cType="1" res="-6.7229904234409332e-02" rms="1.5912072733044624e-02" purity="0.0000000000000000e+00" nType="-99"/>
              <Node pos="r" depth="4" NCoef="0" IVar="-1" Cut="0.0000000000000000e+00" cType="1" res="-6.1403613537549973e-02" rms="1.4241459965705872e-01" purity="2.1716982126235962e-02" nType="-99"/>
            </Node>
            <Node pos="r" depth="3" NCoef="0" IVar="17" Cut="2.3333332538604736e+00" cType="1" res="-1.8113145232200623e-01" rms="3.3077773451805115e-01" purity="1.3319472968578339e-01" nType="0">
              <Node pos="l" depth="4" NCoef="0" IVar="-1" Cut="0.0000000000000000e+00" cType="1" res="-6.3992224633693695e-02" rms="1.5385076403617859e-01" purity="2.4953132495284081e-02" nType="-99"/>
              <Node pos="r" depth="4" NCoef="0" IVar="-1" Cut="0.0000000000000000e+00" cType="1" res="-2.6401119306683540e-02" rms="4.1110426187515259e-01" purity="2.1991850435733795e-01" nType="-99"/>
            </Node>
          </Node>
          <Node pos="r" depth="2" NCoef="0" IVar="-1" Cut="0.0000000000000000e+00" cType="1" res="-1.5554456971585751e-02" rms="4.6864482760429382e-01" purity="3.5284873843193054e-01" nType="-99"/>
        </Node>
        <Node pos="r" depth="1" NCoef="0" IVar="11" Cut="1.8021593093872070e+00" cType="1" res="9.2963039875030518e-02" rms="4.1098910570144653e-01" purity="6.9345629215240479e-01" nType="0">
          <Node pos="l" depth="2" NCoef="0" IVar="18" Cut="1.0149996948242188e+02" cType="1" res="1.1839505285024643e-01" rms="3.9897677302360535e-01" purity="7.2708630561828613e-01" nType="0">
            <Node pos="l" depth="3" NCoef="0" IVar="18" Cut="8.4079254150390625e+01" cType="1" res="5.2989177405834198e-02" rms="4.3160730600357056e-01" purity="6.3009142875671387e-01" nType="0">
              <Node pos="l" depth="4" NCoef="0" IVar="-1" Cut="0.0000000000000000e+00" cType="1" res="4.5994076877832413e-02" rms="3.5662144422531128e-01" purity="8.3137714862823486e-01" nType="-99"/>
              <Node pos="r" depth="4" NCoef="0" IVar="-1" Cut="0.0000000000000000e+00" cType="1" res="-3.2820880413055420e-02" rms="4.3158274888992310e-01" purity="3.6726057529449463e-01" nType="-99"/>
            </Node>
            <Node pos="r" depth="3" NCoef="0" IVar="16" Cut="2.6666667461395264e+00" cType="1" res="1.8198822438716888e-01" rms="3.5302656888961792e-01" purity="8.2139301300048828e-01" nType="0">
              <Node pos="l" depth="4" NCoef="0" IVar="-1" Cut="0.0000000000000000e+00" cType="1" res="7.6567283831536770e-03" rms="4.3390256166458130e-01" purity="6.3013106584548950e-01" nType="-99"/>
              <Node pos="r" depth="4" NCoef="0" IVar="-1" Cut="0.0000000000000000e+00" cType="1" res="4.6324145048856735e-02" rms="3.3131471276283264e-01" purity="8.5340207815170288e-01" nType="-99"/>
            </Node>
          </Node>
          <Node pos="r" depth="2" NCoef="0" IVar="16" Cut="5.3333334922790527e+00" cType="1" res="-1.8578842282295227e-01" rms="4.3676406145095825e-01" purity="3.2484871149063110e-01" nType="0">
            <Node pos="l" depth="3" NCoef="0" IVar="-1" Cut="0.0000000000000000e+00" cType="1" res="-6.9409705698490143e-02" rms="3.3552482724189758e-01" purity="1.5286639332771301e-01" nType="-99"/>
            <Node pos="r" depth="3" NCoef="0" IVar="-1" Cut="0.0000000000000000e+00" cType="1" res="-1.0556824505329132e-02" rms="4.7056686878204346e-01" purity="4.7685202956199646e-01" nType="-99"/>
          </Node>
        </Node>
      </Node>
    </BinaryTree>
    <BinaryTree type="DecisionTree" boostWeight="1.0000000000000000e+00" itree="8">
      <Node pos="s" depth="0" NCoef="0" IVar="14" Cut="3.1448254394531250e+02" cType="1" res="-3.4781929571181536e-03" rms="3.8353505730628967e-01" purity="4.9333474040031433e-01" nType="0">
        <Node pos="l" depth="1" NCoef="0" IVar="16" Cut="4.6666665077209473e+00" cType="1" res="-1.8345178663730621e-01" rms="2.4591638147830963e-01" purity="8.1807821989059448e-02" nType="0">
          <Node pos="l" depth="2" NCoef="0" IVar="17" Cut="3.3333332538604736e+00" cType="1" res="-2.0548796653747559e-01" rms="1.8696427345275879e-01" purity="3.9715241640806198e-02" nType="0">
            <Node pos="l" depth="3" NCoef="0" IVar="6" Cut="1.5695945024490356e+00" cType="1" res="-2.1600329875946045e-01" rms="1.4504130184650421e-01" purity="2.2679904475808144e-02" nType="0">
              <Node pos="l" depth="4" NCoef="0" IVar="-1" Cut="0.0000000000000000e+00" cType="1" res="-4.3959982693195343e-02" rms="2.7682042121887207e-01" purity="8.8425882160663605e-02" nType="-99"/>
              <Node pos="r" depth="4" NCoef="0" IVar="-1" Cut="0.0000000000000000e+00" cType="1" res="-6.1733331531286240e-02" rms="1.1706949770450592e-01" purity="1.4428019523620605e-02" nType="-99"/>
            </Node>
            <Node pos="r" depth="3" NCoef="0" IVar="-1" Cut="0.0000000000000000e+00" cType="1" res="-3.5512868314981461e-02" rms="3.3718582987785339e-01" purity="1.4175076782703400e-01" nType="-99"/>
          </Node>
          <Node pos="r" depth="2" NCoef="0" IVar="-1" Cut="0.0000000000000000e+00" cType="1" res="-1.7367182299494743e-03" rms="4.7822812199592590e-01" purity="4.1620233654975891e-01" nType="-99"/>
        </Node>
        <Node pos="r" depth="1" NCoef="0" IVar="7" Cut="1.4960072040557861e+00" cType="1" res="8.1894211471080780e-02" rms="4.0686246752738953e-01" purity="6.8854689598083496e-01" nType="0">
          <Node pos="l" depth="2" NCoef="0" IVar="12" Cut="1.8333016335964203e-01" cType="1" res="-3.1551770865917206e-02" rms="4.3970111012458801e-01" purity="4.8414447903633118e-01" nType="0">
            <Node pos="l" depth="3" NCoef="0" IVar="12" Cut="8.7275141850113869e-03" cType="1" res="-1.0387397557497025e-01" rms="4.1818305850028992e-01" purity="3.6668184399604797e-01" nType="0">
              <Node pos="l" depth="4" NCoef="0" IVar="-1" Cut="0.0000000000000000e+00" cType="1" res="-5.7550150901079178e-02" rms="3.1421840190887451e-01" purity="1.4809563755989075e-01" nType="-99"/>
              <Node pos="r" depth="4" NCoef="0" IVar="-1" Cut="0.0000000000000000e+00" cType="1" res="2.0283764228224754e-02" rms="4.3706563115119934e-01" purity="6.2730085849761963e-01" nType="-99"/>
            </Node>
            <Node pos="r" depth="3" NCoef="0" IVar="13" Cut="3.1352708339691162e+00" cType="1" res="6.5292067825794220e-02" rms="4.4908067584037781e-01" purity="6.4143413305282593e-01" nType="0">
              <Node pos="l" depth="4" NCoef="0" IVar="-1" Cut="0.0000000000000000e+00" cType="1" res="2.6828026399016380e-02" rms="4.2083284258842468e-01" purity="7.2661840915679932e-01" nType="-99"/>
              <Node pos="r" depth="4" NCoef="0" IVar="-1" Cut="0.0000000000000000e+00" cType="1" res="-1.2149855494499207e-02" rms="4.7842583060264587e-01" purity="4.6703708171844482e-01" nType="-99"/>
            </Node>
          </Node>
          <Node pos="r" depth="2" NCoef="0" IVar="14" Cut="5.9145855712890625e+02" cType="1" res="1.2900242209434509e-01" rms="3.8266140222549438e-01" purity="7.7342462539672852e-01" nType="0">
            <Node pos="l" depth="3" NCoef="0" IVar="18" Cut="1.8065847778320312e+02" cType="1" res="5.8465909212827682e-02" rms="4.3593063950538635e-01" purity="6.5873181819915771e-01" nType="0">
              <Node pos="l" depth="4" NCoef="0" IVar="-1" Cut="0.0000000000000000e+00" cType="1" res="2.1714240312576294e-02" rms="4.2158302664756775e-01" purity="7.0383852720260620e-01" nType="-99"/>
              <Node pos="r" depth="4" NCoef="0" IVar="-1" Cut="0.0000000000000000e+00" cType="1" res="-3.8452353328466415e-02" rms="4.3902140855789185e-01" purity="4.0863537788391113e-01" nType="-99"/>
            </Node>
            <Node pos="r" depth="3" NCoef="0" IVar="10" Cut="2.5431902408599854e+00" cType="1" res="1.9521163403987885e-01" rms="3.1055641174316406e-01" purity="8.8108116388320923e-01" nType="0">
              <Node pos="l" depth="4" NCoef="0" IVar="-1" Cut="0.0000000000000000e+00" cType="1" res="3.1474165618419647e-02" rms="3.8485649228096008e-01" purity="8.0105680227279663e-01" nType="-99"/>
              <Node pos="r" depth="4" NCoef="0" IVar="-1" Cut="0.0000000000000000e+00" cType="1" res="5.1087722182273865e-02" rms="2.7765160799026489e-01" purity="9.0880370140075684e-01" nType="-99"/>
            </Node>
          </Node>
        </Node>
      </Node>
    </BinaryTree>
    <BinaryTree type="DecisionTree" boostWeight="1.0000000000000000e+00" itree="9">
      <Node pos="s" depth="0" NCoef="0" IVar="14" Cut="3.9032894897460938e+02" cType="1" res="4.6748663298785686e-03" rms="3.7480038404464722e-01" purity="5.0613260269165039e-01" nType="0">
        <Node pos="l" depth="1" NCoef="0" IVar="16" Cut="3.3333332538604736e+00" cType="1" res="-1.3893447816371918e-01" rms="3.0914294719696045e-01" purity="1.6403101384639740e-01" nType="0">
          <Node pos="l" depth="2" NCoef="0" IVar="13" Cut="2.1697492599487305e+00" cType="1" res="-1.8722629547119141e-01" rms="2.0909649133682251e-01" purity="5.8496631681919098e-02" nType="0">
            <Node pos="l" depth="3" NCoef="0" IVar="14" Cut="2.0444451904296875e+02" cType="1" res="-2.1563044190406799e-01" rms="7.9250574111938477e-02" purity="5.3534400649368763e-03" nType="0">
              <Node pos="l" depth="4" NCoef="0" IVar="-1" Cut="0.0000000000000000e+00" cType="1" res="-6.2874034047126770e-02" rms="8.7389480322599411e-03" purity="0.0000000000000000e+00" nType="-99"/>
              <Node pos="r" depth="4" NCoef="0" IVar="-1" Cut="0.0000000000000000e+00" cType="1" res="-6.5466009080410004e-02" rms="1.6394089162349701e-01" purity="2.4993728846311569e-02" nType="-99"/>
            </Node>
            <Node pos="r" depth="3" NCoef="0" IVar="17" Cut="3.3333332538604736e+00" cType="1" res="-1.6151869297027588e-01" rms="2.7607342600822449e-01" purity="1.0659472644329071e-01" nType="0">
              <Node pos="l" depth="4" NCoef="0" IVar="-1" Cut="0.0000000000000000e+00" cType="1" res="-5.0617527216672897e-02" rms="2.2707755863666534e-01" purity="6.5926149487495422e-02" nType="-99"/>
              <Node pos="r" depth="4" NCoef="0" IVar="-1" Cut="0.0000000000000000e+00" cType="1" res="-1.5776976943016052e-02" rms="4.1147014498710632e-01" purity="2.7822846174240112e-01" nType="-99"/>
            </Node>
          </Node>
          <Node pos="r" depth="2" NCoef="0" IVar="11" Cut="1.4353835582733154e+00" cType="1" res="-3.2169610261917114e-02" rms="4.4004744291305542e-01" purity="3.9734926819801331e-01" nType="0">
            <Node pos="l" depth="3" NCoef="0" IVar="8" Cut="8.7300950288772583e-01" cType="1" res="2.7682784944772720e-02" rms="4.4945880770683289e-01" purity="4.7788444161415100e-01" nType="0">
              <Node pos="l" depth="4" NCoef="0" IVar="-1" Cut="0.0000000000000000e+00" cType="1" res="-2.0119568333029747e-02" rms="4.2406237125396729e-01" purity="3.4949445724487305e-01" nType="-99"/>
              <Node pos="r" depth="4" NCoef="0" IVar="-1" Cut="0.0000000000000000e+00" cType="1" res="2.5752777233719826e-02" rms="4.4706672430038452e-01" purity="5.7607996463775635e-01" nType="-99"/>
            </Node>
            <Node pos="r" depth="3" NCoef="0" IVar="-1" Cut="0.0000000000000000e+00" cType="1" res="-4.1656453162431717e-02" rms="3.7427741289138794e-01" purity="1.9256578385829926e-01" nType="-99"/>
          </Node>
        </Node>
        <Node pos="r" depth="1" NCoef="0" IVar="7" Cut="1.6456115245819092e+00" cType="1" res="1.0172986984252930e-01" rms="3.8401341438293457e-01" purity="7.3733383417129517e-01" nType="0">
          <Node pos="l" depth="2" NCoef="0" IVar="3" Cut="4.6843894958496094e+01" cType="1" res="-8.3658198127523065e-04" rms="4.3131357431411743e-01" purity="5.3348129987716675e-01" nType="0">
            <Node pos="l" depth="3" NCoef="0" IVar="11" Cut="1.0927361249923706e+00" cType="1" res="6.9006055593490601e-02" rms="4.1822847723960876e-01" purity="6.5609502792358398e-01" nType="0">
              <Node pos="l" depth="4" NCoef="0" IVar="-1" Cut="0.0000000000000000e+00" cType="1" res="2.4582011625170708e-02" rms="3.9651101827621460e-01" purity="7.2035795450210571e-01" nType="-99"/>
              <Node pos="r" depth="4" NCoef="0" IVar="-1" Cut="0.0000000000000000e+00" cType="1" res="-8.7742349132895470e-03" rms="4.5101720094680786e-01" purity="4.9071651697158813e-01" nType="-99"/>
            </Node>
            <Node pos="r" depth="3" NCoef="0" IVar="7" Cut="3.9182850718498230e-01" cType="1" res="-9.3109972774982452e-02" rms="4.3099755048751831e-01" purity="3.7148886919021606e-01" nType="0">
              <Node pos="l" depth="4" NCoef="0" IVar="-1" Cut="0.0000000000000000e+00" cType="1" res="7.0135677233338356e-03" rms="4.5601963996887207e-01" purity="4.9461805820465088e-01" nType="-99"/>
              <Node pos="r" depth="4" NCoef="0" IVar="-1" Cut="0.0000000000000000e+00" cType="1" res="-3.3350575715303421e-02" rms="4.0262436866760254e-01" purity="3.0871027708053589e-01" nType="-99"/>
            </Node>
          </Node>
          <Node pos="r" depth="2" NCoef="0" IVar="13" Cut="3.4302530288696289e+00" cType="1" res="1.4955039322376251e-01" rms="3.4970581531524658e-01" purity="8.3237797021865845e-01" nType="0">
            <Node pos="l" depth="3" NCoef="0" IVar="14" Cut="5.2301367187500000e+02" cType="1" res="1.6536860167980194e-01" rms="3.3396139740943909e-01" purity="8.5493302345275879e-01" nType="0">
              <Node pos="l" depth="4" NCoef="0" IVar="-1" Cut="0.0000000000000000e+00" cType="1" res="2.3791985586285591e-02" rms="4.1401427984237671e-01" purity="7.4660372734069824e-01" nType="-99"/>
              <Node pos="r" depth="4" NCoef="0" IVar="-1" Cut="0.0000000000000000e+00" cType="1" res="4.5387808233499527e-02" rms="2.9711782932281494e-01" purity="8.9412343502044678e-01" nType="-99"/>
            </Node>
            <Node pos="r" depth="3" NCoef="0" IVar="-1" Cut="0.0000000000000000e+00" cType="1" res="-1.3197554275393486e-02" rms="4.6696895360946655e-01" purity="5.3125751018524170e-01" nType="-99"/>
          </Node>
        </Node>
      </Node>
    </BinaryTree>
    <BinaryTree type="DecisionTree" boostWeight="1.0000000000000000e+00" itree="10">
      <Node pos="s" depth="0" NCoef="0" IVar="14" Cut="3.9032894897460938e+02" cType="1" res="1.2823455035686493e-03" rms="3.7132784724235535e-01" purity="4.9833488464355469e-01" nType="0">
        <Node pos="l" depth="1" NCoef="0" IVar="14" Cut="2.6021707153320312e+02" cType="1" res="-1.2210089713335037e-01" rms="3.0804762244224548e-01" purity="1.6965909302234650e-01" nType="0">
          <Node pos="l" depth="2" NCoef="0" IVar="6" Cut="2.4066011905670166e+00" cType="1" res="-1.7533020675182343e-01" rms="1.6560213267803192e-01" purity="3.2031849026679993e-02" nType="0">
            <Node pos="l" depth="3" NCoef="0" IVar="5" Cut="4.9347835540771484e+01" cType="1" res="-1.4153455197811127e-01" rms="2.5947082042694092e-01" purity="8.4205105900764465e-02" nType="0">
              <Node pos="l" depth="4" NCoef="0" IVar="-1" Cut="0.0000000000000000e+00" cType="1" res="-5.9699200093746185e-02" rms="1.1627940833568573e-01" purity="1.2262815609574318e-02" nType="-99"/>
              <Node pos="r" depth="4" NCoef="0" IVar="-1" Cut="0.0000000000000000e+00" cType="1" res="-2.6166165247559547e-02" rms="3.3325356245040894e-01" purity="1.4892239868640900e-01" nType="-99"/>
            </Node>
            <Node pos="r" depth="3" NCoef="0" IVar="5" Cut="4.8775859832763672e+01" cType="1" res="-1.9156225025653839e-01" rms="8.6299240589141846e-02" purity="6.9730496034026146e-03" nType="0">
              <Node pos="l" depth="4" NCoef="0" IVar="-1" Cut="0.0000000000000000e+00" cType="1" res="-5.9606611728668213e-02" rms="8.7660707533359528e-02" purity="7.4759307317435741e-03" nType="-99"/>
              <Node pos="r" depth="4" NCoef="0" IVar="-1" Cut="0.0000000000000000e+00" cType="1" res="-6.3552230596542358e-02" rms="7.7086314558982849e-02" purity="5.4946285672485828e-03" nType="-99"/>
            </Node>
          </Node>
          <Node pos="r" depth="2" NCoef="0" IVar="17" Cut="2.4285714626312256e+00" cType="1" res="-3.7208687514066696e-02" rms="4.3677288293838501e-01" purity="3.8915246725082397e-01" nType="0">
            <Node pos="l" depth="3" NCoef="0" IVar="2" Cut="7.7938713073730469e+01" cType="1" res="-1.3854989409446716e-01" rms="3.7907516956329346e-01" purity="2.5104138255119324e-01" nType="0">
              <Node pos="l" depth="4" NCoef="0" IVar="-1" Cut="0.0000000000000000e+00" cType="1" res="-4.8713814467191696e-03" rms="4.4265416264533997e-01" purity="4.1381129622459412e-01" nType="-99"/>
              <Node pos="r" depth="4" NCoef="0" IVar="-1" Cut="0.0000000000000000e+00" cType="1" res="-6.7812383174896240e-02" rms="2.0748664438724518e-01" purity="5.2275035530328751e-02" nType="-99"/>
            </Node>
            <Node pos="r" depth="3" NCoef="0" IVar="16" Cut="3.3333332538604736e+00" cType="1" res="2.5711547583341599e-02" rms="4.5788791775703430e-01" purity="4.7490224242210388e-01" nType="0">
              <Node pos="l" depth="4" NCoef="0" IVar="-1" Cut="0.0000000000000000e+00" cType="1" res="-1.7314141616225243e-02" rms="4.4190576672554016e-01" purity="2.8669658303260803e-01" nType="-99"/>
              <Node pos="r" depth="4" NCoef="0" IVar="-1" Cut="0.0000000000000000e+00" cType="1" res="2.0165352150797844e-02" rms="4.5520943403244019e-01" purity="6.0447442531585693e-01" nType="-99"/>
            </Node>
          </Node>
        </Node>
        <Node pos="r" depth="1" NCoef="0" IVar="11" Cut="1.8844558000564575e+00" cType="1" res="8.7867416441440582e-02" rms="3.8713499903678894e-01" purity="7.2898542881011963e-01" nType="0">
          <Node pos="l" depth="2" NCoef="0" IVar="7" Cut="1.4959992170333862e+00" cType="1" res="1.0504813492298126e-01" rms="3.7677031755447388e-01" purity="7.5646466016769409e-01" nType="0">
            <Node pos="l" depth="3" NCoef="0" IVar="3" Cut="3.3658538818359375e+01" cType="1" res="2.8616776689887047e-02" rms="4.2533043026924133e-01" purity="5.6264078617095947e-01" nType="0">
              <Node pos="l" depth="4" NCoef="0" IVar="-1" Cut="0.0000000000000000e+00" cType="1" res="2.8544593602418900e-02" rms="3.8141337037086487e-01" purity="7.4966895580291748e-01" nType="-99"/>
              <Node pos="r" depth="4" NCoef="0" IVar="-1" Cut="0.0000000000000000e+00" cType="1" res="-7.2796023450791836e-03" rms="4.3904823064804077e-01" purity="4.4546562433242798e-01" nType="-99"/>
            </Node>
            <Node pos="r" depth="3" NCoef="0" IVar="10" Cut="2.3935682773590088e+00" cType="1" res="1.3684077560901642e-01" rms="3.4973323345184326e-01" purity="8.3708822727203369e-01" nType="0">
              <Node pos="l" depth="4" NCoef="0" IVar="-1" Cut="0.0000000000000000e+00" cType="1" res="1.3556179590523243e-02" rms="4.2598563432693481e-01" purity="7.2467678785324097e-01" nType="-99"/>
              <Node pos="r" depth="4" NCoef="0" IVar="-1" Cut="0.0000000000000000e+00" cType="1" res="4.0024060755968094e-02" rms="3.1721225380897522e-01" purity="8.7343847751617432e-01" nType="-99"/>
            </Node>
          </Node>
          <Node pos="r" depth="2" NCoef="0" IVar="-1" Cut="0.0000000000000000e+00" cType="1" res="-2.8758505359292030e-02" rms="4.4616916775703430e-01" purity="3.6781579256057739e-01" nType="-99"/>
        </Node>
      </Node>
    </BinaryTree>
    <BinaryTree type="DecisionTree" boostWeight="1.0000000000000000e+00" itree="11">
      <Node pos="s" depth="0" NCoef="0" IVar="14" Cut="3.0123275756835938e+02" cType="1" res="-1.2392969802021980e-04" rms="3.6718001961708069e-01" purity="4.9522995948791504e-01" nType="0">
        <Node pos="l" depth="1" NCoef="0" IVar="16" Cut="4.1904764175415039e+00" cType="1" res="-1.4638285338878632e-01" rms="2.1776209771633148e-01" purity="6.3641883432865143e-02" nType="0">
          <Node pos="l" depth="2" NCoef="0" IVar="14" Cut="2.5819750976562500e+02" cType="1" res="-1.5910166501998901e-01" rms="1.6587196290493011e-01" purity="3.1680393964052200e-02" nType="0">
            <Node pos="l" depth="3" NCoef="0" IVar="1" Cut="1.7494285888671875e+03" cType="1" res="-1.6804638504981995e-01" rms="1.0772320628166199e-01" purity="1.2246345169842243e-02" nType="0">
              <Node pos="l" depth="4" NCoef="0" IVar="-1" Cut="0.0000000000000000e+00" cType="1" res="-5.3415749222040176e-02" rms="1.4247302711009979e-01" purity="2.2055326029658318e-02" nType="-99"/>
              <Node pos="r" depth="4" NCoef="0" IVar="-1" Cut="0.0000000000000000e+00" cType="1" res="-6.0079462826251984e-02" rms="6.2271270900964737e-02" purity="3.7988221738487482e-03" nType="-99"/>
            </Node>
            <Node pos="r" depth="3" NCoef="0" IVar="-1" Cut="0.0000000000000000e+00" cType="1" res="-2.7437694370746613e-02" rms="3.5143697261810303e-01" purity="1.5338848531246185e-01" nType="-99"/>
          </Node>
          <Node pos="r" depth="2" NCoef="0" IVar="-1" Cut="0.0000000000000000e+00" cType="1" res="-5.6877788156270981e-03" rms="4.6796941757202148e-01" purity="3.6458769440650940e-01" nType="-99"/>
        </Node>
        <Node pos="r" depth="1" NCoef="0" IVar="18" Cut="1.0146752166748047e+02" cType="1" res="6.3392333686351776e-02" rms="3.9931544661521912e-01" purity="6.8265688419342041e-01" nType="0">
          <Node pos="l" depth="2" NCoef="0" IVar="18" Cut="8.4044105529785156e+01" cType="1" res="2.3953355848789215e-03" rms="4.2332699894905090e-01" purity="5.7961565256118774e-01" nType="0">
            <Node pos="l" depth="3" NCoef="0" IVar="13" Cut="3.1799170970916748e+00" cType="1" res="1.4617654681205750e-01" rms="3.8250061869621277e-01" purity="7.8321647644042969e-01" nType="0">
              <Node pos="l" depth="4" NCoef="0" IVar="-1" Cut="0.0000000000000000e+00" cType="1" res="3.9331216365098953e-02" rms="3.5937452316284180e-01" purity="8.2186889648437500e-01" nType="-99"/>
              <Node pos="r" depth="4" NCoef="0" IVar="-1" Cut="0.0000000000000000e+00" cType="1" res="8.6698280647397041e-03" rms="4.5553833246231079e-01" purity="6.1451715230941772e-01" nType="-99"/>
            </Node>
            <Node pos="r" depth="3" NCoef="0" IVar="18" Cut="9.4827903747558594e+01" cType="1" res="-1.5291155874729156e-01" rms="4.1023352742195129e-01" purity="3.5969394445419312e-01" nType="0">
              <Node pos="l" depth="4" NCoef="0" IVar="-1" Cut="0.0000000000000000e+00" cType="1" res="-4.9580834805965424e-02" rms="3.8459879159927368e-01" purity="2.6408353447914124e-01" nType="-99"/>
              <Node pos="r" depth="4" NCoef="0" IVar="-1" Cut="0.0000000000000000e+00" cType="1" res="2.1589085459709167e-02" rms="3.9275670051574707e-01" purity="6.7654222249984741e-01" nType="-99"/>
            </Node>
          </Node>
          <Node pos="r" depth="2" NCoef="0" IVar="18" Cut="1.8856896972656250e+02" cType="1" res="1.2426296621561050e-01" rms="3.6376181244850159e-01" purity="7.8548473119735718e-01" nType="0">
            <Node pos="l" depth="3" NCoef="0" IVar="10" Cut="2.5431716442108154e+00" cType="1" res="1.6933119297027588e-01" rms="3.4734535217285156e-01" purity="8.2211172580718994e-01" nType="0">
              <Node pos="l" depth="4" NCoef="0" IVar="-1" Cut="0.0000000000000000e+00" cType="1" res="2.8657499700784683e-02" rms="3.9058911800384521e-01" purity="7.5033390522003174e-01" nType="-99"/>
              <Node pos="r" depth="4" NCoef="0" IVar="-1" Cut="0.0000000000000000e+00" cType="1" res="4.7665953636169434e-02" rms="3.1396386027336121e-01" purity="8.6748862266540527e-01" nType="-99"/>
            </Node>
            <Node pos="r" depth="3" NCoef="0" IVar="14" Cut="5.4723992919921875e+02" cType="1" res="5.3659450262784958e-02" rms="3.7741756439208984e-01" purity="7.2810518741607666e-01" nType="0">
              <Node pos="l" depth="4" NCoef="0" IVar="-1" Cut="0.0000000000000000e+00" cType="1" res="-4.1397854685783386e-02" rms="4.1255983710289001e-01" purity="3.3443436026573181e-01" nType="-99"/>
              <Node pos="r" depth="4" NCoef="0" IVar="-1" Cut="0.0000000000000000e+00" cType="1" res="3.3680494874715805e-02" rms="3.3146908879280090e-01" purity="8.5131454467773438e-01" nType="-99"/>
            </Node>
          </Node>
        </Node>
      </Node>
    </BinaryTree>
    <BinaryTree type="DecisionTree" boostWeight="1.0000000000000000e+00" itree="12">
      <Node pos="s" depth="0" NCoef="0" IVar="14" Cut="3.9032894897460938e+02" cType="1" res="-3.9461734704673290e-03" rms="3.5779497027397156e-01" purity="4.9289599061012268e-01" nType="0">
        <Node pos="l" depth="1" NCoef="0" IVar="16" Cut="4.6666665077209473e+00" cType="1" res="-1.0257047414779663e-01" rms="2.9542440176010132e-01" purity="1.6926544904708862e-01" nType="0">
          <Node pos="l" depth="2" NCoef="0" IVar="17" Cut="3.2857143878936768e+00" cType="1" res="-1.3062824308872223e-01" rms="2.3828266561031342e-01" purity="9.0052954852581024e-02" nType="0">
            <Node pos="l" depth="3" NCoef="0" IVar="8" Cut="8.9970529079437256e-01" cType="1" res="-1.4827415347099304e-01" rms="1.9160357117652893e-01" purity="5.0104290246963501e-02" nType="0">
              <Node pos="l" depth="4" NCoef="0" IVar="-1" Cut="0.0000000000000000e+00" cType="1" res="-5.4657947272062302e-02" rms="1.5538062155246735e-01" purity="3.5035483539104462e-02" nType="-99"/>
              <Node pos="r" depth="4" NCoef="0" IVar="-1" Cut="0.0000000000000000e+00" cType="1" res="-4.4040340930223465e-02" rms="2.1723973751068115e-01" purity="6.3385955989360809e-02" nType="-99"/>
            </Node>
            <Node pos="r" depth="3" NCoef="0" IVar="14" Cut="2.6018618774414062e+02" cType="1" res="-4.9793310463428497e-02" rms="3.7515646219253540e-01" purity="2.7305552363395691e-01" nType="0">
              <Node pos="l" depth="4" NCoef="0" IVar="-1" Cut="0.0000000000000000e+00" cType="1" res="-4.5853044837713242e-02" rms="2.1347616612911224e-01" purity="4.9831155687570572e-02" nType="-99"/>
              <Node pos="r" depth="4" NCoef="0" IVar="-1" Cut="0.0000000000000000e+00" cType="1" res="7.1256123483181000e-03" rms="4.6139109134674072e-01" purity="4.7622925043106079e-01" nType="-99"/>
            </Node>
          </Node>
          <Node pos="r" depth="2" NCoef="0" IVar="11" Cut="1.0214996337890625e+00" cType="1" res="2.3118469864130020e-02" rms="4.5229074358940125e-01" purity="5.2410966157913208e-01" nType="0">
            <Node pos="l" depth="3" NCoef="0" IVar="-1" Cut="0.0000000000000000e+00" cType="1" res="2.6024805381894112e-02" rms="4.3587321043014526e-01" purity="6.5816020965576172e-01" nType="-99"/>
            <Node pos="r" depth="3" NCoef="0" IVar="-1" Cut="0.0000000000000000e+00" cType="1" res="-3.2261557877063751e-02" rms="4.2611625790596008e-01" purity="2.8881362080574036e-01" nType="-99"/>
          </Node>
        </Node>
        <Node pos="r" depth="1" NCoef="0" IVar="18" Cut="9.8968612670898438e+01" cType="1" res="6.6423423588275909e-02" rms="3.8104444742202759e-01" purity="7.2381013631820679e-01" nType="0">
          <Node pos="l" depth="2" NCoef="0" IVar="18" Cut="8.6262962341308594e+01" cType="1" res="1.4328743331134319e-02" rms="4.0923944115638733e-01" purity="6.1840325593948364e-01" nType="0">
            <Node pos="l" depth="3" NCoef="0" IVar="0" Cut="6.1982429504394531e+01" cType="1" res="1.4006640017032623e-01" rms="3.6079543828964233e-01" purity="8.1335037946701050e-01" nType="0">
              <Node pos="l" depth="4" NCoef="0" IVar="-1" Cut="0.0000000000000000e+00" cType="1" res="4.4228211045265198e-02" rms="3.1724217534065247e-01" purity="8.5901176929473877e-01" nType="-99"/>
              <Node pos="r" depth="4" NCoef="0" IVar="-1" Cut="0.0000000000000000e+00" cType="1" res="1.8791811540722847e-02" rms="4.0158629417419434e-01" purity="7.5493234395980835e-01" nType="-99"/>
            </Node>
            <Node pos="r" depth="3" NCoef="0" IVar="12" Cut="1.8813429772853851e-01" cType="1" res="-1.6736206412315369e-01" rms="4.0684598684310913e-01" purity="3.3670485019683838e-01" nType="0">
              <Node pos="l" depth="4" NCoef="0" IVar="-1" Cut="0.0000000000000000e+00" cType="1" res="-6.0724962502717972e-02" rms="3.1456181406974792e-01" purity="1.4616031944751740e-01" nType="-99"/>
              <Node pos="r" depth="4" NCoef="0" IVar="-1" Cut="0.0000000000000000e+00" cType="1" res="-1.2250640429556370e-02" rms="4.5806330442428589e-01" purity="5.3273624181747437e-01" nType="-99"/>
            </Node>
          </Node>
          <Node pos="r" depth="2" NCoef="0" IVar="8" Cut="1.3533997535705566e+00" cType="1" res="1.1403981596231461e-01" rms="3.4652617573738098e-01" purity="8.2015579938888550e-01" nType="0">
            <Node pos="l" depth="3" NCoef="0" IVar="6" Cut="2.6045992374420166e+00" cType="1" res="1.4127159118652344e-01" rms="3.1966307759284973e-01" purity="8.5860580205917358e-01" nType="0">
              <Node pos="l" depth="4" NCoef="0" IVar="-1" Cut="0.0000000000000000e+00" cType="1" res="2.3415278643369675e-02" rms="3.9735832810401917e-01" purity="7.5562447309494019e-01" nType="-99"/>
              <Node pos="r" depth="4" NCoef="0" IVar="-1" Cut="0.0000000000000000e+00" cType="1" res="4.4057711958885193e-02" rms="2.6889947056770325e-01" purity="9.1116642951965332e-01" nType="-99"/>
            </Node>
            <Node pos="r" depth="3" NCoef="0" IVar="-1" Cut="0.0000000000000000e+00" cType="1" res="-8.9833384845405817e-04" rms="4.2477181553840637e-01" purity="6.5375304222106934e-01" nType="-99"/>
          </Node>
        </Node>
      </Node>
    </BinaryTree>
    <BinaryTree type="DecisionTree" boostWeight="1.0000000000000000e+00" itree="13">
      <Node pos="s" depth="0" NCoef="0" IVar="16" Cut="3.0476191043853760e+00" cType="1" res="6.0605104081332684e-03" rms="3.5417848825454712e-01" purity="5.0580674409866333e-01" nType="0">
        <Node pos="l" depth="1" NCoef="0" IVar="4" Cut="2.3695553588867188e+02" cType="1" res="-8.5966579616069794e-02" rms="2.8503242135047913e-01" purity="2.3870274424552917e-01" nType="0">
          <Node pos="l" depth="2" NCoef="0" IVar="17" Cut="4.4761905670166016e+00" cType="1" res="-1.1640148609876633e-01" rms="2.5788983702659607e-01" purity="1.3887043297290802e-01" nType="0">
            <Node pos="l" depth="3" NCoef="0" IVar="16" Cut="2.1428570747375488e+00" cType="1" res="-1.2907277047634125e-01" rms="2.3286917805671692e-01" purity="1.0439481586217880e-01" nType="0">
              <Node pos="l" depth="4" NCoef="0" IVar="-1" Cut="0.0000000000000000e+00" cType="1" res="-5.3054839372634888e-02" rms="1.7062632739543915e-01" purity="4.1206356137990952e-02" nType="-99"/>
              <Node pos="r" depth="4" NCoef="0" IVar="-1" Cut="0.0000000000000000e+00" cType="1" res="-2.5490561500191689e-02" rms="3.2669988274574280e-01" purity="2.4228318035602570e-01" nType="-99"/>
            </Node>
            <Node pos="r" depth="3" NCoef="0" IVar="-1" Cut="0.0000000000000000e+00" cType="1" res="1.8309539882466197e-03" rms="4.1198280453681946e-01" purity="4.7627457976341248e-01" nType="-99"/>
          </Node>
          <Node pos="r" depth="2" NCoef="0" IVar="-1" Cut="0.0000000000000000e+00" cType="1" res="2.0594961941242218e-02" rms="3.5901427268981934e-01" purity="7.8001368045806885e-01" nType="-99"/>
        </Node>
        <Node pos="r" depth="1" NCoef="0" IVar="18" Cut="9.8976593017578125e+01" cType="1" res="6.5394200384616852e-02" rms="3.8073414564132690e-01" purity="6.7801976203918457e-01" nType="0">
          <Node pos="l" depth="2" NCoef="0" IVar="18" Cut="8.6270683288574219e+01" cType="1" res="8.3473511040210724e-03" rms="4.0595108270645142e-01" purity="5.5833470821380615e-01" nType="0">
            <Node pos="l" depth="3" NCoef="0" IVar="0" Cut="1.0551749420166016e+02" cType="1" res="1.2873651087284088e-01" rms="3.8035303354263306e-01" purity="7.4702036380767822e-01" nType="0">
              <Node pos="l" depth="4" NCoef="0" IVar="-1" Cut="0.0000000000000000e+00" cType="1" res="3.6064095795154572e-02" rms="3.6536979675292969e-01" purity="7.6640510559082031e-01" nType="-99"/>
              <Node pos="r" depth="4" NCoef="0" IVar="-1" Cut="0.0000000000000000e+00" cType="1" res="8.9358668774366379e-03" rms="4.2280745506286621e-01" purity="6.6980916261672974e-01" nType="-99"/>
            </Node>
            <Node pos="r" depth="3" NCoef="0" IVar="18" Cut="9.4135231018066406e+01" cType="1" res="-1.6900300979614258e-01" rms="3.7635520100593567e-01" purity="2.8037381172180176e-01" nType="0">
              <Node pos="l" depth="4" NCoef="0" IVar="-1" Cut="0.0000000000000000e+00" cType="1" res="-5.3457979112863541e-02" rms="3.3801332116127014e-01" purity="1.8921342492103577e-01" nType="-99"/>
              <Node pos="r" depth="4" NCoef="0" IVar="-1" Cut="0.0000000000000000e+00" cType="1" res="1.1586902663111687e-02" rms="4.1128620505332947e-01" purity="5.8329546451568604e-01" nType="-99"/>
            </Node>
          </Node>
          <Node pos="r" depth="2" NCoef="0" IVar="8" Cut="1.5789655447006226e+00" cType="1" res="1.3431249558925629e-01" rms="3.3512857556343079e-01" purity="8.2261133193969727e-01" nType="0">
            <Node pos="l" depth="3" NCoef="0" IVar="0" Cut="8.5177986145019531e+01" cType="1" res="1.5496082603931427e-01" rms="3.1270375847816467e-01" purity="8.6197441816329956e-01" nType="0">
              <Node pos="l" depth="4" NCoef="0" IVar="-1" Cut="0.0000000000000000e+00" cType="1" res="4.5858874917030334e-02" rms="2.8830626606941223e-01" purity="8.8292288780212402e-01" nType="-99"/>
              <Node pos="r" depth="4" NCoef="0" IVar="-1" Cut="0.0000000000000000e+00" cType="1" res="2.9210200533270836e-02" rms="3.5407838225364685e-01" purity="8.1892925500869751e-01" nType="-99"/>
            </Node>
            <Node pos="r" depth="3" NCoef="0" IVar="-1" Cut="0.0000000000000000e+00" cType="1" res="7.7817887067794800e-03" rms="4.1359892487525940e-01" purity="6.3015288114547729e-01" nType="-99"/>
          </Node>
        </Node>
      </Node>
    </BinaryTree>
    <BinaryTree type="DecisionTree" boostWeight="1.0000000000000000e+00" itree="14">
      <Node pos="s" depth="0" NCoef="0" IVar="16" Cut="3.0476191043853760e+00" cType="1" res="1.2427953770384192e-03" rms="3.4779611229896545e-01" purity="4.9828636646270752e-01" nType="0">
        <Node pos="l" depth="1" NCoef="0" IVar="14" Cut="4.5375021362304688e+02" cType="1" res="-8.3903528749942780e-02" rms="2.7559840679168701e-01" purity="2.2701752185821533e-01" nType="0">
          <Node pos="l" depth="2" NCoef="0" IVar="17" Cut="2.4761905670166016e+00" cType="1" res="-1.1755617707967758e-01" rms="2.2327971458435059e-01" purity="8.1370644271373749e-02" nType="0">
            <Node pos="l" depth="3" NCoef="0" IVar="14" Cut="2.5927487182617188e+02" cType="1" res="-1.4561733603477478e-01" rms="1.0510050505399704e-01" purity="1.3215739279985428e-02" nType="0">
              <Node pos="l" depth="4" NCoef="0" IVar="-1" Cut="0.0000000000000000e+00" cType="1" res="-5.6150168180465698e-02" rms="6.0225013643503189e-02" purity="3.6141225136816502e-03" nType="-99"/>
              <Node pos="r" depth="4" NCoef="0" IVar="-1" Cut="0.0000000000000000e+00" cType="1" res="-6.1686631292104721e-02" rms="1.9238837063312531e-01" purity="5.4849691689014435e-02" nType="-99"/>
            </Node>
            <Node pos="r" depth="3" NCoef="0" IVar="16" Cut="2.1428570747375488e+00" cType="1" res="-8.4878996014595032e-02" rms="3.0505833029747009e-01" purity="1.6073693335056305e-01" nType="0">
              <Node pos="l" depth="4" NCoef="0" IVar="-1" Cut="0.0000000000000000e+00" cType="1" res="-4.5602779835462570e-02" rms="2.2371561825275421e-01" purity="6.6060289740562439e-02" nType="-99"/>
              <Node pos="r" depth="4" NCoef="0" IVar="-1" Cut="0.0000000000000000e+00" cType="1" res="5.4313451983034611e-04" rms="4.0030801296234131e-01" purity="3.3436009287834167e-01" nType="-99"/>
            </Node>
          </Node>
          <Node pos="r" depth="2" NCoef="0" IVar="14" Cut="5.8342578125000000e+02" cType="1" res="2.9018783941864967e-02" rms="3.8338533043861389e-01" purity="7.1573925018310547e-01" nType="0">
            <Node pos="l" depth="3" NCoef="0" IVar="-1" Cut="0.0000000000000000e+00" cType="1" res="-2.5038043037056923e-02" rms="4.3405053019523621e-01" purity="5.0819760560989380e-01" nType="-99"/>
            <Node pos="r" depth="3" NCoef="0" IVar="-1" Cut="0.0000000000000000e+00" cType="1" res="2.2473996505141258e-02" rms="3.4588086605072021e-01" purity="7.9923653602600098e-01" nType="-99"/>
          </Node>
        </Node>
        <Node pos="r" depth="1" NCoef="0" IVar="11" Cut="1.4984029531478882e+00" cType="1" res="5.6206345558166504e-02" rms="3.7724590301513672e-01" purity="6.7339551448822021e-01" nType="0">
          <Node pos="l" depth="2" NCoef="0" IVar="7" Cut="1.4960107803344727e+00" cType="1" res="8.1195265054702759e-02" rms="3.6365556716918945e-01" purity="7.2638696432113647e-01" nType="0">
            <Node pos="l" depth="3" NCoef="0" IVar="12" Cut="1.9555477797985077e-01" cType="1" res="2.4792114272713661e-02" rms="4.0718171000480652e-01" purity="5.5703824758529663e-01" nType="0">
              <Node pos="l" depth="4" NCoef="0" IVar="-1" Cut="0.0000000000000000e+00" cType="1" res="-8.5902297869324684e-03" rms="3.9652100205421448e-01" purity="4.2684724926948547e-01" nType="-99"/>
              <Node pos="r" depth="4" NCoef="0" IVar="-1" Cut="0.0000000000000000e+00" cType="1" res="2.3409336805343628e-02" rms="4.0674278140068054e-01" purity="7.2050356864929199e-01" nType="-99"/>
            </Node>
            <Node pos="r" depth="3" NCoef="0" IVar="10" Cut="2.5433790683746338e+00" cType="1" res="1.0558860749006271e-01" rms="3.4024113416671753e-01" purity="7.9962724447250366e-01" nType="0">
              <Node pos="l" depth="4" NCoef="0" IVar="-1" Cut="0.0000000000000000e+00" cType="1" res="1.4365353621542454e-02" rms="3.8691368699073792e-01" purity="7.0353072881698608e-01" nType="-99"/>
              <Node pos="r" depth="4" NCoef="0" IVar="-1" Cut="0.0000000000000000e+00" cType="1" res="3.6414567381143570e-02" rms="3.0793669819831848e-01" purity="8.5341757535934448e-01" nType="-99"/>
            </Node>
          </Node>
          <Node pos="r" depth="2" NCoef="0" IVar="1" Cut="2.1531428222656250e+03" cType="1" res="-6.3238747417926788e-02" rms="4.1616356372833252e-01" purity="4.2010048031806946e-01" nType="0">
            <Node pos="l" depth="3" NCoef="0" IVar="16" Cut="5.4285712242126465e+00" cType="1" res="-2.3830346763134003e-02" rms="4.2146137356758118e-01" purity="4.6835464239120483e-01" nType="0">
              <Node pos="l" depth="4" NCoef="0" IVar="-1" Cut="0.0000000000000000e+00" cType="1" res="-1.8891315907239914e-02" rms="4.0901511907577515e-01" purity="3.5361924767494202e-01" nType="-99"/>
              <Node pos="r" depth="4" NCoef="0" IVar="-1" Cut="0.0000000000000000e+00" cType="1" res="8.0194119364023209e-03" rms="4.2605420947074890e-01" purity="5.9046131372451782e-01" nType="-99"/>
            </Node>
            <Node pos="r" depth="3" NCoef="0" IVar="-1" Cut="0.0000000000000000e+00" cType="1" res="-3.7744984030723572e-02" rms="3.8351148366928101e-01" purity="2.9451262950897217e-01" nType="-99"/>
          </Node>
        </Node>
      </Node>
    </BinaryTree>
    <BinaryTree type="DecisionTree" boostWeight="1.0000000000000000e+00" itree="15">
      <Node pos="s" depth="0" NCoef="0" IVar="14" Cut="3.1448254394531250e+02" cType="1" res="-4.7575420467182994e-04" rms="3.4439712762832642e-01" purity="4.9821785092353821e-01" nType="0">
        <Node pos="l" depth="1" NCoef="0" IVar="14" Cut="2.6955206298828125e+02" cType="1" res="-9.8706595599651337e-02" rms="2.2912360727787018e-01" purity="7.4430659413337708e-02" nType="0">
          <Node pos="l" depth="2" NCoef="0" IVar="6" Cut="2.1389648914337158e+00" cType="1" res="-1.1121229827404022e-01" rms="1.7177522182464600e-01" purity="3.8115918636322021e-02" nType="0">
            <Node pos="l" depth="3" NCoef="0" IVar="8" Cut="6.0914862155914307e-01" cType="1" res="-6.2608487904071808e-02" rms="2.8774902224540710e-01" purity="1.1552172154188156e-01" nType="0">
              <Node pos="l" depth="4" NCoef="0" IVar="-1" Cut="0.0000000000000000e+00" cType="1" res="-4.9428809434175491e-02" rms="1.7516984045505524e-01" purity="3.2626211643218994e-02" nType="-99"/>
              <Node pos="r" depth="4" NCoef="0" IVar="-1" Cut="0.0000000000000000e+00" cType="1" res="-2.6130047626793385e-03" rms="3.4255430102348328e-01" purity="1.8134316802024841e-01" nType="-99"/>
            </Node>
            <Node pos="r" depth="3" NCoef="0" IVar="16" Cut="2.0952382087707520e+00" cType="1" res="-1.2753367424011230e-01" rms="1.0271864384412766e-01" purity="1.2122714892029762e-02" nType="0">
              <Node pos="l" depth="4" NCoef="0" IVar="-1" Cut="0.0000000000000000e+00" cType="1" res="-5.4635185748338699e-02" rms="6.9799765944480896e-02" purity="5.0340248271822929e-03" nType="-99"/>
              <Node pos="r" depth="4" NCoef="0" IVar="-1" Cut="0.0000000000000000e+00" cType="1" res="-5.4024480283260345e-02" rms="1.5517209470272064e-01" purity="3.0573951080441475e-02" nType="-99"/>
            </Node>
          </Node>
          <Node pos="r" depth="2" NCoef="0" IVar="9" Cut="2.7464823722839355e+00" cType="1" res="-3.4541651606559753e-02" rms="4.0686735510826111e-01" purity="2.6075634360313416e-01" nType="0">
            <Node pos="l" depth="3" NCoef="0" IVar="-1" Cut="0.0000000000000000e+00" cType="1" res="-2.0170567557215691e-02" rms="3.7751784920692444e-01" purity="2.2046582400798798e-01" nType="-99"/>
            <Node pos="r" depth="3" NCoef="0" IVar="-1" Cut="0.0000000000000000e+00" cType="1" res="2.2833135444670916e-03" rms="4.3070471286773682e-01" purity="3.0217343568801880e-01" nType="-99"/>
          </Node>
        </Node>
        <Node pos="r" depth="1" NCoef="0" IVar="13" Cut="3.4979088306427002e+00" cType="1" res="4.4648334383964539e-02" rms="3.7750530242919922e-01" purity="6.9289195537567139e-01" nType="0">
          <Node pos="l" depth="2" NCoef="0" IVar="12" Cut="1.5094941854476929e-01" cType="1" res="6.0827698558568954e-02" rms="3.6972439289093018e-01" purity="7.2259652614593506e-01" nType="0">
            <Node pos="l" depth="3" NCoef="0" IVar="12" Cut="1.4366496354341507e-02" cType="1" res="2.2826042026281357e-02" rms="3.7757000327110291e-01" purity="6.5367978811264038e-01" nType="0">
              <Node pos="l" depth="4" NCoef="0" IVar="-1" Cut="0.0000000000000000e+00" cType="1" res="-3.8443919271230698e-02" rms="4.0935397148132324e-01" purity="3.7380221486091614e-01" nType="-99"/>
              <Node pos="r" depth="4" NCoef="0" IVar="-1" Cut="0.0000000000000000e+00" cType="1" res="5.1433239132165909e-02" rms="2.4334524571895599e-01" purity="9.1022759675979614e-01" nType="-99"/>
            </Node>
            <Node pos="r" depth="3" NCoef="0" IVar="12" Cut="1.3010494709014893e+00" cType="1" res="1.0834107547998428e-01" rms="3.5398098826408386e-01" purity="8.0876290798187256e-01" nType="0">
              <Node pos="l" depth="4" NCoef="0" IVar="-1" Cut="0.0000000000000000e+00" cType="1" res="3.5626720637083054e-02" rms="3.2719567418098450e-01" purity="8.4975337982177734e-01" nType="-99"/>
              <Node pos="r" depth="4" NCoef="0" IVar="-1" Cut="0.0000000000000000e+00" cType="1" res="-2.8611046727746725e-03" rms="4.2682400345802307e-01" purity="6.4042776823043823e-01" nType="-99"/>
            </Node>
          </Node>
          <Node pos="r" depth="2" NCoef="0" IVar="16" Cut="5.0952382087707520e+00" cType="1" res="-1.4208890497684479e-01" rms="4.1439461708068848e-01" purity="3.5005185008049011e-01" nType="0">
            <Node pos="l" depth="3" NCoef="0" IVar="-1" Cut="0.0000000000000000e+00" cType="1" res="-4.3514057993888855e-02" rms="3.9069801568984985e-01" purity="2.5248935818672180e-01" nType="-99"/>
            <Node pos="r" depth="3" NCoef="0" IVar="-1" Cut="0.0000000000000000e+00" cType="1" res="-1.7724115401506424e-02" rms="4.3050760030746460e-01" purity="4.5570263266563416e-01" nType="-99"/>
          </Node>
        </Node>
      </Node>
    </BinaryTree>
    <BinaryTree type="DecisionTree" boostWeight="1.0000000000000000e+00" itree="16">
      <Node pos="s" depth="0" NCoef="0" IVar="16" Cut="4.5714287757873535e+00" cType="1" res="5.0310580991208553e-03" rms="3.4294956922531128e-01" purity="5.0019311904907227e-01" nType="0">
        <Node pos="l" depth="1" NCoef="0" IVar="14" Cut="5.8549346923828125e+02" cType="1" res="-4.5554757118225098e-02" rms="3.1047856807708740e-01" purity="3.1758445501327515e-01" nType="0">
          <Node pos="l" depth="2" NCoef="0" IVar="18" Cut="2.3610581970214844e+02" cType="1" res="-8.0199226737022400e-02" rms="2.9459652304649353e-01" purity="1.7864337563514709e-01" nType="0">
            <Node pos="l" depth="3" NCoef="0" IVar="18" Cut="9.6136924743652344e+01" cType="1" res="-6.8394050002098083e-02" rms="2.9705372452735901e-01" purity="1.9019663333892822e-01" nType="0">
              <Node pos="l" depth="4" NCoef="0" IVar="-1" Cut="0.0000000000000000e+00" cType="1" res="-3.3824514597654343e-02" rms="2.5606539845466614e-01" purity="1.2610380351543427e-01" nType="-99"/>
              <Node pos="r" depth="4" NCoef="0" IVar="-1" Cut="0.0000000000000000e+00" cType="1" res="-2.6545007713139057e-03" rms="3.6444205045700073e-01" purity="3.3079481124877930e-01" nType="-99"/>
            </Node>
            <Node pos="r" depth="3" NCoef="0" IVar="-1" Cut="0.0000000000000000e+00" cType="1" res="-7.5429290533065796e-02" rms="2.0154857635498047e-01" purity="2.4279296398162842e-02" nType="-99"/>
          </Node>
          <Node pos="r" depth="2" NCoef="0" IVar="-1" Cut="0.0000000000000000e+00" cType="1" res="2.1177109330892563e-02" rms="3.3335775136947632e-01" purity="8.0256164073944092e-01" nType="-99"/>
        </Node>
        <Node pos="r" depth="1" NCoef="0" IVar="11" Cut="1.8730024099349976e+00" cType="1" res="6.4818426966667175e-02" rms="3.6890700459480286e-01" purity="7.1601825952529907e-01" nType="0">
          <Node pos="l" depth="2" NCoef="0" IVar="18" Cut="1.0152442932128906e+02" cType="1" res="8.0452740192413330e-02" rms="3.5930401086807251e-01" purity="7.5031870603561401e-01" nType="0">
            <Node pos="l" depth="3" NCoef="0" IVar="18" Cut="8.8454872131347656e+01" cType="1" res="5.0228692591190338e-02" rms="3.8774773478507996e-01" purity="6.6686248779296875e-01" nType="0">
              <Node pos="l" depth="4" NCoef="0" IVar="-1" Cut="0.0000000000000000e+00" cType="1" res="3.3808045089244843e-02" rms="3.5513058304786682e-01" purity="8.0701261758804321e-01" nType="-99"/>
              <Node pos="r" depth="4" NCoef="0" IVar="-1" Cut="0.0000000000000000e+00" cType="1" res="-3.0024603009223938e-02" rms="3.9041033387184143e-01" purity="3.7240919470787048e-01" nType="-99"/>
            </Node>
            <Node pos="r" depth="3" NCoef="0" IVar="-1" Cut="0.0000000000000000e+00" cType="1" res="3.5031128674745560e-02" rms="3.0845990777015686e-01" purity="8.7097936868667603e-01" nType="-99"/>
          </Node>
          <Node pos="r" depth="2" NCoef="0" IVar="-1" Cut="0.0000000000000000e+00" cType="1" res="-1.5488337725400925e-02" rms="4.1991579532623291e-01" purity="4.1725760698318481e-01" nType="-99"/>
        </Node>
      </Node>
    </BinaryTree>
    <BinaryTree type="DecisionTree" boostWeight="1.0000000000000000e+00" itree="17">
      <Node pos="s" depth="0" NCoef="0" IVar="14" Cut="3.9032894897460938e+02" cType="1" res="2.9749775421805680e-04" rms="3.3446717262268066e-01" purity="4.9953293800354004e-01" nType="0">
        <Node pos="l" depth="1" NCoef="0" IVar="17" Cut="2.4285714626312256e+00" cType="1" res="-6.3133195042610168e-02" rms="2.8620418906211853e-01" purity="1.7231443524360657e-01" nType="0">
          <Node pos="l" depth="2" NCoef="0" IVar="2" Cut="9.1095993041992188e+01" cType="1" res="-1.0080999135971069e-01" rms="2.1451076865196228e-01" purity="7.9820334911346436e-02" nType="0">
            <Node pos="l" depth="3" NCoef="0" IVar="15" Cut="9.7714698791503906e+01" cType="1" res="-8.8387489318847656e-02" rms="2.2167013585567474e-01" purity="9.0930268168449402e-02" nType="0">
              <Node pos="l" depth="4" NCoef="0" IVar="-1" Cut="0.0000000000000000e+00" cType="1" res="-4.5127648860216141e-02" rms="1.7913368344306946e-01" purity="5.4472800344228745e-02" nType="-99"/>
              <Node pos="r" depth="4" NCoef="0" IVar="-1" Cut="0.0000000000000000e+00" cType="1" res="-1.8171660602092743e-02" rms="2.9112043976783752e-01" purity="1.7108070850372314e-01" nType="-99"/>
            </Node>
            <Node pos="r" depth="3" NCoef="0" IVar="-1" Cut="0.0000000000000000e+00" cType="1" res="-5.9664439409971237e-02" rms="1.5625821053981781e-01" purity="2.1175695583224297e-02" nType="-99"/>
          </Node>
          <Node pos="r" depth="2" NCoef="0" IVar="14" Cut="2.4163090515136719e+02" cType="1" res="-2.3505274206399918e-02" rms="3.4147676825523376e-01" purity="2.6959839463233948e-01" nType="0">
            <Node pos="l" depth="3" NCoef="0" IVar="6" Cut="2.4176993370056152e+00" cType="1" res="-8.7975561618804932e-02" rms="1.9730405509471893e-01" purity="4.4571273028850555e-02" nType="0">
              <Node pos="l" depth="4" NCoef="0" IVar="-1" Cut="0.0000000000000000e+00" cType="1" res="-1.8294788897037506e-02" rms="2.9619881510734558e-01" purity="1.0475858300924301e-01" nType="-99"/>
              <Node pos="r" depth="4" NCoef="0" IVar="-1" Cut="0.0000000000000000e+00" cType="1" res="-5.3901094943284988e-02" rms="8.8569447398185730e-02" purity="8.3954166620969772e-03" nType="-99"/>
            </Node>
            <Node pos="r" depth="3" NCoef="0" IVar="16" Cut="2.6666667461395264e+00" cType="1" res="2.9456617310643196e-02" rms="4.1737091541290283e-01" purity="4.5445662736892700e-01" nType="0">
              <Node pos="l" depth="4" NCoef="0" IVar="-1" Cut="0.0000000000000000e+00" cType="1" res="-2.1513095125555992e-02" rms="3.4501394629478455e-01" purity="1.8960903584957123e-01" nType="-99"/>
              <Node pos="r" depth="4" NCoef="0" IVar="-1" Cut="0.0000000000000000e+00" cType="1" res="1.3786531053483486e-02" rms="4.3123000860214233e-01" purity="5.3231436014175415e-01" nType="-99"/>
            </Node>
          </Node>
        </Node>
        <Node pos="r" depth="1" NCoef="0" IVar="13" Cut="3.5897994041442871e+00" cType="1" res="4.4953595846891403e-02" rms="3.5795336961746216e-01" purity="7.2989934682846069e-01" nType="0">
          <Node pos="l" depth="2" NCoef="0" IVar="7" Cut="2.2439911365509033e+00" cType="1" res="5.5320292711257935e-02" rms="3.5077393054962158e-01" purity="7.5343072414398193e-01" nType="0">
            <Node pos="l" depth="3" NCoef="0" IVar="18" Cut="8.3547050476074219e+01" cType="1" res="1.5754997730255127e-02" rms="3.8427510857582092e-01" purity="6.4009785652160645e-01" nType="0">
              <Node pos="l" depth="4" NCoef="0" IVar="-1" Cut="0.0000000000000000e+00" cType="1" res="2.9604697600007057e-02" rms="3.4646180272102356e-01" purity="8.3518546819686890e-01" nType="-99"/>
              <Node pos="r" depth="4" NCoef="0" IVar="-1" Cut="0.0000000000000000e+00" cType="1" res="-1.2478088028728962e-02" rms="3.9376556873321533e-01" purity="5.0720000267028809e-01" nType="-99"/>
            </Node>
            <Node pos="r" depth="3" NCoef="0" IVar="16" Cut="3.0476191043853760e+00" cType="1" res="9.3735687434673309e-02" rms="3.1006026268005371e-01" purity="8.6346983909606934e-01" nType="0">
              <Node pos="l" depth="4" NCoef="0" IVar="-1" Cut="0.0000000000000000e+00" cType="1" res="1.0752600617706776e-02" rms="3.5936099290847778e-01" purity="7.8055965900421143e-01" nType="-99"/>
              <Node pos="r" depth="4" NCoef="0" IVar="-1" Cut="0.0000000000000000e+00" cType="1" res="3.2852511852979660e-02" rms="2.9249161481857300e-01" purity="8.8726300001144409e-01" nType="-99"/>
            </Node>
          </Node>
          <Node pos="r" depth="2" NCoef="0" IVar="-1" Cut="0.0000000000000000e+00" cType="1" res="-2.6694273576140404e-02" rms="4.2497938871383667e-01" purity="3.4881561994552612e-01" nType="-99"/>
        </Node>
      </Node>
    </BinaryTree>
    <BinaryTree type="DecisionTree" boostWeight="1.0000000000000000e+00" itree="18">
      <Node pos="s" depth="0" NCoef="0" IVar="14" Cut="3.0848947143554688e+02" cType="1" res="-4.3874341645278037e-04" rms="3.3792322874069214e-01" purity="4.9081483483314514e-01" nType="0">
        <Node pos="l" depth="1" NCoef="0" IVar="14" Cut="2.2034530639648438e+02" cType="1" res="-7.1233756840229034e-02" rms="2.3118744790554047e-01" purity="7.7279053628444672e-02" nType="0">
          <Node pos="l" depth="2" NCoef="0" IVar="16" Cut="2.3809523582458496e+00" cType="1" res="-9.5286838710308075e-02" rms="1.1055740714073181e-01" purity="1.2833727523684502e-02" nType="0">
            <Node pos="l" depth="3" NCoef="0" IVar="5" Cut="3.9020687103271484e+01" cType="1" res="-8.9219070971012115e-02" rms="8.3435967564582825e-02" purity="7.7138873748481274e-03" nType="0">
              <Node pos="l" depth="4" NCoef="0" IVar="-1" Cut="0.0000000000000000e+00" cType="1" res="-5.5278480052947998e-02" rms="9.3339867889881134e-03" purity="0.0000000000000000e+00" nType="-99"/>
              <Node pos="r" depth="4" NCoef="0" IVar="-1" Cut="0.0000000000000000e+00" cType="1" res="-3.9555560797452927e-02" rms="1.6407622396945953e-01" purity="3.0485095456242561e-02" nType="-99"/>
            </Node>
            <Node pos="r" depth="3" NCoef="0" IVar="-1" Cut="0.0000000000000000e+00" cType="1" res="-4.8125784844160080e-02" rms="1.6756141185760498e-01" purity="2.8717089444398880e-02" nType="-99"/>
          </Node>
          <Node pos="r" depth="2" NCoef="0" IVar="8" Cut="4.4609317183494568e-01" cType="1" res="-2.5403007864952087e-02" rms="3.5887932777404785e-01" purity="2.0007321238517761e-01" nType="0">
            <Node pos="l" depth="3" NCoef="0" IVar="-1" Cut="0.0000000000000000e+00" cType="1" res="-4.4269014149904251e-02" rms="2.2241647541522980e-01" purity="8.3460517227649689e-02" nType="-99"/>
            <Node pos="r" depth="3" NCoef="0" IVar="1" Cut="1.9947619628906250e+03" cType="1" res="1.0095283389091492e-02" rms="3.8542142510414124e-01" purity="2.3684217035770416e-01" nType="0">
              <Node pos="l" depth="4" NCoef="0" IVar="-1" Cut="0.0000000000000000e+00" cType="1" res="2.1138407289981842e-02" rms="4.0528413653373718e-01" purity="2.8606146574020386e-01" nType="-99"/>
              <Node pos="r" depth="4" NCoef="0" IVar="-1" Cut="0.0000000000000000e+00" cType="1" res="-3.0223466455936432e-02" rms="3.1459552049636841e-01" purity="1.3940197229385376e-01" nType="-99"/>
            </Node>
          </Node>
        </Node>
        <Node pos="r" depth="1" NCoef="0" IVar="13" Cut="3.6459558010101318e+00" cType="1" res="3.2480452209711075e-02" rms="3.7285879254341125e-01" purity="6.8310618400573730e-01" nType="0">
          <Node pos="l" depth="2" NCoef="0" IVar="18" Cut="8.3539070129394531e+01" cType="1" res="4.2602043598890305e-02" rms="3.6769494414329529e-01" purity="7.0657056570053101e-01" nType="0">
            <Node pos="l" depth="3" NCoef="0" IVar="0" Cut="7.7923912048339844e+01" cType="1" res="1.0543448477983475e-01" rms="3.5869613289833069e-01" purity="8.1343644857406616e-01" nType="0">
              <Node pos="l" depth="4" NCoef="0" IVar="-1" Cut="0.0000000000000000e+00" cType="1" res="3.3672656863927841e-02" rms="3.2526123523712158e-01" purity="8.4569847583770752e-01" nType="-99"/>
              <Node pos="r" depth="4" NCoef="0" IVar="-1" Cut="0.0000000000000000e+00" cType="1" res="1.6944881528615952e-02" rms="4.0787309408187866e-01" purity="7.5710850954055786e-01" nType="-99"/>
            </Node>
            <Node pos="r" depth="3" NCoef="0" IVar="12" Cut="1.2253568172454834e+00" cType="1" res="1.8837830051779747e-02" rms="3.6825796961784363e-01" purity="6.6615223884582520e-01" nType="0">
              <Node pos="l" depth="4" NCoef="0" IVar="-1" Cut="0.0000000000000000e+00" cType="1" res="9.1140940785408020e-03" rms="3.6015418171882629e-01" purity="6.8458646535873413e-01" nType="-99"/>
              <Node pos="r" depth="4" NCoef="0" IVar="-1" Cut="0.0000000000000000e+00" cType="1" res="-5.5585298687219620e-02" rms="4.0498510003089905e-01" purity="3.4922257065773010e-01" nType="-99"/>
            </Node>
          </Node>
          <Node pos="r" depth="2" NCoef="0" IVar="-1" Cut="0.0000000000000000e+00" cType="1" res="-3.1258836388587952e-02" rms="4.1561269760131836e-01" purity="2.7886351943016052e-01" nType="-99"/>
        </Node>
      </Node>
    </BinaryTree>
    <BinaryTree type="DecisionTree" boostWeight="1.0000000000000000e+00" itree="19">
