<?xml version="1.0"?>
<MethodSetup Method="BDT::BDTG">
  <GeneralInfo>
    <Info name="TMVA Release" value="4.2.1 [262657]"/>
    <Info name="ROOT Release" value="6.24/06 [399366]"/>
    <Info name="Creator" value="pvaucell"/>
    <Info name="Date" value="Tue Aug 23 09:10:58 2022"/>
    <Info name="Host" value="Linux sbgat310.in2p3.fr 3.10.0-1160.36.2.el7.x86_64 #1 SMP Wed Jul 21 11:57:15 UTC 2021 x86_64 x86_64 x86_64 GNU/Linux"/>
    <Info name="Dir" value="/opt/sbg/cms/ui2_data1/pvaucell/LLTopAna/MVA/AnalysisCode"/>
    <Info name="Training events" value="134034"/>
    <Info name="TrainingTime" value="1.51158430e+02"/>
    <Info name="AnalysisType" value="Classification"/>
  </GeneralInfo>
  <Options>
    <Option name="V" modified="Yes">False</Option>
    <Option name="VerbosityLevel" modified="No">Default</Option>
    <Option name="VarTransform" modified="No">None</Option>
    <Option name="H" modified="Yes">False</Option>
    <Option name="CreateMVAPdfs" modified="No">False</Option>
    <Option name="IgnoreNegWeightsInTraining" modified="No">False</Option>
    <Option name="NTrees" modified="Yes">1000</Option>
    <Option name="MaxDepth" modified="Yes">4</Option>
    <Option name="MinNodeSize" modified="Yes">2.5%</Option>
    <Option name="nCuts" modified="Yes">20</Option>
    <Option name="BoostType" modified="Yes">Grad</Option>
    <Option name="AdaBoostR2Loss" modified="No">quadratic</Option>
    <Option name="UseBaggedBoost" modified="Yes">True</Option>
    <Option name="Shrinkage" modified="Yes">1.000000e-01</Option>
    <Option name="AdaBoostBeta" modified="No">5.000000e-01</Option>
    <Option name="UseRandomisedTrees" modified="Yes">False</Option>
    <Option name="UseNvars" modified="No">3</Option>
    <Option name="UsePoissonNvars" modified="No">True</Option>
    <Option name="BaggedSampleFraction" modified="No">6.000000e-01</Option>
    <Option name="UseYesNoLeaf" modified="Yes">False</Option>
    <Option name="NegWeightTreatment" modified="No">pray</Option>
    <Option name="Css" modified="No">1.000000e+00</Option>
    <Option name="Cts_sb" modified="No">1.000000e+00</Option>
    <Option name="Ctb_ss" modified="No">1.000000e+00</Option>
    <Option name="Cbb" modified="No">1.000000e+00</Option>
    <Option name="NodePurityLimit" modified="No">5.000000e-01</Option>
    <Option name="SeparationType" modified="Yes">giniindex</Option>
    <Option name="RegressionLossFunctionBDTG" modified="No">huber</Option>
    <Option name="HuberQuantile" modified="No">7.000000e-01</Option>
    <Option name="DoBoostMonitor" modified="Yes">True</Option>
    <Option name="UseFisherCuts" modified="No">False</Option>
    <Option name="MinLinCorrForFisher" modified="No">8.000000e-01</Option>
    <Option name="UseExclusiveVars" modified="No">False</Option>
    <Option name="DoPreselection" modified="No">False</Option>
    <Option name="SigToBkgFraction" modified="No">1.000000e+00</Option>
    <Option name="PruneMethod" modified="No">nopruning</Option>
    <Option name="PruneStrength" modified="No">0.000000e+00</Option>
    <Option name="PruningValFraction" modified="No">5.000000e-01</Option>
    <Option name="SkipNormalization" modified="No">False</Option>
    <Option name="nEventsMin" modified="No">0</Option>
    <Option name="UseBaggedGrad" modified="No">False</Option>
    <Option name="GradBaggingFraction" modified="Yes">6.000000e-01</Option>
    <Option name="UseNTrainEvents" modified="No">0</Option>
    <Option name="NNodesMax" modified="No">0</Option>
  </Options>
  <Variables NVar="8">
    <Variable VarIndex="0" Expression="mva_track_pt" Label="mva_track_pt" Title="mva_track_pt" Unit="" Internal="mva_track_pt" Type="F" Min="1.00000691e+00" Max="8.40313672e+03"/>
    <Variable VarIndex="1" Expression="mva_track_eta" Label="mva_track_eta" Title="mva_track_eta" Unit="" Internal="mva_track_eta" Type="F" Min="-2.49973083e+00" Max="2.49985290e+00"/>
    <Variable VarIndex="2" Expression="mva_track_nchi2" Label="mva_track_nchi2" Title="mva_track_nchi2" Unit="" Internal="mva_track_nchi2" Type="F" Min="-1.21060462e-09" Max="4.99969006e+00"/>
    <Variable VarIndex="3" Expression="mva_track_nhits" Label="mva_track_nhits" Title="mva_track_nhits" Unit="" Internal="mva_track_nhits" Type="F" Min="3.00000000e+00" Max="3.10000000e+01"/>
    <Variable VarIndex="4" Expression="mva_track_algo" Label="mva_track_algo" Title="mva_track_algo" Unit="" Internal="mva_track_algo" Type="F" Min="2.00000000e+00" Max="2.40000000e+01"/>
    <Variable VarIndex="5" Expression="mva_ntrk10" Label="mva_ntrk10" Title="mva_ntrk10" Unit="" Internal="mva_ntrk10" Type="F" Min="0.00000000e+00" Max="6.00000000e+01"/>
    <Variable VarIndex="6" Expression="mva_drSig" Label="mva_drSig" Title="mva_drSig" Unit="" Internal="mva_drSig" Type="F" Min="5.00010538e+00" Max="2.51548027e+04"/>
    <Variable VarIndex="7" Expression="mva_track_isinjet" Label="mva_track_isinjet" Title="mva_track_isinjet" Unit="" Internal="mva_track_isinjet" Type="F" Min="0.00000000e+00" Max="1.00000000e+00"/>
  </Variables>
  <Spectators NSpec="0"/>
  <Classes NClass="2">
    <Class Name="Signal" Index="0"/>
    <Class Name="Background" Index="1"/>
  </Classes>
  <Transformations NTransformations="0"/>
  <MVAPdfs/>
  <Weights NTrees="1000" AnalysisType="1">
    <BinaryTree type="DecisionTree" boostWeight="1.0000000000000000e+00" itree="0">
      <Node pos="s" depth="0" NCoef="0" IVar="5" Cut="5.7142858505249023e+00" cType="1" res="-7.4913323624059558e-04" rms="4.9999943375587463e-01" purity="4.9925085902214050e-01" nType="0">
        <Node pos="l" depth="1" NCoef="0" IVar="7" Cut="4.7619048506021500e-02" cType="1" res="-2.1227270364761353e-01" rms="4.5270332694053650e-01" purity="2.8772729635238647e-01" nType="0">
          <Node pos="l" depth="2" NCoef="0" IVar="4" Cut="9.3333330154418945e+00" cType="1" res="-3.6546587944030762e-01" rms="3.4122526645660400e-01" purity="1.3453412055969238e-01" nType="0">
            <Node pos="l" depth="3" NCoef="0" IVar="5" Cut="1.1904761791229248e+00" cType="1" res="-4.4225671887397766e-01" rms="2.3325735330581665e-01" purity="5.7743281126022339e-02" nType="0">
              <Node pos="l" depth="4" NCoef="0" IVar="-1" Cut="0.0000000000000000e+00" cType="1" res="-9.2966966331005096e-02" rms="1.8419709801673889e-01" purity="3.5165157169103622e-02" nType="-99"/>
              <Node pos="r" depth="4" NCoef="0" IVar="-1" Cut="0.0000000000000000e+00" cType="1" res="-7.7746480703353882e-02" rms="3.1446319818496704e-01" purity="1.1126758903264999e-01" nType="-99"/>
            </Node>
            <Node pos="r" depth="3" NCoef="0" IVar="5" Cut="1.1904761791229248e+00" cType="1" res="-2.7019932866096497e-01" rms="4.2070454359054565e-01" purity="2.2980065643787384e-01" nType="0">
              <Node pos="l" depth="4" NCoef="0" IVar="-1" Cut="0.0000000000000000e+00" cType="1" res="-6.3994668424129486e-02" rms="3.8420963287353516e-01" purity="1.8002665042877197e-01" nType="-99"/>
              <Node pos="r" depth="4" NCoef="0" IVar="-1" Cut="0.0000000000000000e+00" cType="1" res="-1.1768886819481850e-02" rms="4.9652525782585144e-01" purity="4.4115558266639709e-01" nType="-99"/>
            </Node>
          </Node>
          <Node pos="r" depth="2" NCoef="0" IVar="5" Cut="1.1904761791229248e+00" cType="1" res="-1.3252250850200653e-02" rms="4.9982434511184692e-01" purity="4.8674777150154114e-01" nType="0">
            <Node pos="l" depth="3" NCoef="0" IVar="3" Cut="9.1904764175415039e+00" cType="1" res="-1.0400886088609695e-01" rms="4.8906251788139343e-01" purity="3.9599114656448364e-01" nType="0">
              <Node pos="l" depth="4" NCoef="0" IVar="-1" Cut="0.0000000000000000e+00" cType="1" res="-4.1609231382608414e-02" rms="4.5466119050979614e-01" purity="2.9195383191108704e-01" nType="-99"/>
              <Node pos="r" depth="4" NCoef="0" IVar="-1" Cut="0.0000000000000000e+00" cType="1" res="-1.2607079930603504e-02" rms="4.9601063132286072e-01" purity="4.3696463108062744e-01" nType="-99"/>
            </Node>
            <Node pos="r" depth="3" NCoef="0" IVar="4" Cut="9.3333330154418945e+00" cType="1" res="1.1840268224477768e-01" rms="4.8577854037284851e-01" purity="6.1840265989303589e-01" nType="0">
              <Node pos="l" depth="4" NCoef="0" IVar="-1" Cut="0.0000000000000000e+00" cType="1" res="-6.8756397813558578e-03" rms="4.9881672859191895e-01" purity="4.6562182903289795e-01" nType="-99"/>
              <Node pos="r" depth="4" NCoef="0" IVar="-1" Cut="0.0000000000000000e+00" cType="1" res="3.9071347564458847e-02" rms="4.6025615930557251e-01" purity="6.9535672664642334e-01" nType="-99"/>
            </Node>
          </Node>
        </Node>
        <Node pos="r" depth="1" NCoef="0" IVar="3" Cut="8.3333330154418945e+00" cType="1" res="2.7766007184982300e-01" rms="4.1581833362579346e-01" purity="7.7766001224517822e-01" nType="0">
          <Node pos="l" depth="2" NCoef="0" IVar="-1" Cut="0.0000000000000000e+00" cType="1" res="-2.1257704123854637e-02" rms="4.8857215046882629e-01" purity="3.9371144771575928e-01" nType="-99"/>
          <Node pos="r" depth="2" NCoef="0" IVar="4" Cut="6.1904764175415039e+00" cType="1" res="3.0763208866119385e-01" rms="3.9416050910949707e-01" purity="8.0763208866119385e-01" nType="0">
            <Node pos="l" depth="3" NCoef="0" IVar="-1" Cut="0.0000000000000000e+00" cType="1" res="3.3025231212377548e-02" rms="4.7194635868072510e-01" purity="6.6512614488601685e-01" nType="-99"/>
            <Node pos="r" depth="3" NCoef="0" IVar="4" Cut="1.1047618865966797e+01" cType="1" res="3.2431143522262573e-01" rms="3.8055497407913208e-01" purity="8.2431143522262573e-01" nType="0">
              <Node pos="l" depth="4" NCoef="0" IVar="-1" Cut="0.0000000000000000e+00" cType="1" res="6.7594774067401886e-02" rms="3.6847478151321411e-01" purity="8.3797383308410645e-01" nType="-99"/>
              <Node pos="r" depth="4" NCoef="0" IVar="-1" Cut="0.0000000000000000e+00" cType="1" res="4.2360879480838776e-02" rms="4.5292261242866516e-01" purity="7.1180438995361328e-01" nType="-99"/>
            </Node>
          </Node>
        </Node>
      </Node>
    </BinaryTree>
    <BinaryTree type="DecisionTree" boostWeight="1.0000000000000000e+00" itree="1">
      <Node pos="s" depth="0" NCoef="0" IVar="5" Cut="2.8571429252624512e+00" cType="1" res="1.0022142669185996e-04" rms="4.8249650001525879e-01" purity="4.9999365210533142e-01" nType="0">
        <Node pos="l" depth="1" NCoef="0" IVar="7" Cut="4.7619048506021500e-02" cType="1" res="-2.4290870130062103e-01" rms="4.1505911946296692e-01" purity="2.3137488961219788e-01" nType="0">
          <Node pos="l" depth="2" NCoef="0" IVar="4" Cut="9.3333330154418945e+00" cType="1" res="-3.4285017848014832e-01" rms="3.2157701253890991e-01" purity="1.1903664469718933e-01" nType="0">
            <Node pos="l" depth="3" NCoef="0" IVar="4" Cut="8.3333330154418945e+00" cType="1" res="-4.0871280431747437e-01" rms="2.0932707190513611e-01" purity="4.5958831906318665e-02" nType="0">
              <Node pos="l" depth="4" NCoef="0" IVar="-1" Cut="0.0000000000000000e+00" cType="1" res="-8.8642127811908722e-02" rms="1.2520954012870789e-01" purity="1.5927847474813461e-02" nType="-99"/>
              <Node pos="r" depth="4" NCoef="0" IVar="-1" Cut="0.0000000000000000e+00" cType="1" res="-7.8218117356300354e-02" rms="2.4847617745399475e-01" purity="6.6245406866073608e-02" nType="-99"/>
            </Node>
            <Node pos="r" depth="3" NCoef="0" IVar="5" Cut="9.5238097012042999e-02" cType="1" res="-2.6842612028121948e-01" rms="4.0038931369781494e-01" purity="2.0161378383636475e-01" nType="0">
              <Node pos="l" depth="4" NCoef="0" IVar="-1" Cut="0.0000000000000000e+00" cType="1" res="-6.0804110020399094e-02" rms="3.7142172455787659e-01" purity="1.6526737809181213e-01" nType="-99"/>
              <Node pos="r" depth="4" NCoef="0" IVar="-1" Cut="0.0000000000000000e+00" cType="1" res="-2.9283404350280762e-02" rms="4.6988037228584290e-01" purity="3.3112284541130066e-01" nType="-99"/>
            </Node>
          </Node>
          <Node pos="r" depth="2" NCoef="0" IVar="3" Cut="9.1904764175415039e+00" cType="1" res="-8.8937588036060333e-02" rms="4.8915132880210876e-01" purity="4.0444457530975342e-01" nType="0">
            <Node pos="l" depth="3" NCoef="0" IVar="-1" Cut="0.0000000000000000e+00" cType="1" res="-3.9026848971843719e-02" rms="4.5206826925277710e-01" purity="2.8831142187118530e-01" nType="-99"/>
            <Node pos="r" depth="3" NCoef="0" IVar="4" Cut="9.3333330154418945e+00" cType="1" res="-5.0792198628187180e-02" rms="4.9633660912513733e-01" purity="4.4628462195396423e-01" nType="0">
              <Node pos="l" depth="4" NCoef="0" IVar="-1" Cut="0.0000000000000000e+00" cType="1" res="-2.9543304815888405e-02" rms="4.7578391432762146e-01" purity="3.4659361839294434e-01" nType="-99"/>
              <Node pos="r" depth="4" NCoef="0" IVar="-1" Cut="0.0000000000000000e+00" cType="1" res="-1.9923876971006393e-03" rms="4.9914404749870300e-01" purity="4.8829314112663269e-01" nType="-99"/>
            </Node>
          </Node>
        </Node>
        <Node pos="r" depth="1" NCoef="0" IVar="3" Cut="7.0000000000000000e+00" cType="1" res="1.9830670952796936e-01" rms="4.4127145409584045e-01" purity="7.1908849477767944e-01" nType="0">
          <Node pos="l" depth="2" NCoef="0" IVar="-1" Cut="0.0000000000000000e+00" cType="1" res="-5.2087105810642242e-02" rms="4.1304758191108704e-01" purity="2.2308585047721863e-01" nType="-99"/>
          <Node pos="r" depth="2" NCoef="0" IVar="5" Cut="5.7142858505249023e+00" cType="1" res="2.2970741987228394e-01" rms="4.2543724179267883e-01" purity="7.5307494401931763e-01" nType="0">
            <Node pos="l" depth="3" NCoef="0" IVar="7" Cut="4.7619048506021500e-02" cType="1" res="5.7607263326644897e-02" rms="4.8789048194885254e-01" purity="5.5639582872390747e-01" nType="0">
              <Node pos="l" depth="4" NCoef="0" IVar="-1" Cut="0.0000000000000000e+00" cType="1" res="-2.8428837656974792e-02" rms="4.6515902876853943e-01" purity="3.3364245295524597e-01" nType="-99"/>
              <Node pos="r" depth="4" NCoef="0" IVar="-1" Cut="0.0000000000000000e+00" cType="1" res="3.4271195530891418e-02" rms="4.6352818608283997e-01" purity="6.8335843086242676e-01" nType="-99"/>
            </Node>
            <Node pos="r" depth="3" NCoef="0" IVar="7" Cut="4.7619048506021500e-02" cType="1" res="2.7429372072219849e-01" rms="3.9567419886589050e-01" purity="8.0402898788452148e-01" nType="0">
              <Node pos="l" depth="4" NCoef="0" IVar="-1" Cut="0.0000000000000000e+00" cType="1" res="3.6282584071159363e-02" rms="4.5093828439712524e-01" purity="7.0924371480941772e-01" nType="-99"/>
              <Node pos="r" depth="4" NCoef="0" IVar="-1" Cut="0.0000000000000000e+00" cType="1" res="6.0229267925024033e-02" rms="3.7503659725189209e-01" purity="8.3005052804946899e-01" nType="-99"/>
            </Node>
          </Node>
        </Node>
      </Node>
    </BinaryTree>
    <BinaryTree type="DecisionTree" boostWeight="1.0000000000000000e+00" itree="2">
      <Node pos="s" depth="0" NCoef="0" IVar="5" Cut="5.7142858505249023e+00" cType="1" res="1.2867392506450415e-03" rms="4.6760314702987671e-01" purity="5.0144839286804199e-01" nType="0">
        <Node pos="l" depth="1" NCoef="0" IVar="7" Cut="4.7619048506021500e-02" cType="1" res="-1.7325733602046967e-01" rms="4.3475636839866638e-01" purity="2.8691461682319641e-01" nType="0">
          <Node pos="l" depth="2" NCoef="0" IVar="4" Cut="9.3333330154418945e+00" cType="1" res="-2.9617193341255188e-01" rms="3.3656114339828491e-01" purity="1.3587002456188202e-01" nType="0">
            <Node pos="l" depth="3" NCoef="0" IVar="4" Cut="8.3333330154418945e+00" cType="1" res="-3.5823839902877808e-01" rms="2.3799461126327515e-01" purity="6.1277218163013458e-02" nType="0">
              <Node pos="l" depth="4" NCoef="0" IVar="-1" Cut="0.0000000000000000e+00" cType="1" res="-8.1472314894199371e-02" rms="1.5385290980339050e-01" purity="2.4577466771006584e-02" nType="-99"/>
              <Node pos="r" depth="4" NCoef="0" IVar="-1" Cut="0.0000000000000000e+00" cType="1" res="-6.6572546958923340e-02" rms="2.8889527916908264e-01" purity="9.3939580023288727e-02" nType="-99"/>
            </Node>
            <Node pos="r" depth="3" NCoef="0" IVar="5" Cut="1.1904761791229248e+00" cType="1" res="-2.2019615769386292e-01" rms="4.1486015915870667e-01" purity="2.2717936336994171e-01" nType="0">
              <Node pos="l" depth="4" NCoef="0" IVar="-1" Cut="0.0000000000000000e+00" cType="1" res="-5.3904246538877487e-02" rms="3.7920579314231873e-01" purity="1.7460009455680847e-01" nType="-99"/>
              <Node pos="r" depth="4" NCoef="0" IVar="-1" Cut="0.0000000000000000e+00" cType="1" res="-3.4168211277574301e-03" rms="4.9817335605621338e-01" purity="4.6222937107086182e-01" nType="-99"/>
            </Node>
          </Node>
          <Node pos="r" depth="2" NCoef="0" IVar="5" Cut="2.1428570747375488e+00" cType="1" res="-1.1575154028832912e-02" rms="4.9257189035415649e-01" purity="4.8559907078742981e-01" nType="0">
            <Node pos="l" depth="3" NCoef="0" IVar="4" Cut="9.3333330154418945e+00" cType="1" res="-7.0505276322364807e-02" rms="4.8921763896942139e-01" purity="4.1433984041213989e-01" nType="0">
              <Node pos="l" depth="4" NCoef="0" IVar="-1" Cut="0.0000000000000000e+00" cType="1" res="-3.5152085125446320e-02" rms="4.5740073919296265e-01" purity="3.0128279328346252e-01" nType="-99"/>
              <Node pos="r" depth="4" NCoef="0" IVar="-1" Cut="0.0000000000000000e+00" cType="1" res="-6.6940351389348507e-03" rms="4.9469837546348572e-01" purity="4.5434918999671936e-01" nType="-99"/>
            </Node>
            <Node pos="r" depth="3" NCoef="0" IVar="3" Cut="1.3285714149475098e+01" cType="1" res="1.3178016245365143e-01" rms="4.7078594565391541e-01" purity="6.5894651412963867e-01" nType="0">
              <Node pos="l" depth="4" NCoef="0" IVar="-1" Cut="0.0000000000000000e+00" cType="1" res="2.1212995052337646e-02" rms="4.7637966275215149e-01" purity="6.3320469856262207e-01" nType="-99"/>
              <Node pos="r" depth="4" NCoef="0" IVar="-1" Cut="0.0000000000000000e+00" cType="1" res="3.0824726447463036e-02" rms="4.6494665741920471e-01" purity="6.8040496110916138e-01" nType="-99"/>
            </Node>
          </Node>
        </Node>
        <Node pos="r" depth="1" NCoef="0" IVar="3" Cut="8.3333330154418945e+00" cType="1" res="2.2819659113883972e-01" rms="4.0754231810569763e-01" purity="7.8034543991088867e-01" nType="0">
          <Node pos="l" depth="2" NCoef="0" IVar="-1" Cut="0.0000000000000000e+00" cType="1" res="-1.3167766854166985e-02" rms="4.8707360029220581e-01" purity="4.1257461905479431e-01" nType="-99"/>
          <Node pos="r" depth="2" NCoef="0" IVar="7" Cut="4.7619048506021500e-02" cType="1" res="2.5101557374000549e-01" rms="3.9158636331558228e-01" purity="8.0891382694244385e-01" nType="0">
            <Node pos="l" depth="3" NCoef="0" IVar="4" Cut="7.2380952835083008e+00" cType="1" res="1.6387115418910980e-01" rms="4.5032131671905518e-01" purity="7.1154493093490601e-01" nType="0">
              <Node pos="l" depth="4" NCoef="0" IVar="-1" Cut="0.0000000000000000e+00" cType="1" res="1.8657472683116794e-03" rms="4.9435660243034363e-01" purity="5.5316519737243652e-01" nType="-99"/>
              <Node pos="r" depth="4" NCoef="0" IVar="-1" Cut="0.0000000000000000e+00" cType="1" res="4.9085915088653564e-02" rms="4.0374276041984558e-01" purity="7.9259175062179565e-01" nType="-99"/>
            </Node>
            <Node pos="r" depth="3" NCoef="0" IVar="5" Cut="1.3714285850524902e+01" cType="1" res="2.7594047784805298e-01" rms="3.6932796239852905e-01" purity="8.3676314353942871e-01" nType="0">
              <Node pos="l" depth="4" NCoef="0" IVar="-1" Cut="0.0000000000000000e+00" cType="1" res="4.9848221242427826e-02" rms="3.9363154768943787e-01" purity="8.0760753154754639e-01" nType="-99"/>
              <Node pos="r" depth="4" NCoef="0" IVar="-1" Cut="0.0000000000000000e+00" cType="1" res="6.1855122447013855e-02" rms="3.4228390455245972e-01" purity="8.6431974172592163e-01" nType="-99"/>
            </Node>
          </Node>
        </Node>
      </Node>
    </BinaryTree>
    <BinaryTree type="DecisionTree" boostWeight="1.0000000000000000e+00" itree="3">
      <Node pos="s" depth="0" NCoef="0" IVar="5" Cut="5.7142858505249023e+00" cType="1" res="-1.2821096461266279e-03" rms="4.5500394701957703e-01" purity="4.9842584133148193e-01" nType="0">
        <Node pos="l" depth="1" NCoef="0" IVar="7" Cut="4.7619048506021500e-02" cType="1" res="-1.5731652081012726e-01" rms="4.2763483524322510e-01" purity="2.8538545966148376e-01" nType="0">
          <Node pos="l" depth="2" NCoef="0" IVar="4" Cut="9.3333330154418945e+00" cType="1" res="-2.6627060770988464e-01" rms="3.3437311649322510e-01" purity="1.3665772974491119e-01" nType="0">
            <Node pos="l" depth="3" NCoef="0" IVar="4" Cut="8.3333330154418945e+00" cType="1" res="-3.2512903213500977e-01" rms="2.3313015699386597e-01" purity="5.8874338865280151e-02" nType="0">
              <Node pos="l" depth="4" NCoef="0" IVar="-1" Cut="0.0000000000000000e+00" cType="1" res="-7.6528154313564301e-02" rms="1.4355054497718811e-01" purity="2.1109385415911674e-02" nType="-99"/>
              <Node pos="r" depth="4" NCoef="0" IVar="-1" Cut="0.0000000000000000e+00" cType="1" res="-6.1660431325435638e-02" rms="2.8819024562835693e-01" purity="9.3549676239490509e-02" nType="-99"/>
            </Node>
            <Node pos="r" depth="3" NCoef="0" IVar="5" Cut="2.3809523880481720e-01" cType="1" res="-1.9414608180522919e-01" rms="4.1564881801605225e-01" purity="2.3197264969348907e-01" nType="0">
              <Node pos="l" depth="4" NCoef="0" IVar="-1" Cut="0.0000000000000000e+00" cType="1" res="-5.2413363009691238e-02" rms="3.6447343230247498e-01" purity="1.5771485865116119e-01" nType="-99"/>
              <Node pos="r" depth="4" NCoef="0" IVar="-1" Cut="0.0000000000000000e+00" cType="1" res="-1.3275489211082458e-02" rms="4.8419022560119629e-01" purity="3.9163064956665039e-01" nType="-99"/>
            </Node>
          </Node>
          <Node pos="r" depth="2" NCoef="0" IVar="5" Cut="1.1904761791229248e+00" cType="1" res="-1.3549273833632469e-02" rms="4.9021613597869873e-01" purity="4.8163491487503052e-01" nType="0">
            <Node pos="l" depth="3" NCoef="0" IVar="3" Cut="9.1904764175415039e+00" cType="1" res="-8.4472067654132843e-02" rms="4.8487842082977295e-01" purity="3.8920524716377258e-01" nType="0">
              <Node pos="l" depth="4" NCoef="0" IVar="-1" Cut="0.0000000000000000e+00" cType="1" res="-3.3981285989284515e-02" rms="4.5082098245620728e-01" purity="2.8576350212097168e-01" nType="-99"/>
              <Node pos="r" depth="4" NCoef="0" IVar="-1" Cut="0.0000000000000000e+00" cType="1" res="-1.0370486415922642e-02" rms="4.9366369843482971e-01" purity="4.2950901389122009e-01" nType="-99"/>
            </Node>
            <Node pos="r" depth="3" NCoef="0" IVar="4" Cut="9.3333330154418945e+00" cType="1" res="9.1721363365650177e-02" rms="4.7905039787292480e-01" purity="6.1882811784744263e-01" nType="0">
              <Node pos="l" depth="4" NCoef="0" IVar="-1" Cut="0.0000000000000000e+00" cType="1" res="-6.2544960528612137e-03" rms="4.9361234903335571e-01" purity="4.7416749596595764e-01" nType="-99"/>
              <Node pos="r" depth="4" NCoef="0" IVar="-1" Cut="0.0000000000000000e+00" cType="1" res="3.1153716146945953e-02" rms="4.5884352922439575e-01" purity="6.9293034076690674e-01" nType="-99"/>
            </Node>
          </Node>
        </Node>
        <Node pos="r" depth="1" NCoef="0" IVar="3" Cut="8.1428575515747070e+00" cType="1" res="2.0424465835094452e-01" rms="4.0563219785690308e-01" purity="7.7904027700424194e-01" nType="0">
          <Node pos="l" depth="2" NCoef="0" IVar="-1" Cut="0.0000000000000000e+00" cType="1" res="-1.4846042729914188e-02" rms="4.8494315147399902e-01" purity="3.9855465292930603e-01" nType="-99"/>
          <Node pos="r" depth="2" NCoef="0" IVar="4" Cut="6.1904764175415039e+00" cType="1" res="2.2607719898223877e-01" rms="3.9044100046157837e-01" purity="8.0891370773315430e-01" nType="0">
            <Node pos="l" depth="3" NCoef="0" IVar="-1" Cut="0.0000000000000000e+00" cType="1" res="1.9731342792510986e-02" rms="4.6606212854385376e-01" purity="6.5976083278656006e-01" nType="-99"/>
            <Node pos="r" depth="3" NCoef="0" IVar="4" Cut="1.0238095283508301e+01" cType="1" res="2.4148558080196381e-01" rms="3.7747579813003540e-01" purity="8.2671278715133667e-01" nType="0">
              <Node pos="l" depth="4" NCoef="0" IVar="-1" Cut="0.0000000000000000e+00" cType="1" res="5.2406147122383118e-02" rms="3.6572194099426270e-01" purity="8.4041386842727661e-01" nType="-99"/>
              <Node pos="r" depth="4" NCoef="0" IVar="-1" Cut="0.0000000000000000e+00" cType="1" res="2.9780393466353416e-02" rms="4.4552397727966309e-01" purity="7.2246086597442627e-01" nType="-99"/>
            </Node>
          </Node>
        </Node>
      </Node>
    </BinaryTree>
    <BinaryTree type="DecisionTree" boostWeight="1.0000000000000000e+00" itree="4">
      <Node pos="s" depth="0" NCoef="0" IVar="5" Cut="2.8571429252624512e+00" cType="1" res="1.3262450229376554e-03" rms="4.4484862685203552e-01" purity="5.0110441446304321e-01" nType="0">
        <Node pos="l" depth="1" NCoef="0" IVar="7" Cut="4.7619048506021500e-02" cType="1" res="-1.7681828141212463e-01" rms="4.0334078669548035e-01" purity="2.3395100235939026e-01" nType="0">
          <Node pos="l" depth="2" NCoef="0" IVar="4" Cut="9.3333330154418945e+00" cType="1" res="-2.5433754920959473e-01" rms="3.1412205100059509e-01" purity="1.1661083251237869e-01" nType="0">
            <Node pos="l" depth="3" NCoef="0" IVar="3" Cut="1.0714285850524902e+01" cType="1" res="-3.0121597647666931e-01" rms="2.1086534857749939e-01" purity="4.7054909169673920e-02" nType="0">
              <Node pos="l" depth="4" NCoef="0" IVar="-1" Cut="0.0000000000000000e+00" cType="1" res="-7.2920843958854675e-02" rms="1.2406115978956223e-01" purity="1.5694899484515190e-02" nType="-99"/>
              <Node pos="r" depth="4" NCoef="0" IVar="-1" Cut="0.0000000000000000e+00" cType="1" res="-6.3085116446018219e-02" rms="2.4196937680244446e-01" purity="6.2908709049224854e-02" nType="-99"/>
            </Node>
            <Node pos="r" depth="3" NCoef="0" IVar="5" Cut="9.5238097012042999e-02" cType="1" res="-2.0013058185577393e-01" rms="3.9481139183044434e-01" purity="1.9704045355319977e-01" nType="0">
              <Node pos="l" depth="4" NCoef="0" IVar="-1" Cut="0.0000000000000000e+00" cType="1" res="-4.6376943588256836e-02" rms="3.7255531549453735e-01" purity="1.6652956604957581e-01" nType="-99"/>
              <Node pos="r" depth="4" NCoef="0" IVar="-1" Cut="0.0000000000000000e+00" cType="1" res="-2.5483343750238419e-02" rms="4.6201598644256592e-01" purity="3.1260854005813599e-01" nType="-99"/>
            </Node>
          </Node>
          <Node pos="r" depth="2" NCoef="0" IVar="3" Cut="9.1904764175415039e+00" cType="1" res="-5.6611899286508560e-02" rms="4.8803243041038513e-01" purity="4.1590625047683716e-01" nType="0">
            <Node pos="l" depth="3" NCoef="0" IVar="-1" Cut="0.0000000000000000e+00" cType="1" res="-2.9699888080358505e-02" rms="4.5506167411804199e-01" purity="2.9747530817985535e-01" nType="-99"/>
            <Node pos="r" depth="3" NCoef="0" IVar="4" Cut="9.3333330154418945e+00" cType="1" res="-2.5144265964627266e-02" rms="4.9523821473121643e-01" purity="4.5742216706275940e-01" nType="0">
              <Node pos="l" depth="4" NCoef="0" IVar="-1" Cut="0.0000000000000000e+00" cType="1" res="-1.9461382180452347e-02" rms="4.8003944754600525e-01" purity="3.6068257689476013e-01" nType="-99"/>
              <Node pos="r" depth="4" NCoef="0" IVar="-1" Cut="0.0000000000000000e+00" cType="1" res="8.0634246114641428e-04" rms="4.9837467074394226e-01" purity="4.9691623449325562e-01" nType="-99"/>
            </Node>
          </Node>
        </Node>
        <Node pos="r" depth="1" NCoef="0" IVar="3" Cut="7.0000000000000000e+00" cType="1" res="1.4692941308021545e-01" rms="4.2370629310607910e-01" purity="7.1945738792419434e-01" nType="0">
          <Node pos="l" depth="2" NCoef="0" IVar="-1" Cut="0.0000000000000000e+00" cType="1" res="-4.2837303131818771e-02" rms="4.0512040257453918e-01" purity="2.2023032605648041e-01" nType="-99"/>
          <Node pos="r" depth="2" NCoef="0" IVar="5" Cut="8.4285717010498047e+00" cType="1" res="1.7137351632118225e-01" rms="4.1388949751853943e-01" purity="7.5380420684814453e-01" nType="0">
            <Node pos="l" depth="3" NCoef="0" IVar="4" Cut="7.2380952835083008e+00" cType="1" res="8.3514347672462463e-02" rms="4.5889329910278320e-01" purity="6.3068085908889771e-01" nType="0">
              <Node pos="l" depth="4" NCoef="0" IVar="-1" Cut="0.0000000000000000e+00" cType="1" res="-4.8985160887241364e-02" rms="3.9260658621788025e-01" purity="2.3873525857925415e-01" nType="-99"/>
              <Node pos="r" depth="4" NCoef="0" IVar="-1" Cut="0.0000000000000000e+00" cType="1" res="3.0212376266717911e-02" rms="4.4465172290802002e-01" purity="7.0840531587600708e-01" nType="-99"/>
            </Node>
            <Node pos="r" depth="3" NCoef="0" IVar="7" Cut="4.7619048506021500e-02" cType="1" res="2.2336354851722717e-01" rms="3.7522125244140625e-01" purity="8.2666152715682983e-01" nType="0">
              <Node pos="l" depth="4" NCoef="0" IVar="-1" Cut="0.0000000000000000e+00" cType="1" res="3.3745441585779190e-02" rms="4.2718881368637085e-01" purity="7.4610227346420288e-01" nType="-99"/>
              <Node pos="r" depth="4" NCoef="0" IVar="-1" Cut="0.0000000000000000e+00" cType="1" res="5.0159327685832977e-02" rms="3.5913163423538208e-01" purity="8.4728014469146729e-01" nType="-99"/>
            </Node>
          </Node>
        </Node>
      </Node>
    </BinaryTree>
    <BinaryTree type="DecisionTree" boostWeight="1.0000000000000000e+00" itree="5">
      <Node pos="s" depth="0" NCoef="0" IVar="5" Cut="5.6190476417541504e+00" cType="1" res="-1.6418340383097529e-03" rms="4.3544682860374451e-01" purity="4.9782717227935791e-01" nType="0">
        <Node pos="l" depth="1" NCoef="0" IVar="7" Cut="4.7619048506021500e-02" cType="1" res="-1.2692587077617645e-01" rms="4.1785782575607300e-01" purity="2.8771078586578369e-01" nType="0">
          <Node pos="l" depth="2" NCoef="0" IVar="4" Cut="9.3333330154418945e+00" cType="1" res="-2.1637596189975739e-01" rms="3.3115920424461365e-01" purity="1.3818712532520294e-01" nType="0">
            <Node pos="l" depth="3" NCoef="0" IVar="3" Cut="1.1000000000000000e+01" cType="1" res="-2.6409134268760681e-01" rms="2.3581095039844513e-01" purity="6.1575174331665039e-02" nType="0">
              <Node pos="l" depth="4" NCoef="0" IVar="-1" Cut="0.0000000000000000e+00" cType="1" res="-6.9968216121196747e-02" rms="1.2302385270595551e-01" purity="1.5423892065882683e-02" nType="-99"/>
              <Node pos="r" depth="4" NCoef="0" IVar="-1" Cut="0.0000000000000000e+00" cType="1" res="-5.5362213402986526e-02" rms="2.7373942732810974e-01" purity="8.4984570741653442e-02" nType="-99"/>
            </Node>
            <Node pos="r" depth="3" NCoef="0" IVar="5" Cut="1.1904761791229248e+00" cType="1" res="-1.5700854361057281e-01" rms="4.1300132870674133e-01" purity="2.3350766301155090e-01" nType="0">
              <Node pos="l" depth="4" NCoef="0" IVar="-1" Cut="0.0000000000000000e+00" cType="1" res="-4.0408350527286530e-02" rms="3.8517582416534424e-01" purity="1.8278610706329346e-01" nType="-99"/>
              <Node pos="r" depth="4" NCoef="0" IVar="-1" Cut="0.0000000000000000e+00" cType="1" res="-3.7669341545552015e-03" rms="4.9474340677261353e-01" purity="4.5653128623962402e-01" nType="-99"/>
            </Node>
          </Node>
          <Node pos="r" depth="2" NCoef="0" IVar="3" Cut="8.9523811340332031e+00" cType="1" res="-9.4381337985396385e-03" rms="4.8537194728851318e-01" purity="4.8410180211067200e-01" nType="0">
            <Node pos="l" depth="3" NCoef="0" IVar="-1" Cut="0.0000000000000000e+00" cType="1" res="-4.2226042598485947e-02" rms="4.1762048006057739e-01" purity="2.3694506287574768e-01" nType="-99"/>
            <Node pos="r" depth="3" NCoef="0" IVar="5" Cut="1.1904761791229248e+00" cType="1" res="1.8943835049867630e-02" rms="4.8783034086227417e-01" purity="5.1964861154556274e-01" nType="0">
              <Node pos="l" depth="4" NCoef="0" IVar="-1" Cut="0.0000000000000000e+00" cType="1" res="-9.0622054412961006e-03" rms="4.9187538027763367e-01" purity="4.2138060927391052e-01" nType="-99"/>
              <Node pos="r" depth="4" NCoef="0" IVar="-1" Cut="0.0000000000000000e+00" cType="1" res="2.0975925028324127e-02" rms="4.6928551793098450e-01" purity="6.4934027194976807e-01" nType="-99"/>
            </Node>
          </Node>
        </Node>
        <Node pos="r" depth="1" NCoef="0" IVar="3" Cut="8.3333330154418945e+00" cType="1" res="1.6470077633857727e-01" rms="4.0128731727600098e-01" purity="7.7680373191833496e-01" nType="0">
          <Node pos="l" depth="2" NCoef="0" IVar="-1" Cut="0.0000000000000000e+00" cType="1" res="-1.4926922507584095e-02" rms="4.7575062513351440e-01" purity="3.8080975413322449e-01" nType="-99"/>
          <Node pos="r" depth="2" NCoef="0" IVar="4" Cut="6.1904764175415039e+00" cType="1" res="1.8359367549419403e-01" rms="3.8857990503311157e-01" purity="8.0821591615676880e-01" nType="0">
            <Node pos="l" depth="3" NCoef="0" IVar="-1" Cut="0.0000000000000000e+00" cType="1" res="1.4453099109232426e-02" rms="4.5930466055870056e-01" purity="6.5829551219940186e-01" nType="-99"/>
            <Node pos="r" depth="3" NCoef="0" IVar="4" Cut="1.0238095283508301e+01" cType="1" res="1.9717358052730560e-01" rms="3.7697690725326538e-01" purity="8.2609683275222778e-01" nType="0">
              <Node pos="l" depth="4" NCoef="0" IVar="-1" Cut="0.0000000000000000e+00" cType="1" res="4.4984243810176849e-02" rms="3.6508864164352417e-01" purity="8.4036332368850708e-01" nType="-99"/>
              <Node pos="r" depth="4" NCoef="0" IVar="-1" Cut="0.0000000000000000e+00" cType="1" res="2.2499017417430878e-02" rms="4.4585022330284119e-01" purity="7.1944773197174072e-01" nType="-99"/>
            </Node>
          </Node>
        </Node>
      </Node>
    </BinaryTree>
    <BinaryTree type="DecisionTree" boostWeight="1.0000000000000000e+00" itree="6">
      <Node pos="s" depth="0" NCoef="0" IVar="5" Cut="2.8095238208770752e+00" cType="1" res="-1.0847348021343350e-03" rms="4.2732381820678711e-01" purity="4.9888551235198975e-01" nType="0">
        <Node pos="l" depth="1" NCoef="0" IVar="7" Cut="4.7619048506021500e-02" cType="1" res="-1.5034954249858856e-01" rms="3.9373841881752014e-01" purity="2.2774337232112885e-01" nType="0">
          <Node pos="l" depth="2" NCoef="0" IVar="4" Cut="9.3333330154418945e+00" cType="1" res="-2.1109324693679810e-01" rms="3.0777513980865479e-01" purity="1.1312261968851089e-01" nType="0">
            <Node pos="l" depth="3" NCoef="0" IVar="4" Cut="8.3333330154418945e+00" cType="1" res="-2.4854440987110138e-01" rms="2.0528301596641541e-01" purity="4.4726647436618805e-02" nType="0">
              <Node pos="l" depth="4" NCoef="0" IVar="-1" Cut="0.0000000000000000e+00" cType="1" res="-6.6485099494457245e-02" rms="1.1355137079954147e-01" purity="1.3111697509884834e-02" nType="-99"/>
              <Node pos="r" depth="4" NCoef="0" IVar="-1" Cut="0.0000000000000000e+00" cType="1" res="-5.5785227566957474e-02" rms="2.4748741090297699e-01" purity="6.5919265151023865e-02" nType="-99"/>
            </Node>
            <Node pos="r" depth="3" NCoef="0" IVar="5" Cut="9.5238097012042999e-02" cType="1" res="-1.6785502433776855e-01" rms="3.8980326056480408e-01" purity="1.9208733737468719e-01" nType="0">
              <Node pos="l" depth="4" NCoef="0" IVar="-1" Cut="0.0000000000000000e+00" cType="1" res="-4.2295880615711212e-02" rms="3.6164444684982300e-01" purity="1.5472722053527832e-01" nType="-99"/>
              <Node pos="r" depth="4" NCoef="0" IVar="-1" Cut="0.0000000000000000e+00" cType="1" res="-1.6602978110313416e-02" rms="4.6994102001190186e-01" purity="3.3100754022598267e-01" nType="-99"/>
            </Node>
          </Node>
          <Node pos="r" depth="2" NCoef="0" IVar="3" Cut="9.1904764175415039e+00" cType="1" res="-5.5985257029533386e-02" rms="4.8381313681602478e-01" purity="4.0580472350120544e-01" nType="0">
            <Node pos="l" depth="3" NCoef="0" IVar="-1" Cut="0.0000000000000000e+00" cType="1" res="-2.8765603899955750e-02" rms="4.4381475448608398e-01" purity="2.7700090408325195e-01" nType="-99"/>
            <Node pos="r" depth="3" NCoef="0" IVar="4" Cut="9.3333330154418945e+00" cType="1" res="-2.6276575401425362e-02" rms="4.9387574195861816e-01" purity="4.5163270831108093e-01" nType="0">
              <Node pos="l" depth="4" NCoef="0" IVar="-1" Cut="0.0000000000000000e+00" cType="1" res="-1.9404169172048569e-02" rms="4.7632488608360291e-01" purity="3.5056638717651367e-01" nType="-99"/>
              <Node pos="r" depth="4" NCoef="0" IVar="-1" Cut="0.0000000000000000e+00" cType="1" res="6.6944141872227192e-04" rms="4.9821648001670837e-01" purity="4.9463352560997009e-01" nType="-99"/>
            </Node>
          </Node>
        </Node>
        <Node pos="r" depth="1" NCoef="0" IVar="3" Cut="8.3333330154418945e+00" cType="1" res="1.1995033174753189e-01" rms="4.1503050923347473e-01" purity="7.1874779462814331e-01" nType="0">
          <Node pos="l" depth="2" NCoef="0" IVar="-1" Cut="0.0000000000000000e+00" cType="1" res="-2.8354978188872337e-02" rms="4.2926824092864990e-01" purity="2.8707885742187500e-01" nType="-99"/>
          <Node pos="r" depth="2" NCoef="0" IVar="4" Cut="6.1904764175415039e+00" cType="1" res="1.4491704106330872e-01" rms="4.0506312251091003e-01" purity="7.6095193624496460e-01" nType="0">
            <Node pos="l" depth="3" NCoef="0" IVar="-1" Cut="0.0000000000000000e+00" cType="1" res="-2.1574394777417183e-03" rms="4.4603681564331055e-01" purity="5.3955960273742676e-01" nType="-99"/>
            <Node pos="r" depth="3" NCoef="0" IVar="4" Cut="1.0238095283508301e+01" cType="1" res="1.6287949681282043e-01" rms="3.9614281058311462e-01" purity="7.8658574819564819e-01" nType="0">
              <Node pos="l" depth="4" NCoef="0" IVar="-1" Cut="0.0000000000000000e+00" cType="1" res="3.8821525871753693e-02" rms="3.8445344567298889e-01" purity="8.0435013771057129e-01" nType="-99"/>
              <Node pos="r" depth="4" NCoef="0" IVar="-1" Cut="0.0000000000000000e+00" cType="1" res="8.4131201729178429e-03" rms="4.6006026864051819e-01" purity="6.4681619405746460e-01" nType="-99"/>
            </Node>
          </Node>
        </Node>
      </Node>
    </BinaryTree>
    <BinaryTree type="DecisionTree" boostWeight="1.0000000000000000e+00" itree="7">
      <Node pos="s" depth="0" NCoef="0" IVar="5" Cut="2.8571429252624512e+00" cType="1" res="7.0322450483217835e-04" rms="4.2216563224792480e-01" purity="5.0154340267181396e-01" nType="0">
        <Node pos="l" depth="1" NCoef="0" IVar="7" Cut="4.7619048506021500e-02" cType="1" res="-1.3289994001388550e-01" rms="3.9418849349021912e-01" purity="2.3130859434604645e-01" nType="0">
          <Node pos="l" depth="2" NCoef="0" IVar="4" Cut="9.3333330154418945e+00" cType="1" res="-1.8959754705429077e-01" rms="3.0912864208221436e-01" purity="1.1453342437744141e-01" nType="0">
            <Node pos="l" depth="3" NCoef="0" IVar="3" Cut="1.4571428298950195e+01" cType="1" res="-2.2262719273567200e-01" rms="2.0904560387134552e-01" purity="4.6410176903009415e-02" nType="0">
              <Node pos="l" depth="4" NCoef="0" IVar="-1" Cut="0.0000000000000000e+00" cType="1" res="-6.0643166303634644e-02" rms="1.6795159876346588e-01" purity="2.9473954811692238e-02" nType="-99"/>
              <Node pos="r" depth="4" NCoef="0" IVar="-1" Cut="0.0000000000000000e+00" cType="1" res="-5.1548451185226440e-02" rms="2.5122743844985962e-01" purity="6.8282216787338257e-02" nType="-99"/>
            </Node>
            <Node pos="r" depth="3" NCoef="0" IVar="3" Cut="9.1904764175415039e+00" cType="1" res="-1.5206013619899750e-01" rms="3.8967907428741455e-01" purity="1.9195388257503510e-01" nType="0">
              <Node pos="l" depth="4" NCoef="0" IVar="-1" Cut="0.0000000000000000e+00" cType="1" res="-4.8669032752513885e-02" rms="3.2518082857131958e-01" purity="1.2049368023872375e-01" nType="-99"/>
              <Node pos="r" depth="4" NCoef="0" IVar="-1" Cut="0.0000000000000000e+00" cType="1" res="-2.9564786702394485e-02" rms="4.0473654866218567e-01" purity="2.1296748518943787e-01" nType="-99"/>
            </Node>
          </Node>
          <Node pos="r" depth="2" NCoef="0" IVar="3" Cut="8.9523811340332031e+00" cType="1" res="-4.6053223311901093e-02" rms="4.8430764675140381e-01" purity="4.1017934679985046e-01" nType="0">
            <Node pos="l" depth="3" NCoef="0" IVar="-1" Cut="0.0000000000000000e+00" cType="1" res="-3.6027509719133377e-02" rms="4.1287207603454590e-01" purity="2.2234149277210236e-01" nType="-99"/>
            <Node pos="r" depth="3" NCoef="0" IVar="4" Cut="9.3333330154418945e+00" cType="1" res="-2.4573575705289841e-02" rms="4.9228155612945557e-01" purity="4.4226956367492676e-01" nType="0">
              <Node pos="l" depth="4" NCoef="0" IVar="-1" Cut="0.0000000000000000e+00" cType="1" res="-1.8359301611781120e-02" rms="4.7374540567398071e-01" purity="3.4450340270996094e-01" nType="-99"/>
              <Node pos="r" depth="4" NCoef="0" IVar="-1" Cut="0.0000000000000000e+00" cType="1" res="-1.1386634287191555e-04" rms="4.9673244357109070e-01" purity="4.7804984450340271e-01" nType="-99"/>
            </Node>
          </Node>
        </Node>
        <Node pos="r" depth="1" NCoef="0" IVar="3" Cut="8.3333330154418945e+00" cType="1" res="1.0807615518569946e-01" rms="4.1316428780555725e-01" purity="7.1872317790985107e-01" nType="0">
          <Node pos="l" depth="2" NCoef="0" IVar="-1" Cut="0.0000000000000000e+00" cType="1" res="-2.6724308729171753e-02" rms="4.2723909020423889e-01" purity="2.8128871321678162e-01" nType="-99"/>
          <Node pos="r" depth="2" NCoef="0" IVar="5" Cut="8.4285717010498047e+00" cType="1" res="1.3080202043056488e-01" rms="4.0461626648902893e-01" purity="7.6113200187683105e-01" nType="0">
            <Node pos="l" depth="3" NCoef="0" IVar="4" Cut="8.2857141494750977e+00" cType="1" res="6.4552091062068939e-02" rms="4.4557470083236694e-01" purity="6.4689081907272339e-01" nType="0">
              <Node pos="l" depth="4" NCoef="0" IVar="-1" Cut="0.0000000000000000e+00" cType="1" res="-4.3670043349266052e-02" rms="3.9963456988334656e-01" purity="2.6832288503646851e-01" nType="-99"/>
              <Node pos="r" depth="4" NCoef="0" IVar="-1" Cut="0.0000000000000000e+00" cType="1" res="2.7223391458392143e-02" rms="4.3224430084228516e-01" purity="7.3545229434967041e-01" nType="-99"/>
            </Node>
            <Node pos="r" depth="3" NCoef="0" IVar="5" Cut="1.6285715103149414e+01" cType="1" res="1.7040380835533142e-01" rms="3.7243357300758362e-01" purity="8.2942116260528564e-01" nType="0">
              <Node pos="l" depth="4" NCoef="0" IVar="-1" Cut="0.0000000000000000e+00" cType="1" res="3.3139828592538834e-02" rms="3.8662773370742798e-01" purity="8.1045120954513550e-01" nType="-99"/>
              <Node pos="r" depth="4" NCoef="0" IVar="-1" Cut="0.0000000000000000e+00" cType="1" res="4.3734032660722733e-02" rms="3.5327893495559692e-01" purity="8.5160487890243530e-01" nType="-99"/>
            </Node>
          </Node>
        </Node>
      </Node>
    </BinaryTree>
    <BinaryTree type="DecisionTree" boostWeight="1.0000000000000000e+00" itree="8">
      <Node pos="s" depth="0" NCoef="0" IVar="5" Cut="5.7142858505249023e+00" cType="1" res="-2.5244080461561680e-03" rms="4.1622120141983032e-01" purity="4.9707779288291931e-01" nType="0">
        <Node pos="l" depth="1" NCoef="0" IVar="7" Cut="4.7619048506021500e-02" cType="1" res="-9.7828261554241180e-02" rms="4.0535399317741394e-01" purity="2.8570511937141418e-01" nType="0">
          <Node pos="l" depth="2" NCoef="0" IVar="4" Cut="9.3333330154418945e+00" cType="1" res="-1.6502593457698822e-01" rms="3.2228329777717590e-01" purity="1.3535709679126740e-01" nType="0">
            <Node pos="l" depth="3" NCoef="0" IVar="4" Cut="8.3333330154418945e+00" cType="1" res="-2.0048029720783234e-01" rms="2.3042345046997070e-01" purity="6.0267709195613861e-02" nType="0">
              <Node pos="l" depth="4" NCoef="0" IVar="-1" Cut="0.0000000000000000e+00" cType="1" res="-6.0250703245401382e-02" rms="1.6507968306541443e-01" purity="2.8180005028843880e-02" nType="-99"/>
              <Node pos="r" depth="4" NCoef="0" IVar="-1" Cut="0.0000000000000000e+00" cType="1" res="-4.5249380171298981e-02" rms="2.7444174885749817e-01" purity="8.9566491544246674e-02" nType="-99"/>
            </Node>
            <Node pos="r" depth="3" NCoef="0" IVar="5" Cut="2.3809523880481720e-01" cType="1" res="-1.2049474567174911e-01" rms="4.0506106615066528e-01" purity="2.2967037558555603e-01" nType="0">
              <Node pos="l" depth="4" NCoef="0" IVar="-1" Cut="0.0000000000000000e+00" cType="1" res="-3.6456614732742310e-02" rms="3.6240544915199280e-01" purity="1.5577098727226257e-01" nType="-99"/>
              <Node pos="r" depth="4" NCoef="0" IVar="-1" Cut="0.0000000000000000e+00" cType="1" res="-8.3356648683547974e-03" rms="4.7693932056427002e-01" purity="3.9385172724723816e-01" nType="-99"/>
            </Node>
          </Node>
          <Node pos="r" depth="2" NCoef="0" IVar="3" Cut="8.1428575515747070e+00" cType="1" res="-1.0583096183836460e-02" rms="4.7886931896209717e-01" purity="4.8090735077857971e-01" nType="0">
            <Node pos="l" depth="3" NCoef="0" IVar="-1" Cut="0.0000000000000000e+00" cType="1" res="-3.5632777959108353e-02" rms="4.0837180614471436e-01" purity="2.2525517642498016e-01" nType="-99"/>
            <Node pos="r" depth="3" NCoef="0" IVar="5" Cut="1.1904761791229248e+00" cType="1" res="1.1828129179775715e-02" rms="4.8388329148292542e-01" purity="5.1716518402099609e-01" nType="0">
              <Node pos="l" depth="4" NCoef="0" IVar="-1" Cut="0.0000000000000000e+00" cType="1" res="-7.1504181250929832e-03" rms="4.9040395021438599e-01" purity="4.1965010762214661e-01" nType="-99"/>
              <Node pos="r" depth="4" NCoef="0" IVar="-1" Cut="0.0000000000000000e+00" cType="1" res="1.5644900500774384e-02" rms="4.6743759512901306e-01" purity="6.4892995357513428e-01" nType="-99"/>
            </Node>
          </Node>
        </Node>
        <Node pos="r" depth="1" NCoef="0" IVar="7" Cut="4.7619048506021500e-02" cType="1" res="1.2386320531368256e-01" rms="3.9630949497222900e-01" purity="7.7739053964614868e-01" nType="0">
          <Node pos="l" depth="2" NCoef="0" IVar="4" Cut="8.2857141494750977e+00" cType="1" res="2.9253985732793808e-02" rms="4.3813964724540710e-01" purity="6.4150053262710571e-01" nType="0">
            <Node pos="l" depth="3" NCoef="0" IVar="-1" Cut="0.0000000000000000e+00" cType="1" res="-2.0681967958807945e-02" rms="4.5274680852890015e-01" purity="4.6515181660652161e-01" nType="-99"/>
            <Node pos="r" depth="3" NCoef="0" IVar="-1" Cut="0.0000000000000000e+00" cType="1" res="2.9553603380918503e-02" rms="3.9708906412124634e-01" purity="7.8478848934173584e-01" nType="-99"/>
          </Node>
          <Node pos="r" depth="2" NCoef="0" IVar="5" Cut="1.3714285850524902e+01" cType="1" res="1.5228794515132904e-01" rms="3.7825518846511841e-01" purity="8.1821787357330322e-01" nType="0">
            <Node pos="l" depth="3" NCoef="0" IVar="2" Cut="1.1630164384841919e+00" cType="1" res="1.2473005056381226e-01" rms="3.9647623896598816e-01" purity="7.9017877578735352e-01" nType="0">
              <Node pos="l" depth="4" NCoef="0" IVar="-1" Cut="0.0000000000000000e+00" cType="1" res="3.2774683088064194e-02" rms="3.8238492608070374e-01" purity="8.0948841571807861e-01" nType="-99"/>
              <Node pos="r" depth="4" NCoef="0" IVar="-1" Cut="0.0000000000000000e+00" cType="1" res="1.7172068357467651e-02" rms="4.2683970928192139e-01" purity="7.4026805162429810e-01" nType="-99"/>
            </Node>
            <Node pos="r" depth="3" NCoef="0" IVar="5" Cut="2.4952381134033203e+01" cType="1" res="1.7805878818035126e-01" rms="3.5847130417823792e-01" purity="8.4443879127502441e-01" nType="0">
              <Node pos="l" depth="4" NCoef="0" IVar="-1" Cut="0.0000000000000000e+00" cType="1" res="3.7766925990581512e-02" rms="3.6652034521102905e-01" purity="8.3372288942337036e-01" nType="-99"/>
              <Node pos="r" depth="4" NCoef="0" IVar="-1" Cut="0.0000000000000000e+00" cType="1" res="4.8680331557989120e-02" rms="3.3402076363563538e-01" purity="8.7214779853820801e-01" nType="-99"/>
            </Node>
          </Node>
        </Node>
      </Node>
    </BinaryTree>
    <BinaryTree type="DecisionTree" boostWeight="1.0000000000000000e+00" itree="9">
      <Node pos="s" depth="0" NCoef="0" IVar="5" Cut="5.7142858505249023e+00" cType="1" res="7.1053171996027231e-04" rms="4.1257405281066895e-01" purity="4.9994221329689026e-01" nType="0">
        <Node pos="l" depth="1" NCoef="0" IVar="7" Cut="4.7619048506021500e-02" cType="1" res="-8.4368251264095306e-02" rms="4.0570557117462158e-01" purity="2.8930357098579407e-01" nType="0">
          <Node pos="l" depth="2" NCoef="0" IVar="4" Cut="8.2857141494750977e+00" cType="1" res="-1.4336305856704712e-01" rms="3.2772454619407654e-01" purity="1.4172026515007019e-01" nType="0">
            <Node pos="l" depth="3" NCoef="0" IVar="6" Cut="2.6818147659301758e+01" cType="1" res="-2.1036368608474731e-01" rms="1.5202452242374420e-01" purity="2.3879850283265114e-02" nType="0">
              <Node pos="l" depth="4" NCoef="0" IVar="-1" Cut="0.0000000000000000e+00" cType="1" res="-6.3499711453914642e-02" rms="9.0832151472568512e-02" purity="7.5588487088680267e-03" nType="-99"/>
              <Node pos="r" depth="4" NCoef="0" IVar="-1" Cut="0.0000000000000000e+00" cType="1" res="-5.2247863262891769e-02" rms="2.1032227575778961e-01" purity="4.8126555979251862e-02" nType="-99"/>
            </Node>
            <Node pos="r" depth="3" NCoef="0" IVar="5" Cut="1.1904761791229248e+00" cType="1" res="-1.1933963745832443e-01" rms="3.6802172660827637e-01" purity="1.8397256731987000e-01" nType="0">
              <Node pos="l" depth="4" NCoef="0" IVar="-1" Cut="0.0000000000000000e+00" cType="1" res="-3.6073993891477585e-02" rms="3.3469638228416443e-01" purity="1.3458456099033356e-01" nType="-99"/>
              <Node pos="r" depth="4" NCoef="0" IVar="-1" Cut="0.0000000000000000e+00" cType="1" res="1.9462598720565438e-03" rms="4.8824313282966614e-01" purity="4.4261842966079712e-01" nType="-99"/>
            </Node>
          </Node>
          <Node pos="r" depth="2" NCoef="0" IVar="3" Cut="8.9523811340332031e+00" cType="1" res="-6.9701927714049816e-03" rms="4.7861829400062561e-01" purity="4.8292493820190430e-01" nType="0">
            <Node pos="l" depth="3" NCoef="0" IVar="-1" Cut="0.0000000000000000e+00" cType="1" res="-3.1071184203028679e-02" rms="4.1592794656753540e-01" purity="2.2989194095134735e-01" nType="-99"/>
            <Node pos="r" depth="3" NCoef="0" IVar="5" Cut="3.0952382087707520e+00" cType="1" res="1.2804447673261166e-02" rms="4.8376587033271790e-01" purity="5.1931136846542358e-01" nType="0">
              <Node pos="l" depth="4" NCoef="0" IVar="-1" Cut="0.0000000000000000e+00" cType="1" res="-2.0373181905597448e-03" rms="4.8992660641670227e-01" purity="4.7219341993331909e-01" nType="-99"/>
              <Node pos="r" depth="4" NCoef="0" IVar="-1" Cut="0.0000000000000000e+00" cType="1" res="2.2755544632673264e-02" rms="4.4474431872367859e-01" purity="7.1578449010848999e-01" nType="-99"/>
            </Node>
          </Node>
        </Node>
        <Node pos="r" depth="1" NCoef="0" IVar="7" Cut="4.7619048506021500e-02" cType="1" res="1.1315263807773590e-01" rms="3.9425331354141235e-01" purity="7.7832716703414917e-01" nType="0">
          <Node pos="l" depth="2" NCoef="0" IVar="4" Cut="8.2857141494750977e+00" cType="1" res="2.8941715136170387e-02" rms="4.3660587072372437e-01" purity="6.4298593997955322e-01" nType="0">
            <Node pos="l" depth="3" NCoef="0" IVar="-1" Cut="0.0000000000000000e+00" cType="1" res="-1.7559586092829704e-02" rms="4.5674824714660645e-01" purity="4.6897986531257629e-01" nType="-99"/>
            <Node pos="r" depth="3" NCoef="0" IVar="-1" Cut="0.0000000000000000e+00" cType="1" res="2.7427526190876961e-02" rms="3.9651688933372498e-01" purity="7.8513985872268677e-01" nType="-99"/>
          </Node>
          <Node pos="r" depth="2" NCoef="0" IVar="5" Cut="1.6285715103149414e+01" cType="1" res="1.3882704079151154e-01" rms="3.7667748332023621e-01" purity="8.1959027051925659e-01" nType="0">
            <Node pos="l" depth="3" NCoef="0" IVar="2" Cut="1.4185630083084106e+00" cType="1" res="1.1852046102285385e-01" rms="3.8967394828796387e-01" purity="7.9943197965621948e-01" nType="0">
              <Node pos="l" depth="4" NCoef="0" IVar="-1" Cut="0.0000000000000000e+00" cType="1" res="3.0372135341167450e-02" rms="3.8043585419654846e-01" purity="8.1244790554046631e-01" nType="-99"/>
              <Node pos="r" depth="4" NCoef="0" IVar="-1" Cut="0.0000000000000000e+00" cType="1" res="1.2794328853487968e-02" rms="4.3221119046211243e-01" purity="7.2686612606048584e-01" nType="-99"/>
            </Node>
            <Node pos="r" depth="3" NCoef="0" IVar="2" Cut="9.4827073812484741e-01" cType="1" res="1.7115899920463562e-01" rms="3.5259893536567688e-01" purity="8.5168612003326416e-01" nType="0">
              <Node pos="l" depth="4" NCoef="0" IVar="-1" Cut="0.0000000000000000e+00" cType="1" res="4.4080305844545364e-02" rms="3.3758175373077393e-01" purity="8.6454528570175171e-01" nType="-99"/>
              <Node pos="r" depth="4" NCoef="0" IVar="-1" Cut="0.0000000000000000e+00" cType="1" res="3.6149706691503525e-02" rms="3.6729705333709717e-01" purity="8.3781278133392334e-01" nType="-99"/>
            </Node>
          </Node>
        </Node>
      </Node>
    </BinaryTree>
    <BinaryTree type="DecisionTree" boostWeight="1.0000000000000000e+00" itree="10">
      <Node pos="s" depth="0" NCoef="0" IVar="5" Cut="5.7142858505249023e+00" cType="1" res="5.1259697647765279e-04" rms="4.0846553444862366e-01" purity="5.0029301643371582e-01" nType="0">
        <Node pos="l" depth="1" NCoef="0" IVar="7" Cut="4.7619048506021500e-02" cType="1" res="-7.6008133590221405e-02" rms="4.0307587385177612e-01" purity="2.9026794433593750e-01" nType="0">
          <Node pos="l" depth="2" NCoef="0" IVar="4" Cut="9.3333330154418945e+00" cType="1" res="-1.3088144361972809e-01" rms="3.2463261485099792e-01" purity="1.4090675115585327e-01" nType="0">
            <Node pos="l" depth="3" NCoef="0" IVar="4" Cut="8.3333330154418945e+00" cType="1" res="-1.6696201264858246e-01" rms="2.2610369324684143e-01" purity="5.8523125946521759e-02" nType="0">
              <Node pos="l" depth="4" NCoef="0" IVar="-1" Cut="0.0000000000000000e+00" cType="1" res="-5.7431928813457489e-02" rms="1.4610829949378967e-01" purity="2.1949836984276772e-02" nType="-99"/>
              <Node pos="r" depth="4" NCoef="0" IVar="-1" Cut="0.0000000000000000e+00" cType="1" res="-4.0311876684427261e-02" rms="2.7730065584182739e-01" purity="9.1535918414592743e-02" nType="-99"/>
            </Node>
            <Node pos="r" depth="3" NCoef="0" IVar="5" Cut="1.1904761791229248e+00" cType="1" res="-8.7785623967647552e-02" rms="4.0839713811874390e-01" purity="2.3930849134922028e-01" nType="0">
              <Node pos="l" depth="4" NCoef="0" IVar="-1" Cut="0.0000000000000000e+00" cType="1" res="-2.6842974126338959e-02" rms="3.8331449031829834e-01" purity="1.8137376010417938e-01" nType="-99"/>
              <Node pos="r" depth="4" NCoef="0" IVar="-1" Cut="0.0000000000000000e+00" cType="1" res="2.0009088329970837e-03" rms="4.8949256539344788e-01" purity="4.8612430691719055e-01" nType="-99"/>
            </Node>
          </Node>
          <Node pos="r" depth="2" NCoef="0" IVar="3" Cut="8.1428575515747070e+00" cType="1" res="-4.5364866964519024e-03" rms="4.7727441787719727e-01" purity="4.8480859398841858e-01" nType="0">
            <Node pos="l" depth="3" NCoef="0" IVar="-1" Cut="0.0000000000000000e+00" cType="1" res="-2.8328994289040565e-02" rms="4.1666424274444580e-01" purity="2.3062950372695923e-01" nType="-99"/>
            <Node pos="r" depth="3" NCoef="0" IVar="5" Cut="2.3809523880481720e-01" cType="1" res="1.3245504349470139e-02" rms="4.8265701532363892e-01" purity="5.2096050977706909e-01" nType="0">
              <Node pos="l" depth="4" NCoef="0" IVar="-1" Cut="0.0000000000000000e+00" cType="1" res="-9.0575395151972771e-03" rms="4.8818641901016235e-01" purity="4.0568292140960693e-01" nType="-99"/>
              <Node pos="r" depth="4" NCoef="0" IVar="-1" Cut="0.0000000000000000e+00" cType="1" res="1.0485913604497910e-02" rms="4.7532561421394348e-01" purity="5.9535634517669678e-01" nType="-99"/>
            </Node>
          </Node>
        </Node>
        <Node pos="r" depth="1" NCoef="0" IVar="3" Cut="8.3333330154418945e+00" cType="1" res="1.0201001912355423e-01" rms="3.9316320419311523e-01" purity="7.7887123823165894e-01" nType="0">
          <Node pos="l" depth="2" NCoef="0" IVar="-1" Cut="0.0000000000000000e+00" cType="1" res="-8.8736610487103462e-03" rms="4.6950495243072510e-01" purity="3.9203709363937378e-01" nType="-99"/>
          <Node pos="r" depth="2" NCoef="0" IVar="5" Cut="1.1142857551574707e+01" cType="1" res="1.1320156604051590e-01" rms="3.8438138365745544e-01" purity="8.0870366096496582e-01" nType="0">
            <Node pos="l" depth="3" NCoef="0" IVar="4" Cut="8.2857141494750977e+00" cType="1" res="7.2813250124454498e-02" rms="4.1267701983451843e-01" purity="7.5950121879577637e-01" nType="0">
              <Node pos="l" depth="4" NCoef="0" IVar="-1" Cut="0.0000000000000000e+00" cType="1" res="-1.1387002654373646e-02" rms="4.6041327714920044e-01" purity="5.7887804508209229e-01" nType="-99"/>
              <Node pos="r" depth="4" NCoef="0" IVar="-1" Cut="0.0000000000000000e+00" cType="1" res="2.4567972868680954e-02" rms="3.9436373114585876e-01" purity="8.0329054594039917e-01" nType="-99"/>
            </Node>
            <Node pos="r" depth="3" NCoef="0" IVar="5" Cut="2.3428571701049805e+01" cType="1" res="1.3925902545452118e-01" rms="3.6258357763290405e-01" purity="8.4044772386550903e-01" nType="0">
              <Node pos="l" depth="4" NCoef="0" IVar="-1" Cut="0.0000000000000000e+00" cType="1" res="3.0729329213500023e-02" rms="3.7170740962028503e-01" purity="8.2933819293975830e-01" nType="-99"/>
              <Node pos="r" depth="4" NCoef="0" IVar="-1" Cut="0.0000000000000000e+00" cType="1" res="4.1371542960405350e-02" rms="3.3247774839401245e-01" purity="8.7272858619689941e-01" nType="-99"/>
            </Node>
          </Node>
        </Node>
      </Node>
    </BinaryTree>
    <BinaryTree type="DecisionTree" boostWeight="1.0000000000000000e+00" itree="11">
      <Node pos="s" depth="0" NCoef="0" IVar="5" Cut="5.6190476417541504e+00" cType="1" res="7.9945026664063334e-04" rms="4.0397781133651733e-01" purity="4.9969384074211121e-01" nType="0">
        <Node pos="l" depth="1" NCoef="0" IVar="7" Cut="4.7619048506021500e-02" cType="1" res="-7.1607105433940887e-02" rms="4.0005555748939514e-01" purity="2.8696390986442566e-01" nType="0">
          <Node pos="l" depth="2" NCoef="0" IVar="3" Cut="9.6666669845581055e+00" cType="1" res="-1.2069255113601685e-01" rms="3.2146579027175903e-01" purity="1.3738110661506653e-01" nType="0">
            <Node pos="l" depth="3" NCoef="0" IVar="3" Cut="7.2857141494750977e+00" cType="1" res="-1.7400136590003967e-01" rms="2.1690933406352997e-01" purity="5.2732791751623154e-02" nType="0">
              <Node pos="l" depth="4" NCoef="0" IVar="-1" Cut="0.0000000000000000e+00" cType="1" res="-6.0671310871839523e-02" rms="1.1058066785335541e-01" purity="1.0336369276046753e-02" nType="-99"/>
              <Node pos="r" depth="4" NCoef="0" IVar="-1" Cut="0.0000000000000000e+00" cType="1" res="-4.2474713176488876e-02" rms="2.8095385432243347e-01" purity="9.2321172356605530e-02" nType="-99"/>
            </Node>
            <Node pos="r" depth="3" NCoef="0" IVar="4" Cut="9.3333330154418945e+00" cType="1" res="-1.0195317864418030e-01" rms="3.4896653890609741e-01" purity="1.6713708639144897e-01" nType="0">
              <Node pos="l" depth="4" NCoef="0" IVar="-1" Cut="0.0000000000000000e+00" cType="1" res="-4.0203407406806946e-02" rms="2.6219558715820312e-01" purity="8.1264719367027283e-02" nType="-99"/>
              <Node pos="r" depth="4" NCoef="0" IVar="-1" Cut="0.0000000000000000e+00" cType="1" res="-1.5516191720962524e-02" rms="4.2040026187896729e-01" purity="2.6018100976943970e-01" nType="-99"/>
            </Node>
          </Node>
          <Node pos="r" depth="2" NCoef="0" IVar="3" Cut="8.1428575515747070e+00" cType="1" res="-7.5324838981032372e-03" rms="4.7624960541725159e-01" purity="4.8222467303276062e-01" nType="0">
            <Node pos="l" depth="3" NCoef="0" IVar="-1" Cut="0.0000000000000000e+00" cType="1" res="-2.7067836374044418e-02" rms="4.1182550787925720e-01" purity="2.2672753036022186e-01" nType="-99"/>
            <Node pos="r" depth="3" NCoef="0" IVar="5" Cut="1.1904761791229248e+00" cType="1" res="8.6799748241901398e-03" rms="4.8249888420104980e-01" purity="5.1843631267547607e-01" nType="0">
              <Node pos="l" depth="4" NCoef="0" IVar="-1" Cut="0.0000000000000000e+00" cType="1" res="-5.7534421794116497e-03" rms="4.9102652072906494e-01" purity="4.2102685570716858e-01" nType="-99"/>
              <Node pos="r" depth="4" NCoef="0" IVar="-1" Cut="0.0000000000000000e+00" cType="1" res="1.2213370762765408e-02" rms="4.6627414226531982e-01" purity="6.4873850345611572e-01" nType="-99"/>
            </Node>
          </Node>
        </Node>
        <Node pos="r" depth="1" NCoef="0" IVar="7" Cut="4.7619048506021500e-02" cType="1" res="9.7545124590396881e-02" rms="3.8864767551422119e-01" purity="7.8393191099166870e-01" nType="0">
          <Node pos="l" depth="2" NCoef="0" IVar="4" Cut="8.2857141494750977e+00" cType="1" res="2.3717915639281273e-02" rms="4.2819231748580933e-01" purity="6.5096348524093628e-01" nType="0">
            <Node pos="l" depth="3" NCoef="0" IVar="-1" Cut="0.0000000000000000e+00" cType="1" res="-1.7422944307327271e-02" rms="4.5033535361289978e-01" purity="4.6773514151573181e-01" nType="-99"/>
            <Node pos="r" depth="3" NCoef="0" IVar="-1" Cut="0.0000000000000000e+00" cType="1" res="2.5436032563447952e-02" rms="3.8998839259147644e-01" purity="7.9579269886016846e-01" nType="-99"/>
          </Node>
          <Node pos="r" depth="2" NCoef="0" IVar="5" Cut="1.8619047164916992e+01" cType="1" res="1.1966969072818756e-01" rms="3.7315407395362854e-01" purity="8.2377994060516357e-01" nType="0">
            <Node pos="l" depth="3" NCoef="0" IVar="3" Cut="1.2000000000000000e+01" cType="1" res="1.0430615395307541e-01" rms="3.8474208116531372e-01" purity="8.0665850639343262e-01" nType="0">
              <Node pos="l" depth="4" NCoef="0" IVar="-1" Cut="0.0000000000000000e+00" cType="1" res="1.0004957206547260e-02" rms="4.4337999820709229e-01" purity="6.7016351222991943e-01" nType="-99"/>
              <Node pos="r" depth="4" NCoef="0" IVar="-1" Cut="0.0000000000000000e+00" cType="1" res="2.8157699853181839e-02" rms="3.7313216924667358e-01" purity="8.2938110828399658e-01" nType="-99"/>
            </Node>
            <Node pos="r" depth="3" NCoef="0" IVar="2" Cut="9.4563508033752441e-01" cType="1" res="1.5490119159221649e-01" rms="3.4252220392227173e-01" purity="8.6304271221160889e-01" nType="0">
              <Node pos="l" depth="4" NCoef="0" IVar="-1" Cut="0.0000000000000000e+00" cType="1" res="4.2955625802278519e-02" rms="3.2434102892875671e-01" purity="8.7878549098968506e-01" nType="-99"/>
              <Node pos="r" depth="4" NCoef="0" IVar="-1" Cut="0.0000000000000000e+00" cType="1" res="3.3400379121303558e-02" rms="3.6157369613647461e-01" purity="8.4461432695388794e-01" nType="-99"/>
            </Node>
          </Node>
        </Node>
      </Node>
    </BinaryTree>
    <BinaryTree type="DecisionTree" boostWeight="1.0000000000000000e+00" itree="12">
      <Node pos="s" depth="0" NCoef="0" IVar="5" Cut="8.5714282989501953e+00" cType="1" res="3.0053663067519665e-03" rms="4.0216523408889771e-01" purity="5.0323629379272461e-01" nType="0">
        <Node pos="l" depth="1" NCoef="0" IVar="4" Cut="1.3523809432983398e+01" cType="1" res="-4.9232378602027893e-02" rms="4.0456035733222961e-01" purity="3.4618946909904480e-01" nType="0">
          <Node pos="l" depth="2" NCoef="0" IVar="4" Cut="9.3333330154418945e+00" cType="1" res="-3.7235487252473831e-02" rms="4.0386247634887695e-01" purity="3.5572791099548340e-01" nType="0">
            <Node pos="l" depth="3" NCoef="0" IVar="4" Cut="8.3333330154418945e+00" cType="1" res="-1.0839524865150452e-01" rms="3.3515971899032593e-01" purity="2.0943865180015564e-01" nType="0">
              <Node pos="l" depth="4" NCoef="0" IVar="-1" Cut="0.0000000000000000e+00" cType="1" res="-4.7975432127714157e-02" rms="2.5965157151222229e-01" purity="1.0465990006923676e-01" nType="-99"/>
              <Node pos="r" depth="4" NCoef="0" IVar="-1" Cut="0.0000000000000000e+00" cType="1" res="-1.6566364094614983e-02" rms="3.7581747770309448e-01" purity="2.8768092393875122e-01" nType="-99"/>
            </Node>
            <Node pos="r" depth="3" NCoef="0" IVar="5" Cut="3.8095238804817200e-01" cType="1" res="2.1837174892425537e-02" rms="4.4447764754295349e-01" purity="4.7716864943504333e-01" nType="0">
              <Node pos="l" depth="4" NCoef="0" IVar="-1" Cut="0.0000000000000000e+00" cType="1" res="-1.3882777653634548e-02" rms="4.3034672737121582e-01" purity="2.7673405408859253e-01" nType="-99"/>
              <Node pos="r" depth="4" NCoef="0" IVar="-1" Cut="0.0000000000000000e+00" cType="1" res="2.2327171638607979e-02" rms="4.4359844923019409e-01" purity="6.7394596338272095e-01" nType="-99"/>
            </Node>
          </Node>
          <Node pos="r" depth="2" NCoef="0" IVar="-1" Cut="0.0000000000000000e+00" cType="1" res="-7.3516644537448883e-02" rms="3.0126929283142090e-01" purity="1.1713432520627975e-01" nType="-99"/>
        </Node>
        <Node pos="r" depth="1" NCoef="0" IVar="3" Cut="1.2333333015441895e+01" cType="1" res="1.0386515408754349e-01" rms="3.7757757306098938e-01" purity="8.0645966529846191e-01" nType="0">
          <Node pos="l" depth="2" NCoef="0" IVar="4" Cut="8.2857141494750977e+00" cType="1" res="5.3003381937742233e-02" rms="4.3707239627838135e-01" purity="6.5875238180160522e-01" nType="0">
            <Node pos="l" depth="3" NCoef="0" IVar="-1" Cut="0.0000000000000000e+00" cType="1" res="2.0547455642372370e-03" rms="4.5209133625030518e-01" purity="5.4295825958251953e-01" nType="-99"/>
            <Node pos="r" depth="3" NCoef="0" IVar="-1" Cut="0.0000000000000000e+00" cType="1" res="2.2347243502736092e-02" rms="4.1891828179359436e-01" purity="7.6460510492324829e-01" nType="-99"/>
          </Node>
          <Node pos="r" depth="2" NCoef="0" IVar="4" Cut="1.0380952835083008e+01" cType="1" res="1.1460476368665695e-01" rms="3.6286252737045288e-01" purity="8.3764851093292236e-01" nType="0">
            <Node pos="l" depth="3" NCoef="0" IVar="4" Cut="6.1904764175415039e+00" cType="1" res="1.2115348130464554e-01" rms="3.5475683212280273e-01" purity="8.4640574455261230e-01" nType="0">
              <Node pos="l" depth="4" NCoef="0" IVar="-1" Cut="0.0000000000000000e+00" cType="1" res="1.8458399921655655e-02" rms="4.1556304693222046e-01" purity="7.4656611680984497e-01" nType="-99"/>
              <Node pos="r" depth="4" NCoef="0" IVar="-1" Cut="0.0000000000000000e+00" cType="1" res="3.2943770289421082e-02" rms="3.4330591559410095e-01" purity="8.6278510093688965e-01" nType="-99"/>
            </Node>
            <Node pos="r" depth="3" NCoef="0" IVar="-1" Cut="0.0000000000000000e+00" cType="1" res="1.6057398170232773e-02" rms="4.1450238227844238e-01" purity="7.7324587106704712e-01" nType="-99"/>
          </Node>
        </Node>
      </Node>
    </BinaryTree>
    <BinaryTree type="DecisionTree" boostWeight="1.0000000000000000e+00" itree="13">
      <Node pos="s" depth="0" NCoef="0" IVar="5" Cut="2.8571429252624512e+00" cType="1" res="-4.1390332626178861e-04" rms="3.9871618151664734e-01" purity="4.9914714694023132e-01" nType="0">
        <Node pos="l" depth="1" NCoef="0" IVar="7" Cut="4.7619048506021500e-02" cType="1" res="-7.7924288809299469e-02" rms="3.8476434350013733e-01" purity="2.2822205722332001e-01" nType="0">
          <Node pos="l" depth="2" NCoef="0" IVar="4" Cut="9.3333330154418945e+00" cType="1" res="-1.0974261164665222e-01" rms="3.0475911498069763e-01" purity="1.1355769634246826e-01" nType="0">
            <Node pos="l" depth="3" NCoef="0" IVar="3" Cut="1.0714285850524902e+01" cType="1" res="-1.2925577163696289e-01" rms="2.1066735684871674e-01" purity="4.7531526535749435e-02" nType="0">
              <Node pos="l" depth="4" NCoef="0" IVar="-1" Cut="0.0000000000000000e+00" cType="1" res="-5.4362431168556213e-02" rms="1.2185285240411758e-01" purity="1.4855631627142429e-02" nType="-99"/>
              <Node pos="r" depth="4" NCoef="0" IVar="-1" Cut="0.0000000000000000e+00" cType="1" res="-4.0111422538757324e-02" rms="2.4281796813011169e-01" purity="6.3930176198482513e-02" nType="-99"/>
            </Node>
            <Node pos="r" depth="3" NCoef="0" IVar="3" Cut="1.0428571701049805e+01" cType="1" res="-8.6703047156333923e-02" rms="3.8621175289154053e-01" purity="1.9151604175567627e-01" nType="0">
              <Node pos="l" depth="4" NCoef="0" IVar="-1" Cut="0.0000000000000000e+00" cType="1" res="-3.4120753407478333e-02" rms="3.3365768194198608e-01" purity="1.3019946217536926e-01" nType="-99"/>
              <Node pos="r" depth="4" NCoef="0" IVar="-1" Cut="0.0000000000000000e+00" cType="1" res="-1.6036553308367729e-02" rms="4.0806341171264648e-01" purity="2.2199119627475739e-01" nType="-99"/>
            </Node>
          </Node>
          <Node pos="r" depth="2" NCoef="0" IVar="4" Cut="9.3333330154418945e+00" cType="1" res="-2.7834631502628326e-02" rms="4.8040038347244263e-01" purity="4.0873125195503235e-01" nType="0">
            <Node pos="l" depth="3" NCoef="0" IVar="-1" Cut="0.0000000000000000e+00" cType="1" res="-2.1399030461907387e-02" rms="4.4659224152565002e-01" purity="2.9505273699760437e-01" nType="-99"/>
            <Node pos="r" depth="3" NCoef="0" IVar="2" Cut="1.1898175477981567e+00" cType="1" res="-1.7847293056547642e-03" rms="4.8913478851318359e-01" purity="4.4887924194335938e-01" nType="0">
              <Node pos="l" depth="4" NCoef="0" IVar="-1" Cut="0.0000000000000000e+00" cType="1" res="4.5583033934235573e-03" rms="4.9154376983642578e-01" purity="4.7601345181465149e-01" nType="-99"/>
              <Node pos="r" depth="4" NCoef="0" IVar="-1" Cut="0.0000000000000000e+00" cType="1" res="-1.1289782822132111e-02" rms="4.7958201169967651e-01" purity="3.8904398679733276e-01" nType="-99"/>
            </Node>
          </Node>
        </Node>
        <Node pos="r" depth="1" NCoef="0" IVar="3" Cut="7.0000000000000000e+00" cType="1" res="6.2172468751668930e-02" rms="3.9878910779953003e-01" purity="7.1790772676467896e-01" nType="0">
          <Node pos="l" depth="2" NCoef="0" IVar="-1" Cut="0.0000000000000000e+00" cType="1" res="-2.7486851438879967e-02" rms="3.7725731730461121e-01" purity="2.1826970577239990e-01" nType="-99"/>
          <Node pos="r" depth="2" NCoef="0" IVar="4" Cut="1.0380952835083008e+01" cType="1" res="7.4849329888820648e-02" rms="3.9722239971160889e-01" purity="7.5328582525253296e-01" nType="0">
            <Node pos="l" depth="3" NCoef="0" IVar="4" Cut="6.1904764175415039e+00" cType="1" res="8.7471820414066315e-02" rms="3.8939979672431946e-01" purity="7.6689416170120239e-01" nType="0">
              <Node pos="l" depth="4" NCoef="0" IVar="-1" Cut="0.0000000000000000e+00" cType="1" res="-5.4428647272288799e-03" rms="4.0805324912071228e-01" purity="5.4849666357040405e-01" nType="-99"/>
              <Node pos="r" depth="4" NCoef="0" IVar="-1" Cut="0.0000000000000000e+00" cType="1" res="2.5337288156151772e-02" rms="3.8457548618316650e-01" purity="7.9529619216918945e-01" nType="-99"/>
            </Node>
            <Node pos="r" depth="3" NCoef="0" IVar="-1" Cut="0.0000000000000000e+00" cType="1" res="-9.0631190687417984e-03" rms="4.4590818881988525e-01" purity="6.3078027963638306e-01" nType="-99"/>
          </Node>
        </Node>
      </Node>
    </BinaryTree>
    <BinaryTree type="DecisionTree" boostWeight="1.0000000000000000e+00" itree="14">
      <Node pos="s" depth="0" NCoef="0" IVar="5" Cut="5.7142858505249023e+00" cType="1" res="1.0095664765685797e-03" rms="3.9682048559188843e-01" purity="5.0220692157745361e-01" nType="0">
        <Node pos="l" depth="1" NCoef="0" IVar="7" Cut="4.7619048506021500e-02" cType="1" res="-5.3169205784797668e-02" rms="3.9604064822196960e-01" purity="2.8860384225845337e-01" nType="0">
          <Node pos="l" depth="2" NCoef="0" IVar="5" Cut="3.0952382087707520e+00" cType="1" res="-9.1251350939273834e-02" rms="3.1997278332710266e-01" purity="1.3946805894374847e-01" nType="0">
            <Node pos="l" depth="3" NCoef="0" IVar="4" Cut="9.3333330154418945e+00" cType="1" res="-9.9449947476387024e-02" rms="3.0970430374145508e-01" purity="1.2125011533498764e-01" nType="0">
              <Node pos="l" depth="4" NCoef="0" IVar="-1" Cut="0.0000000000000000e+00" cType="1" res="-4.2941443622112274e-02" rms="2.1267102658748627e-01" purity="4.9473498016595840e-02" nType="-99"/>
              <Node pos="r" depth="4" NCoef="0" IVar="-1" Cut="0.0000000000000000e+00" cType="1" res="-1.8957918509840965e-02" rms="3.9407756924629211e-01" purity="2.0690067112445831e-01" nType="-99"/>
            </Node>
            <Node pos="r" depth="3" NCoef="0" IVar="-1" Cut="0.0000000000000000e+00" cType="1" res="-1.6095855971798301e-03" rms="4.0165379643440247e-01" purity="3.2772558927536011e-01" nType="-99"/>
          </Node>
          <Node pos="r" depth="2" NCoef="0" IVar="4" Cut="9.3333330154418945e+00" cType="1" res="-3.2536075450479984e-03" rms="4.7312337160110474e-01" purity="4.8408132791519165e-01" nType="0">
            <Node pos="l" depth="3" NCoef="0" IVar="3" Cut="1.3285714149475098e+01" cType="1" res="-6.1138495802879333e-02" rms="4.5640325546264648e-01" purity="3.8261970877647400e-01" nType="0">
              <Node pos="l" depth="4" NCoef="0" IVar="-1" Cut="0.0000000000000000e+00" cType="1" res="-2.8649995103478432e-02" rms="4.1851523518562317e-01" purity="2.7000963687896729e-01" nType="-99"/>
              <Node pos="r" depth="4" NCoef="0" IVar="-1" Cut="0.0000000000000000e+00" cType="1" res="-2.1087855566293001e-03" rms="4.7535598278045654e-01" purity="4.6370095014572144e-01" nType="-99"/>
            </Node>
            <Node pos="r" depth="3" NCoef="0" IVar="5" Cut="1.1904761791229248e+00" cType="1" res="1.9699510186910629e-02" rms="4.7765365242958069e-01" purity="5.2431392669677734e-01" nType="0">
              <Node pos="l" depth="4" NCoef="0" IVar="-1" Cut="0.0000000000000000e+00" cType="1" res="-9.4817212084308267e-04" rms="4.8816123604774475e-01" purity="4.2961576581001282e-01" nType="-99"/>
              <Node pos="r" depth="4" NCoef="0" IVar="-1" Cut="0.0000000000000000e+00" cType="1" res="1.2884421274065971e-02" rms="4.5710304379463196e-01" purity="6.7970788478851318e-01" nType="-99"/>
            </Node>
          </Node>
        </Node>
        <Node pos="r" depth="1" NCoef="0" IVar="5" Cut="1.1142857551574707e+01" cType="1" res="7.1693688631057739e-02" rms="3.8658422231674194e-01" purity="7.8088331222534180e-01" nType="0">
          <Node pos="l" depth="2" NCoef="0" IVar="4" Cut="7.2380952835083008e+00" cType="1" res="3.1803905963897705e-02" rms="4.0752610564231873e-01" purity="7.2373092174530029e-01" nType="0">
            <Node pos="l" depth="3" NCoef="0" IVar="-1" Cut="0.0000000000000000e+00" cType="1" res="-2.8392475098371506e-02" rms="4.3288934230804443e-01" purity="4.2869380116462708e-01" nType="-99"/>
            <Node pos="r" depth="3" NCoef="0" IVar="2" Cut="1.1253411769866943e+00" cType="1" res="6.7193433642387390e-02" rms="3.9298921823501587e-01" purity="7.8849112987518311e-01" nType="0">
              <Node pos="l" depth="4" NCoef="0" IVar="-1" Cut="0.0000000000000000e+00" cType="1" res="2.0955054089426994e-02" rms="3.8135933876037598e-01" purity="8.0623161792755127e-01" nType="-99"/>
              <Node pos="r" depth="4" NCoef="0" IVar="-1" Cut="0.0000000000000000e+00" cType="1" res="7.9863136634230614e-03" rms="4.1749113798141479e-01" purity="7.4586975574493408e-01" nType="-99"/>
            </Node>
          </Node>
          <Node pos="r" depth="2" NCoef="0" IVar="5" Cut="2.5714284896850586e+01" cType="1" res="9.7562171518802643e-02" rms="3.7008330225944519e-01" purity="8.1794667243957520e-01" nType="0">
            <Node pos="l" depth="3" NCoef="0" IVar="3" Cut="1.2333333015441895e+01" cType="1" res="8.6610116064548492e-02" rms="3.7581181526184082e-01" purity="8.0784541368484497e-01" nType="0">
              <Node pos="l" depth="4" NCoef="0" IVar="-1" Cut="0.0000000000000000e+00" cType="1" res="1.0339721105992794e-02" rms="4.2855265736579895e-01" purity="6.5724408626556396e-01" nType="-99"/>
              <Node pos="r" depth="4" NCoef="0" IVar="-1" Cut="0.0000000000000000e+00" cType="1" res="2.5089828297495842e-02" rms="3.6396589875221252e-01" purity="8.3743011951446533e-01" nType="-99"/>
            </Node>
            <Node pos="r" depth="3" NCoef="0" IVar="-1" Cut="0.0000000000000000e+00" cType="1" res="3.7059843540191650e-02" rms="3.4097763895988464e-01" purity="8.6061531305313110e-01" nType="-99"/>
          </Node>
        </Node>
      </Node>
    </BinaryTree>
    <BinaryTree type="DecisionTree" boostWeight="1.0000000000000000e+00" itree="15">
      <Node pos="s" depth="0" NCoef="0" IVar="5" Cut="8.4285717010498047e+00" cType="1" res="2.3465263657271862e-03" rms="3.9471340179443359e-01" purity="5.0398623943328857e-01" nType="0">
        <Node pos="l" depth="1" NCoef="0" IVar="4" Cut="1.3523809432983398e+01" cType="1" res="-3.8892943412065506e-02" rms="3.9854565262794495e-01" purity="3.4464585781097412e-01" nType="0">
          <Node pos="l" depth="2" NCoef="0" IVar="4" Cut="8.2857141494750977e+00" cType="1" res="-2.7027036994695663e-02" rms="3.9850741624832153e-01" purity="3.5528892278671265e-01" nType="0">
            <Node pos="l" depth="3" NCoef="0" IVar="4" Cut="6.2857141494750977e+00" cType="1" res="-1.3453811407089233e-01" rms="2.6671656966209412e-01" purity="1.1140392720699310e-01" nType="0">
              <Node pos="l" depth="4" NCoef="0" IVar="-1" Cut="0.0000000000000000e+00" cType="1" res="-5.7898193597793579e-02" rms="2.1253767609596252e-01" purity="5.0043545663356781e-02" nType="-99"/>
              <Node pos="r" depth="4" NCoef="0" IVar="-1" Cut="0.0000000000000000e+00" cType="1" res="-3.5730808973312378e-02" rms="2.8114855289459229e-01" purity="1.3410082459449768e-01" nType="-99"/>
            </Node>
            <Node pos="r" depth="3" NCoef="0" IVar="5" Cut="3.8095238804817200e-01" cType="1" res="-1.1579652782529593e-03" rms="4.2006283998489380e-01" purity="4.1397199034690857e-01" nType="0">
              <Node pos="l" depth="4" NCoef="0" IVar="-1" Cut="0.0000000000000000e+00" cType="1" res="-1.7314760014414787e-02" rms="3.8575646281242371e-01" purity="2.1784694492816925e-01" nType="-99"/>
              <Node pos="r" depth="4" NCoef="0" IVar="-1" Cut="0.0000000000000000e+00" cType="1" res="1.5532759949564934e-02" rms="4.4309777021408081e-01" purity="6.2023067474365234e-01" nType="-99"/>
            </Node>
          </Node>
          <Node pos="r" depth="2" NCoef="0" IVar="-1" Cut="0.0000000000000000e+00" cType="1" res="-7.1123659610748291e-02" rms="2.8174239397048950e-01" purity="9.5943823456764221e-02" nType="-99"/>
        </Node>
        <Node pos="r" depth="1" NCoef="0" IVar="5" Cut="1.8523809432983398e+01" cType="1" res="8.1166841089725494e-02" rms="3.7486705183982849e-01" purity="8.0853080749511719e-01" nType="0">
          <Node pos="l" depth="2" NCoef="0" IVar="4" Cut="8.2857141494750977e+00" cType="1" res="6.3315339386463165e-02" rms="3.8523656129837036e-01" purity="7.8936392068862915e-01" nType="0">
            <Node pos="l" depth="3" NCoef="0" IVar="5" Cut="1.3285714149475098e+01" cType="1" res="2.1713649854063988e-02" rms="4.1683775186538696e-01" purity="6.9829010963439941e-01" nType="0">
              <Node pos="l" depth="4" NCoef="0" IVar="-1" Cut="0.0000000000000000e+00" cType="1" res="-3.6342162638902664e-03" rms="4.3366718292236328e-01" purity="6.4053916931152344e-01" nType="-99"/>
              <Node pos="r" depth="4" NCoef="0" IVar="-1" Cut="0.0000000000000000e+00" cType="1" res="1.3309564441442490e-02" rms="3.9949336647987366e-01" purity="7.4689108133316040e-01" nType="-99"/>
            </Node>
            <Node pos="r" depth="3" NCoef="0" IVar="2" Cut="9.4644302129745483e-01" cType="1" res="8.3714477717876434e-02" rms="3.6703398823738098e-01" purity="8.3402150869369507e-01" nType="0">
              <Node pos="l" depth="4" NCoef="0" IVar="-1" Cut="0.0000000000000000e+00" cType="1" res="2.8079787269234657e-02" rms="3.4803318977355957e-01" purity="8.5493916273117065e-01" nType="-99"/>
              <Node pos="r" depth="4" NCoef="0" IVar="-1" Cut="0.0000000000000000e+00" cType="1" res="1.6522726044058800e-02" rms="3.8601049780845642e-01" purity="8.1059068441390991e-01" nType="-99"/>
            </Node>
          </Node>
          <Node pos="r" depth="2" NCoef="0" IVar="2" Cut="1.1749386787414551e+00" cType="1" res="1.1150430142879486e-01" rms="3.5449764132499695e-01" purity="8.4110367298126221e-01" nType="0">
            <Node pos="l" depth="3" NCoef="0" IVar="4" Cut="8.2857141494750977e+00" cType="1" res="1.1994830518960953e-01" rms="3.4173390269279480e-01" purity="8.5188758373260498e-01" nType="0">
              <Node pos="l" depth="4" NCoef="0" IVar="-1" Cut="0.0000000000000000e+00" cType="1" res="2.7807617560029030e-02" rms="3.5823893547058105e-01" purity="8.2552784681320190e-01" nType="-99"/>
              <Node pos="r" depth="4" NCoef="0" IVar="-1" Cut="0.0000000000000000e+00" cType="1" res="3.7763439118862152e-02" rms="3.1790202856063843e-01" purity="8.8639611005783081e-01" nType="-99"/>
            </Node>
            <Node pos="r" depth="3" NCoef="0" IVar="-1" Cut="0.0000000000000000e+00" cType="1" res="2.3662229999899864e-02" rms="3.8368976116180420e-01" purity="8.1419897079467773e-01" nType="-99"/>
          </Node>
        </Node>
      </Node>
    </BinaryTree>
    <BinaryTree type="DecisionTree" boostWeight="1.0000000000000000e+00" itree="16">
      <Node pos="s" depth="0" NCoef="0" IVar="5" Cut="5.7142858505249023e+00" cType="1" res="-1.6722771106287837e-03" rms="3.9269289374351501e-01" purity="4.9721589684486389e-01" nType="0">
        <Node pos="l" depth="1" NCoef="0" IVar="7" Cut="4.7619048506021500e-02" cType="1" res="-4.6426575630903244e-02" rms="3.9186745882034302e-01" purity="2.8476151823997498e-01" nType="0">
          <Node pos="l" depth="2" NCoef="0" IVar="3" Cut="1.1000000000000000e+01" cType="1" res="-7.7893130481243134e-02" rms="3.1523942947387695e-01" purity="1.3709476590156555e-01" nType="0">
            <Node pos="l" depth="3" NCoef="0" IVar="2" Cut="1.1904023885726929e+00" cType="1" res="-1.1645632982254028e-01" rms="2.3586978018283844e-01" purity="6.6700980067253113e-02" nType="0">
              <Node pos="l" depth="4" NCoef="0" IVar="-1" Cut="0.0000000000000000e+00" cType="1" res="-3.6722335964441299e-02" rms="2.4869325757026672e-01" purity="7.6445914804935455e-02" nType="-99"/>
              <Node pos="r" depth="4" NCoef="0" IVar="-1" Cut="0.0000000000000000e+00" cType="1" res="-4.8031389713287354e-02" rms="2.0077702403068542e-01" purity="4.3883290141820908e-02" nType="-99"/>
            </Node>
            <Node pos="r" depth="3" NCoef="0" IVar="4" Cut="9.3333330154418945e+00" cType="1" res="-5.9413816779851913e-02" rms="3.4537291526794434e-01" purity="1.7082715034484863e-01" nType="0">
              <Node pos="l" depth="4" NCoef="0" IVar="-1" Cut="0.0000000000000000e+00" cType="1" res="-3.0759312212467194e-02" rms="2.6433855295181274e-01" purity="8.4669962525367737e-02" nType="-99"/>
              <Node pos="r" depth="4" NCoef="0" IVar="-1" Cut="0.0000000000000000e+00" cType="1" res="-7.1133752353489399e-03" rms="4.1946488618850708e-01" purity="2.7270349860191345e-01" nType="-99"/>
            </Node>
          </Node>
          <Node pos="r" depth="2" NCoef="0" IVar="2" Cut="1.6656351089477539e+00" cType="1" res="-4.8418384976685047e-03" rms="4.7130626440048218e-01" purity="4.7991105914115906e-01" nType="0">
            <Node pos="l" depth="3" NCoef="0" IVar="4" Cut="9.3333330154418945e+00" cType="1" res="9.5716267824172974e-03" rms="4.7200116515159607e-01" purity="4.9880939722061157e-01" nType="0">
              <Node pos="l" depth="4" NCoef="0" IVar="-1" Cut="0.0000000000000000e+00" cType="1" res="-8.8514117524027824e-03" rms="4.5878073573112488e-01" purity="3.9627605676651001e-01" nType="-99"/>
              <Node pos="r" depth="4" NCoef="0" IVar="-1" Cut="0.0000000000000000e+00" cType="1" res="6.5602650865912437e-03" rms="4.7581854462623596e-01" purity="5.4190176725387573e-01" nType="-99"/>
            </Node>
            <Node pos="r" depth="3" NCoef="0" IVar="-1" Cut="0.0000000000000000e+00" cType="1" res="-2.3116333410143852e-02" rms="4.5306390523910522e-01" purity="3.4444364905357361e-01" nType="-99"/>
          </Node>
        </Node>
        <Node pos="r" depth="1" NCoef="0" IVar="7" Cut="4.7619048506021500e-02" cType="1" res="5.8103151619434357e-02" rms="3.8577759265899658e-01" purity="7.8097742795944214e-01" nType="0">
          <Node pos="l" depth="2" NCoef="0" IVar="4" Cut="7.2380952835083008e+00" cType="1" res="4.6002683229744434e-03" rms="4.1178590059280396e-01" purity="6.5253496170043945e-01" nType="0">
            <Node pos="l" depth="3" NCoef="0" IVar="-1" Cut="0.0000000000000000e+00" cType="1" res="-1.7267495393753052e-02" rms="4.3564778566360474e-01" purity="4.6269002556800842e-01" nType="-99"/>
            <Node pos="r" depth="3" NCoef="0" IVar="-1" Cut="0.0000000000000000e+00" cType="1" res="1.5095208771526814e-02" rms="3.8590368628501892e-01" purity="7.7576953172683716e-01" nType="-99"/>
          </Node>
          <Node pos="r" depth="2" NCoef="0" IVar="2" Cut="1.6548558473587036e+00" cType="1" res="7.4059888720512390e-02" rms="3.7620407342910767e-01" purity="8.1928426027297974e-01" nType="0">
            <Node pos="l" depth="3" NCoef="0" IVar="5" Cut="2.4000000000000000e+01" cType="1" res="8.0000355839729309e-02" rms="3.7063083052635193e-01" purity="8.2744687795639038e-01" nType="0">
              <Node pos="l" depth="4" NCoef="0" IVar="-1" Cut="0.0000000000000000e+00" cType="1" res="1.9945045933127403e-02" rms="3.7756502628326416e-01" purity="8.1803488731384277e-01" nType="-99"/>
              <Node pos="r" depth="4" NCoef="0" IVar="-1" Cut="0.0000000000000000e+00" cType="1" res="3.1625535339117050e-02" rms="3.3277752995491028e-01" purity="8.7366509437561035e-01" nType="-99"/>
            </Node>
            <Node pos="r" depth="3" NCoef="0" IVar="-1" Cut="0.0000000000000000e+00" cType="1" res="6.1002839356660843e-03" rms="4.1742339730262756e-01" purity="7.4947845935821533e-01" nType="-99"/>
          </Node>
        </Node>
      </Node>
    </BinaryTree>
    <BinaryTree type="DecisionTree" boostWeight="1.0000000000000000e+00" itree="17">
      <Node pos="s" depth="0" NCoef="0" IVar="5" Cut="2.8571429252624512e+00" cType="1" res="-4.5577780110761523e-04" rms="3.9205473661422729e-01" purity="5.0159603357315063e-01" nType="0">
        <Node pos="l" depth="1" NCoef="0" IVar="4" Cut="9.3333330154418945e+00" cType="1" res="-5.2322030067443848e-02" rms="3.8423517346382141e-01" purity="2.3241522908210754e-01" nType="0">
          <Node pos="l" depth="2" NCoef="0" IVar="3" Cut="1.0714285850524902e+01" cType="1" res="-8.5164099931716919e-02" rms="2.8851160407066345e-01" purity="1.0994807630777359e-01" nType="0">
            <Node pos="l" depth="3" NCoef="0" IVar="4" Cut="8.3333330154418945e+00" cType="1" res="-1.1966183036565781e-01" rms="1.9090755283832550e-01" purity="3.9840351790189743e-02" nType="0">
              <Node pos="l" depth="4" NCoef="0" IVar="-1" Cut="0.0000000000000000e+00" cType="1" res="-5.0405807793140411e-02" rms="1.3893270492553711e-01" purity="1.8226917833089828e-02" nType="-99"/>
              <Node pos="r" depth="4" NCoef="0" IVar="-1" Cut="0.0000000000000000e+00" cType="1" res="-4.4049967080354691e-02" rms="2.3357358574867249e-01" purity="6.2998384237289429e-02" nType="-99"/>
            </Node>
            <Node pos="r" depth="3" NCoef="0" IVar="4" Cut="8.3333330154418945e+00" cType="1" res="-6.9406576454639435e-02" rms="3.2221236824989319e-01" purity="1.4197115600109100e-01" nType="0">
              <Node pos="l" depth="4" NCoef="0" IVar="-1" Cut="0.0000000000000000e+00" cType="1" res="-4.3861631304025650e-02" rms="2.0939420163631439e-01" purity="4.8069622367620468e-02" nType="-99"/>
              <Node pos="r" depth="4" NCoef="0" IVar="-1" Cut="0.0000000000000000e+00" cType="1" res="-1.6418388113379478e-02" rms="3.5408204793930054e-01" purity="1.7699292302131653e-01" nType="-99"/>
            </Node>
          </Node>
          <Node pos="r" depth="2" NCoef="0" IVar="2" Cut="9.5179146528244019e-01" cType="1" res="-2.7720775455236435e-02" rms="4.4097885489463806e-01" purity="3.2415261864662170e-01" nType="0">
            <Node pos="l" depth="3" NCoef="0" IVar="1" Cut="8.3127981424331665e-01" cType="1" res="-1.0368942748755217e-03" rms="4.5069646835327148e-01" purity="3.5307052731513977e-01" nType="0">
              <Node pos="l" depth="4" NCoef="0" IVar="-1" Cut="0.0000000000000000e+00" cType="1" res="3.3762471284717321e-03" rms="4.5732760429382324e-01" purity="3.7318035960197449e-01" nType="-99"/>
              <Node pos="r" depth="4" NCoef="0" IVar="-1" Cut="0.0000000000000000e+00" cType="1" res="-1.1882335878908634e-02" rms="4.2561772465705872e-01" purity="2.9013165831565857e-01" nType="-99"/>
            </Node>
            <Node pos="r" depth="3" NCoef="0" IVar="7" Cut="4.7619048506021500e-02" cType="1" res="-5.6111216545104980e-02" rms="4.2857864499092102e-01" purity="2.9338523745536804e-01" nType="0">
              <Node pos="l" depth="4" NCoef="0" IVar="-1" Cut="0.0000000000000000e+00" cType="1" res="-2.2737929597496986e-02" rms="3.6294755339622498e-01" purity="1.6583456099033356e-01" nType="-99"/>
              <Node pos="r" depth="4" NCoef="0" IVar="-1" Cut="0.0000000000000000e+00" cType="1" res="-5.9401486068964005e-03" rms="4.8319706320762634e-01" purity="4.1939452290534973e-01" nType="-99"/>
            </Node>
          </Node>
        </Node>
        <Node pos="r" depth="1" NCoef="0" IVar="3" Cut="7.0000000000000000e+00" cType="1" res="4.1416518390178680e-02" rms="3.9329692721366882e-01" purity="7.1890908479690552e-01" nType="0">
          <Node pos="l" depth="2" NCoef="0" IVar="-1" Cut="0.0000000000000000e+00" cType="1" res="-2.6975708082318306e-02" rms="3.6505013704299927e-01" purity="2.1163412928581238e-01" nType="-99"/>
          <Node pos="r" depth="2" NCoef="0" IVar="4" Cut="1.0380952835083008e+01" cType="1" res="5.1803197711706161e-02" rms="3.9302775263786316e-01" purity="7.5370132923126221e-01" nType="0">
            <Node pos="l" depth="3" NCoef="0" IVar="4" Cut="6.1904764175415039e+00" cType="1" res="6.3237249851226807e-02" rms="3.8606742024421692e-01" purity="7.6706880331039429e-01" nType="0">
              <Node pos="l" depth="4" NCoef="0" IVar="-1" Cut="0.0000000000000000e+00" cType="1" res="-5.0406912341713905e-03" rms="3.9418670535087585e-01" purity="5.5263942480087280e-01" nType="-99"/>
              <Node pos="r" depth="4" NCoef="0" IVar="-1" Cut="0.0000000000000000e+00" cType="1" res="1.9796811044216156e-02" rms="3.8363790512084961e-01" purity="7.9517698287963867e-01" nType="-99"/>
            </Node>
            <Node pos="r" depth="3" NCoef="0" IVar="-1" Cut="0.0000000000000000e+00" cType="1" res="-1.2024056166410446e-02" rms="4.3704956769943237e-01" purity="6.3563889265060425e-01" nType="-99"/>
          </Node>
        </Node>
      </Node>
    </BinaryTree>
    <BinaryTree type="DecisionTree" boostWeight="1.0000000000000000e+00" itree="18">
      <Node pos="s" depth="0" NCoef="0" IVar="5" Cut="8.5714282989501953e+00" cType="1" res="9.7557867775321938e-06" rms="3.9039465785026550e-01" purity="5.0128483772277832e-01" nType="0">
        <Node pos="l" depth="1" NCoef="0" IVar="4" Cut="1.3523809432983398e+01" cType="1" res="-3.1090004369616508e-02" rms="3.9411252737045288e-01" purity="3.4507080912590027e-01" nType="0">
          <Node pos="l" depth="2" NCoef="0" IVar="4" Cut="8.2857141494750977e+00" cType="1" res="-2.1465307101607323e-02" rms="3.9494639635086060e-01" purity="3.5497036576271057e-01" nType="0">
            <Node pos="l" depth="3" NCoef="0" IVar="4" Cut="6.2857141494750977e+00" cType="1" res="-1.1356374621391296e-01" rms="2.5541952252388000e-01" purity="1.0476160794496536e-01" nType="0">
              <Node pos="l" depth="4" NCoef="0" IVar="-1" Cut="0.0000000000000000e+00" cType="1" res="-5.4539185017347336e-02" rms="2.1447218954563141e-01" purity="4.8943817615509033e-02" nType="-99"/>
              <Node pos="r" depth="4" NCoef="0" IVar="-1" Cut="0.0000000000000000e+00" cType="1" res="-3.3132568001747131e-02" rms="2.6648166775703430e-01" purity="1.2531079351902008e-01" nType="-99"/>
            </Node>
            <Node pos="r" depth="3" NCoef="0" IVar="5" Cut="1.1428571939468384e+00" cType="1" res="3.9845789433456957e-04" rms="4.1836959123611450e-01" purity="4.1436880826950073e-01" nType="0">
              <Node pos="l" depth="4" NCoef="0" IVar="-1" Cut="0.0000000000000000e+00" cType="1" res="-1.0937943123281002e-02" rms="4.0307921171188354e-01" purity="2.4741941690444946e-01" nType="-99"/>
              <Node pos="r" depth="4" NCoef="0" IVar="-1" Cut="0.0000000000000000e+00" cType="1" res="1.8153816461563110e-02" rms="4.3440234661102295e-01" purity="7.1603882312774658e-01" nType="-99"/>
            </Node>
          </Node>
          <Node pos="r" depth="2" NCoef="0" IVar="-1" Cut="0.0000000000000000e+00" cType="1" res="-6.1164934188127518e-02" rms="2.9145100712776184e-01" purity="1.0937614738941193e-01" nType="-99"/>
        </Node>
        <Node pos="r" depth="1" NCoef="0" IVar="5" Cut="1.8714284896850586e+01" cType="1" res="6.0631562024354935e-02" rms="3.7571567296981812e-01" purity="8.0578809976577759e-01" nType="0">
          <Node pos="l" depth="2" NCoef="0" IVar="3" Cut="1.2000000000000000e+01" cType="1" res="4.4486593455076218e-02" rms="3.8565754890441895e-01" purity="7.8741246461868286e-01" nType="0">
            <Node pos="l" depth="3" NCoef="0" IVar="-1" Cut="0.0000000000000000e+00" cType="1" res="-5.2362340502440929e-03" rms="4.3528860807418823e-01" purity="5.8233308792114258e-01" nType="-99"/>
            <Node pos="r" depth="3" NCoef="0" IVar="4" Cut="7.2380952835083008e+00" cType="1" res="5.4541520774364471e-02" rms="3.7654885649681091e-01" purity="8.1849038600921631e-01" nType="0">
              <Node pos="l" depth="4" NCoef="0" IVar="-1" Cut="0.0000000000000000e+00" cType="1" res="5.9196804650127888e-03" rms="4.1550734639167786e-01" purity="7.4713373184204102e-01" nType="-99"/>
              <Node pos="r" depth="4" NCoef="0" IVar="-1" Cut="0.0000000000000000e+00" cType="1" res="1.8649818375706673e-02" rms="3.6282497644424438e-01" purity="8.4100037813186646e-01" nType="-99"/>
            </Node>
          </Node>
          <Node pos="r" depth="2" NCoef="0" IVar="2" Cut="9.1602933406829834e-01" cType="1" res="8.7481737136840820e-02" rms="3.5695835947990417e-01" purity="8.3634793758392334e-01" nType="0">
            <Node pos="l" depth="3" NCoef="0" IVar="-1" Cut="0.0000000000000000e+00" cType="1" res="2.7874872088432312e-02" rms="3.4447279572486877e-01" purity="8.4541642665863037e-01" nType="-99"/>
            <Node pos="r" depth="3" NCoef="0" IVar="-1" Cut="0.0000000000000000e+00" cType="1" res="2.1117461845278740e-02" rms="3.6885789036750793e-01" purity="8.2711344957351685e-01" nType="-99"/>
          </Node>
        </Node>
      </Node>
    </BinaryTree>
    <BinaryTree type="DecisionTree" boostWeight="1.0000000000000000e+00" itree="19">
      <Node pos="s" depth="0" NCoef="0" IVar="5" Cut="8.5714282989501953e+00" cType="1" res="-2.1959517616778612e-03" rms="3.8863089680671692e-01" purity="4.9873012304306030e-01" nType="0">
        <Node pos="l" depth="1" NCoef="0" IVar="4" Cut="1.3523809432983398e+01" cType="1" res="-3.1256373971700668e-02" rms="3.9196062088012695e-01" purity="3.4019815921783447e-01" nType="0">
          <Node pos="l" depth="2" NCoef="0" IVar="4" Cut="9.3333330154418945e+00" cType="1" res="-2.2649891674518585e-02" rms="3.9341172575950623e-01" purity="3.4992974996566772e-01" nType="0">
            <Node pos="l" depth="3" NCoef="0" IVar="3" Cut="1.0714285850524902e+01" cType="1" res="-6.7368037998676300e-02" rms="3.2499149441719055e-01" purity="2.0498266816139221e-01" nType="0">
              <Node pos="l" depth="4" NCoef="0" IVar="-1" Cut="0.0000000000000000e+00" cType="1" res="-4.5417912304401398e-02" rms="2.1577829122543335e-01" purity="6.1256740242242813e-02" nType="-99"/>
              <Node pos="r" depth="4" NCoef="0" IVar="-1" Cut="0.0000000000000000e+00" cType="1" res="-1.3791514560580254e-02" rms="3.5801255702972412e-01" purity="2.6360833644866943e-01" nType="-99"/>
            </Node>
            <Node pos="r" depth="3" NCoef="0" IVar="5" Cut="1.1428571939468384e+00" cType="1" res="1.4440596103668213e-02" rms="4.3875688314437866e-01" purity="4.7015294432640076e-01" nType="0">
              <Node pos="l" depth="4" NCoef="0" IVar="-1" Cut="0.0000000000000000e+00" cType="1" res="-4.3603740632534027e-03" rms="4.4195842742919922e-01" purity="3.0925562977790833e-01" nType="-99"/>
              <Node pos="r" depth="4" NCoef="0" IVar="-1" Cut="0.0000000000000000e+00" cType="1" res="1.6776043921709061e-02" rms="4.2751738429069519e-01" purity="7.4491924047470093e-01" nType="-99"/>
            </Node>
          </Node>
          <Node pos="r" depth="2" NCoef="0" IVar="-1" Cut="0.0000000000000000e+00" cType="1" res="-5.7927183806896210e-02" rms="2.8416949510574341e-01" purity="1.0443136096000671e-01" nType="-99"/>
        </Node>
        <Node pos="r" depth="1" NCoef="0" IVar="3" Cut="1.0714285850524902e+01" cType="1" res="5.3859364241361618e-02" rms="3.7583136558532715e-01" purity="8.0452603101730347e-01" nType="0">
          <Node pos="l" depth="2" NCoef="0" IVar="-1" Cut="0.0000000000000000e+00" cType="1" res="-1.6608349978923798e-03" rms="4.5509696006774902e-01" purity="5.4283827543258667e-01" nType="-99"/>
          <Node pos="r" depth="2" NCoef="0" IVar="2" Cut="1.2288476228713989e+00" cType="1" res="6.0922704637050629e-02" rms="3.6491963267326355e-01" purity="8.3472454547882080e-01" nType="0">
            <Node pos="l" depth="3" NCoef="0" IVar="5" Cut="2.3571428298950195e+01" cType="1" res="6.8496502935886383e-02" rms="3.5598802566528320e-01" purity="8.4463036060333252e-01" nType="0">
              <Node pos="l" depth="4" NCoef="0" IVar="-1" Cut="0.0000000000000000e+00" cType="1" res="1.7754035070538521e-02" rms="3.6477649211883545e-01" purity="8.3446717262268066e-01" nType="-99"/>
              <Node pos="r" depth="4" NCoef="0" IVar="-1" Cut="0.0000000000000000e+00" cType="1" res="2.9630536213517189e-02" rms="3.1591781973838806e-01" purity="8.8618159294128418e-01" nType="-99"/>
            </Node>
